step,w_0,w_1,w_2,w_3,w_4,w_5,w_6,w_7,w_8,w_9,w_10,w_11,w_12,w_13,w_14,w_15,w_16,w_17,w_18,w_19,w_20,w_21,w_22,w_23,w_24,w_25,w_26,w_27,w_28,w_29,w_30,w_31,w_32,w_33,w_34,w_35,w_36,w_37,w_38,w_39,w_40,w_41,w_42,w_43,w_44,w_45,w_46,w_47,w_48,w_49,w_50,w_51,w_52,w_53,w_54,w_55,w_56,w_57,w_58,w_59,w_60,w_61,w_62,w_63,w_64,w_65,w_66,w_67,w_68,w_69,w_70,w_71,w_72,w_73,w_74,w_75,w_76,w_77,w_78,w_79,w_80,w_81,w_82,w_83,w_84,w_85,w_86,w_87,w_88,w_89,w_90,w_91,w_92,w_93,w_94,w_95,w_96,w_97,w_98,w_99,w_100,w_101,w_102,w_103,w_104,w_105,w_106,w_107,w_108,w_109,w_110,w_111,w_112,w_113,w_114,w_115,w_116,w_117,w_118,w_119,w_120,w_121,w_122,w_123,w_124,w_125,w_126,w_127,w_128,w_129,w_130,w_131,w_132,w_133,w_134,w_135
-1,-0.625506543821929,0.6888837114209827,2.0749211884721053,0.6603226478346317,0.643526945757394,1.511013536716913,-0.05038279993588353,-0.3296882062317497,0.6299532652749755,-0.36920583874677027,1.6709725641171702,-0.2255917124377889,-0.256717921150702,-0.014407177923758303,-0.5514668398135806,-0.25047915296335477,-1.1881515167403125,1.94134108713067,1.1904279906302297,-0.9248017002013079,0.04304718523991218,-0.3767850391136013,0.01301972504575663,-0.24799086908289425,0.9835107374002835,-0.13603550282957352,-0.5951030295611793,0.9091901201737311,-0.2525499148199846,0.02411747600737606,-0.3804306578063488,-0.6683531327077054,1.221129709868843,0.3078644412080661,0.890343258415779,0.836737890149537,0.6381176950840075,1.0785926522708085,0.4965048022876572,-0.23000736284017523,-1.1266329763290481,0.49282768730975923,1.1364683903028734,-1.2713149717586552,1.9103367807182146,-1.4207192632014518,0.5780073894932094,0.5665137401853049,-0.5525807572889935,1.3104768036948915,-1.8828306256925122,-0.8362640558018446,-1.2481136005006632,-0.3998324961933428,-0.6142380979083261,-1.0201100087068433,1.7916242752773361,-0.41642328769722897,0.13213649210638845,-0.01423195589678736,0.5531540636487072,0.12278167782486692,-1.200529113186209,-0.13175879088622186,1.483777897548369,-0.1218448493048313,-0.0027563744165258895,0.6006074628779547,0.9891772961908288,0.13317423646542,0.8642574982021519,0.08941464980372138,2.4244115834996767,1.0218770718854813,0.5932120728530169,1.0694514867938612,0.503422430544077,1.2841435338388858,-0.3594346156386551,-0.4721893077856887,-0.6496107970413483,-1.2993633069929031,-0.7987376655935227,-0.22754546642279377,0.7346723894861198,0.30733088028659167,1.6512749565801177,-2.5217550078065774,-0.46781068079524335,-0.5846915964576467,-0.5374909734383607,0.40137320372633667,-0.3431824822129666,-0.047058267846972666,0.17771646109365138,0.020043129520984172,-0.40956047600920714,0.35599002346642145,0.3291507962004621,-0.5327185281141512,-0.49883978281748553,0.5498278522245964,-0.061901860838766636,0.49577060894858016,-2.3870738105156377,1.1713369245506204,0.17831323863196524,1.1265217001338732,-0.9553469246782299,-0.3656557411854336,-1.795475769535985,-1.344528041107368,0.3109383455009791,2.5955888609734576,3.2833917749353962,-1.4012320103543077,0.6815154034050677,-0.4317480304655011,-0.032576801046633706,-1.0658716428051835,-1.1306453919701205,-0.22831238325601902,0.9056379429866058,1.1900175563629274,-0.44555499901627665,-2.030820577048174,0.3372049542565059,0.4769472285607027,0.6720013580903592,-1.5313681145868105,0.6176581051647503,0.3731212168402421,0.18082262851615272,0.2700342371974885,0.7751188040264068,-1.4028890985071554
0,-0.625506543821929,0.6888837114209827,2.0749211884721053,0.6603226478346317,0.643526945757394,1.511013536716913,-0.05038279993588353,-0.3296882062317497,0.6299532652749755,-0.36920583874677027,1.6709725641171702,-0.2255917124377889,-0.256717921150702,-0.014407177923758303,-0.5514668398135806,-0.25047915296335477,-1.1881515167403125,1.94134108713067,1.1904279906302297,-0.9248017002013079,0.04304718523991218,-0.3767850391136013,0.01301972504575663,-0.24799086908289425,0.9835107374002835,-0.13603550282957352,-0.5951030295611793,0.9091901201737311,-0.2525499148199846,0.02411747600737606,-0.3804306578063488,-0.6683531327077054,1.221129709868843,0.3078644412080661,0.890343258415779,0.836737890149537,0.6381176950840075,1.0785926522708085,0.4965048022876572,-0.23000736284017523,-1.1266329763290481,0.49282768730975923,1.1364683903028734,-1.2713149717586552,1.9103367807182146,-1.4207192632014518,0.5780073894932094,0.5665137401853049,-0.5525807572889935,1.3104768036948915,-1.8828306256925122,-0.8362640558018446,-1.2481136005006632,-0.3998324961933428,-0.6142380979083261,-1.0201100087068433,1.7916242752773361,-0.41642328769722897,0.13213649210638845,-0.01423195589678736,0.5531540636487072,0.12278167782486692,-1.200529113186209,-0.13175879088622186,1.483777897548369,-0.1218448493048313,-0.0027563744165258895,0.6006074628779547,0.9891772961908288,0.13317423646542,0.8642574982021519,0.08941464980372138,2.4244115834996767,1.0218770718854813,0.5932120728530169,1.0694514867938612,0.503422430544077,1.2841435338388858,-0.3594346156386551,-0.4721893077856887,-0.6496107970413483,-1.2993633069929031,-0.7987376655935227,-0.22754546642279377,0.7346723894861198,0.30733088028659167,1.6512749565801177,-2.5217550078065774,-0.46781068079524335,-0.5846915964576467,-0.5374909734383607,0.40137320372633667,-0.3431824822129666,-0.047058267846972666,0.17771646109365138,0.020043129520984172,-0.40956047600920714,0.35599002346642145,0.3291507962004621,-0.5327185281141512,-0.49883978281748553,0.5498278522245964,-0.061901860838766636,0.49577060894858016,-2.3870738105156377,1.1713369245506204,0.17831323863196524,1.1265217001338732,-0.9553469246782299,-0.3656557411854336,-1.795475769535985,-1.344528041107368,0.3109383455009791,2.5955888609734576,3.2833917749353962,-1.4012320103543077,0.6815154034050677,-0.4317480304655011,-0.032576801046633706,-1.0658716428051835,-1.1306453919701205,-0.22831238325601902,0.9056379429866058,1.1900175563629274,-0.44555499901627665,-2.030820577048174,0.3372049542565059,0.4769472285607027,0.6720013580903592,-1.5313681145868105,0.6176581051647503,0.3731212168402421,0.18082262851615272,0.2700342371974885,0.7751188040264068,-1.4028890985071554
1,-0.625506543821929,0.6888837114209827,2.0749211884721053,0.6603226478346317,0.643526945757394,1.511013536716913,-0.05038279993588353,-0.3296882062317497,0.6299532652749755,-0.36920583874677027,1.6709725641171702,-0.2255917124377889,-0.256717921150702,-0.014407177923758303,-0.5514668398135806,-0.25047915296335477,-1.1881515167403125,1.94134108713067,1.1904279906302297,-0.9248017002013079,0.04304718523991218,-0.3767850391136013,0.01301972504575663,-0.24799086908289425,0.9835107374002835,-0.13603550282957352,-0.5951030295611793,0.9091901201737311,-0.2525499148199846,0.02411747600737606,-0.3804306578063488,-0.6683531327077054,1.221129709868843,0.3078644412080661,0.890343258415779,0.836737890149537,0.6381176950840075,1.0785926522708085,0.4965048022876572,-0.23000736284017523,-1.1266329763290481,0.5120771499223559,1.1364683903028734,-1.2713149717586552,1.9103367807182146,-1.4207192632014518,0.5780073894932094,0.5665137401853049,-0.5525807572889935,1.3104768036948915,-1.8828306256925122,-0.8362640558018446,-1.2481136005006632,-0.3998324961933428,-0.6142380979083261,-1.0201100087068433,1.7916242752773361,-0.37937379483674455,0.13213649210638845,-0.01423195589678736,0.5531540636487072,0.12278167782486692,-1.200529113186209,-0.13175879088622186,1.483777897548369,-0.1218448493048313,0.053542581056555155,0.6006074628779547,0.9891772961908288,0.13317423646542,0.8642574982021519,0.08941464980372138,2.4244115834996767,1.0218770718854813,0.5932120728530169,1.0694514867938612,0.503422430544077,1.2841435338388858,-0.3594346156386551,-0.4721893077856887,-0.6496107970413483,-1.2993633069929031,-0.7987376655935227,-0.22754546642279377,0.7346723894861198,0.30733088028659167,1.6512749565801177,-2.5217550078065774,-0.46781068079524335,-0.5846915964576467,-0.5374909734383607,0.40137320372633667,-0.3431824822129666,-0.047058267846972666,0.17771646109365138,0.020043129520984172,-0.40956047600920714,0.35599002346642145,0.3291507962004621,-0.5327185281141512,-0.49883978281748553,0.5498278522245964,-0.061901860838766636,0.49577060894858016,-2.3870738105156377,1.1713369245506204,0.17831323863196524,1.1265217001338732,-0.9553469246782299,-0.3656557411854336,-1.795475769535985,-1.344528041107368,0.3109383455009791,2.5955888609734576,3.2833917749353962,-1.4012320103543077,0.6815154034050677,-0.4317480304655011,-0.032576801046633706,-1.0658716428051835,-1.1306453919701205,-0.22831238325601902,0.9056379429866058,1.1900175563629274,-0.44555499901627665,-2.030820577048174,0.3372049542565059,0.4769472285607027,0.6720013580903592,-1.5313681145868105,0.6176581051647503,0.3731212168402421,0.18082262851615272,0.2700342371974885,0.7751188040264068,-1.4028890985071554
2,-0.625506543821929,0.6888837114209827,2.0749211884721053,0.6603226478346317,0.643526945757394,1.511013536716913,-0.05038279993588353,-0.3296882062317497,0.6299532652749755,-0.36920583874677027,1.6709725641171702,-0.2255917124377889,-0.256717921150702,-0.014407177923758303,-0.5514668398135806,-0.25047915296335477,-1.1881515167403125,1.94134108713067,1.1904279906302297,-0.9248017002013079,0.04304718523991218,-0.3767850391136013,0.01301972504575663,-0.24799086908289425,0.9835107374002835,-0.13603550282957352,-0.5951030295611793,0.9091901201737311,-0.2525499148199846,0.02411747600737606,-0.3804306578063488,-0.6683531327077054,1.221129709868843,0.3078644412080661,0.890343258415779,0.836737890149537,0.6381176950840075,1.1047784273306056,0.4965048022876572,-0.23000736284017523,-1.1266329763290481,0.5120771499223559,1.1364683903028734,-1.2713149717586552,1.926634819662219,-1.4207192632014518,0.5780073894932094,0.5665137401853049,-0.5525807572889935,1.3104768036948915,-1.8828306256925122,-0.8362640558018446,-1.2481136005006632,-0.3998324961933428,-0.6142380979083261,-1.0201100087068433,1.8079223142213405,-0.30966146907045705,0.13213649210638845,-0.01423195589678736,0.5531540636487072,0.12278167782486692,-1.200529113186209,-0.13175879088622186,1.483777897548369,-0.1218448493048313,0.1494406818826398,0.6006074628779547,0.9891772961908288,0.13317423646542,0.8642574982021519,0.08941464980372138,2.4244115834996767,1.0218770718854813,0.5932120728530169,1.0694514867938612,0.503422430544077,1.2841435338388858,-0.3594346156386551,-0.4721893077856887,-0.6496107970413483,-1.2993633069929031,-0.7987376655935227,-0.22754546642279377,0.7346723894861198,0.30733088028659167,1.6512749565801177,-2.5217550078065774,-0.46781068079524335,-0.5846915964576467,-0.5374909734383607,0.40137320372633667,-0.3431824822129666,-0.047058267846972666,0.17771646109365138,0.020043129520984172,-0.40956047600920714,0.35599002346642145,0.3291507962004621,-0.4918414313101981,-0.49883978281748553,0.5498278522245964,-0.061901860838766636,0.49577060894858016,-2.3870738105156377,1.1713369245506204,0.17831323863196524,1.1265217001338732,-0.9553469246782299,-0.3656557411854336,-1.795475769535985,-1.344528041107368,0.3109383455009791,2.5955888609734576,3.2833917749353962,-1.4012320103543077,0.6815154034050677,-0.4317480304655011,-0.032576801046633706,-1.0658716428051835,-1.1306453919701205,-0.22831238325601902,0.9056379429866058,1.1900175563629274,-0.44555499901627665,-2.030820577048174,0.3372049542565059,0.4769472285607027,0.6720013580903592,-1.5313681145868105,0.6176581051647503,0.3731212168402421,0.18082262851615272,0.2700342371974885,0.7751188040264068,-1.4028890985071554
3,-0.625506543821929,0.6888837114209827,2.0749211884721053,0.6603226478346317,0.643526945757394,1.511013536716913,-0.05038279993588353,-0.3296882062317497,0.6299532652749755,-0.36920583874677027,1.6709725641171702,-0.2255917124377889,-0.256717921150702,-0.014407177923758303,-0.5514668398135806,-0.25047915296335477,-1.1881515167403125,1.94134108713067,1.1904279906302297,-0.9248017002013079,0.04304718523991218,-0.3767850391136013,0.01301972504575663,-0.24799086908289425,0.9835107374002835,-0.13603550282957352,-0.5951030295611793,0.9091901201737311,-0.2525499148199846,0.02411747600737606,-0.3804306578063488,-0.6683531327077054,1.2180290381420988,0.3276573695276219,0.890343258415779,0.836737890149537,0.6381176950840075,1.1047784273306056,0.4965048022876572,-0.23000736284017523,-1.1266329763290481,0.5120771499223559,1.1364683903028734,-1.2713149717586552,1.926634819662219,-1.4207192632014518,0.5780073894932094,0.5665137401853049,-0.5525807572889935,1.3104768036948915,-1.8828306256925122,-0.8362640558018446,-1.2481136005006632,-0.3998324961933428,-0.6142380979083261,-1.0201100087068433,1.8079223142213405,-0.24333347478349146,0.13213649210638845,-0.01423195589678736,0.5531540636487072,0.12278167782486692,-1.200529113186209,-0.13175879088622186,1.483777897548369,-0.09355748584864569,0.23493285039780265,0.6006074628779547,0.9891772961908288,0.13317423646542,0.8642574982021519,0.08941464980372138,2.4244115834996767,1.0218770718854813,0.5932120728530169,1.0694514867938612,0.503422430544077,1.2841435338388858,-0.3594346156386551,-0.4721893077856887,-0.6496107970413483,-1.2993633069929031,-0.7987376655935227,-0.22754546642279377,0.7346723894861198,0.30733088028659167,1.6512749565801177,-2.5217550078065774,-0.46781068079524335,-0.5846915964576467,-0.5374909734383607,0.40137320372633667,-0.3431824822129666,-0.047058267846972666,0.17771646109365138,0.020043129520984172,-0.40956047600920714,0.35599002346642145,0.3291507962004621,-0.45295371381353283,-0.49883978281748553,0.5498278522245964,-0.061901860838766636,0.49577060894858016,-2.3870738105156377,1.1713369245506204,0.17831323863196524,1.1265217001338732,-0.9553469246782299,-0.3656557411854336,-1.795475769535985,-1.344528041107368,0.3109383455009791,2.5955888609734576,3.2833917749353962,-1.4012320103543077,0.6815154034050677,-0.4317480304655011,-0.032576801046633706,-1.0658716428051835,-1.1306453919701205,-0.22831238325601902,0.9056379429866058,1.1900175563629274,-0.44555499901627665,-2.030820577048174,0.3372049542565059,0.4769472285607027,0.6720013580903592,-1.5313681145868105,0.6176581051647503,0.3731212168402421,0.18082262851615272,0.2700342371974885,0.7751188040264068,-1.4028890985071554
4,-0.625506543821929,0.6888837114209827,2.0749211884721053,0.6603226478346317,0.643526945757394,1.511013536716913,-0.05038279993588353,-0.3296882062317497,0.6299532652749755,-0.36920583874677027,1.6709725641171702,-0.2255917124377889,-0.256717921150702,-0.014407177923758303,-0.5514668398135806,-0.25047915296335477,-1.1881515167403125,1.94134108713067,1.1904279906302297,-0.9248017002013079,0.04304718523991218,-0.3767850391136013,0.01301972504575663,-0.24799086908289425,0.9835107374002835,-0.13603550282957352,-0.5951030295611793,0.9091901201737311,-0.2525499148199846,0.02411747600737606,-0.3804306578063488,-0.6683531327077054,1.2180290381420988,0.3276573695276219,0.890343258415779,0.836737890149537,0.6381176950840075,1.1182697842474696,0.4965048022876572,-0.23000736284017523,-1.1266329763290481,0.5351829954849939,1.1364683903028734,-1.2713149717586552,1.9429002625283354,-1.4207192632014518,0.5780073894932094,0.5665137401853049,-0.5525807572889935,1.3104768036948915,-1.8828306256925122,-0.8362640558018446,-1.2481136005006632,-0.3998324961933428,-0.6142380979083261,-1.0201100087068433,1.824187757087457,-0.17586149520538624,0.13213649210638845,-0.01423195589678736,0.5531540636487072,0.12278167782486692,-1.200529113186209,-0.13175879088622186,1.483777897548369,-0.09355748584864569,0.26580762749640585,0.6006074628779547,0.9891772961908288,0.13317423646542,0.8642574982021519,0.08941464980372138,2.4244115834996767,1.0218770718854813,0.6245692555359494,1.0694514867938612,0.503422430544077,1.2841435338388858,-0.3594346156386551,-0.4721893077856887,-0.6496107970413483,-1.2993633069929031,-0.7987376655935227,-0.22754546642279377,0.7346723894861198,0.3386880629695242,1.6512749565801177,-2.5217550078065774,-0.46781068079524335,-0.5846915964576467,-0.5374909734383607,0.40137320372633667,-0.3431824822129666,-0.047058267846972666,0.17771646109365138,0.020043129520984172,-0.40956047600920714,0.35599002346642145,0.3291507962004621,-0.4145265977915375,-0.49883978281748553,0.5498278522245964,-0.061901860838766636,0.49577060894858016,-2.3870738105156377,1.1713369245506204,0.17831323863196524,1.1265217001338732,-0.9553469246782299,-0.3656557411854336,-1.795475769535985,-1.344528041107368,0.3109383455009791,2.5955888609734576,3.2833917749353962,-1.4012320103543077,0.6815154034050677,-0.4317480304655011,-0.032576801046633706,-1.0658716428051835,-1.1306453919701205,-0.22831238325601902,0.9056379429866058,1.1900175563629274,-0.44555499901627665,-2.030820577048174,0.3372049542565059,0.4769472285607027,0.6720013580903592,-1.5313681145868105,0.6176581051647503,0.3731212168402421,0.18082262851615272,0.2700342371974885,0.7751188040264068,-1.4028890985071554
5,-0.625506543821929,0.6888837114209827,2.0749211884721053,0.6603226478346317,0.643526945757394,1.511013536716913,-0.05038279993588353,-0.3296882062317497,0.6299532652749755,-0.36920583874677027,1.6709725641171702,-0.2255917124377889,-0.256717921150702,-0.014407177923758303,-0.5514668398135806,-0.25047915296335477,-1.1881515167403125,1.94134108713067,1.1904279906302297,-0.9248017002013079,0.04304718523991218,-0.3767850391136013,0.01301972504575663,-0.24799086908289425,0.9835107374002835,-0.13603550282957352,-0.5951030295611793,0.9091901201737311,-0.2525499148199846,0.02411747600737606,-0.3804306578063488,-0.6683531327077054,1.2164833517344291,0.3488987551197864,0.890343258415779,0.836737890149537,0.6381176950840075,1.1559823054883496,0.4965048022876572,-0.23000736284017523,-1.1266329763290481,0.5351829954849939,1.1364683903028734,-1.2713149717586552,1.9538124991976302,-1.4207192632014518,0.5780073894932094,0.5665137401853049,-0.5525807572889935,1.3104768036948915,-1.8828306256925122,-0.8362640558018446,-1.2141011213606825,-0.3998324961933428,-0.6142380979083261,-1.0091977720375485,1.824187757087457,-0.09076041219491836,0.13213649210638845,-0.01423195589678736,0.5531540636487072,0.12278167782486692,-1.200529113186209,-0.13175879088622186,1.483777897548369,-0.06830275739621361,0.3215410747911355,0.6006074628779547,0.9891772961908288,0.13317423646542,0.8642574982021519,0.08941464980372138,2.4244115834996767,1.0218770718854813,0.6245692555359494,1.0694514867938612,0.503422430544077,1.2841435338388858,-0.3594346156386551,-0.4721893077856887,-0.6496107970413483,-1.2993633069929031,-0.7987376655935227,-0.22754546642279377,0.7346723894861198,0.3386880629695242,1.6512749565801177,-2.5217550078065774,-0.46781068079524335,-0.5846915964576467,-0.4257832723860393,0.40137320372633667,-0.3431824822129666,-0.047058267846972666,0.17771646109365138,0.020043129520984172,-0.40956047600920714,0.35599002346642145,0.3291507962004621,-0.4145265977915375,-0.49883978281748553,0.5498278522245964,-0.061901860838766636,0.49577060894858016,-2.3870738105156377,1.1713369245506204,0.17831323863196524,1.1265217001338732,-0.9553469246782299,-0.3656557411854336,-1.795475769535985,-1.344528041107368,0.3109383455009791,2.5955888609734576,3.2833917749353962,-1.4012320103543077,0.6815154034050677,-0.4317480304655011,-0.032576801046633706,-1.0658716428051835,-1.1306453919701205,-0.22831238325601902,0.9056379429866058,1.195959465265899,-0.44555499901627665,-2.030820577048174,0.3372049542565059,0.4769472285607027,0.6720013580903592,-1.5313681145868105,0.6176581051647503,0.3731212168402421,0.18082262851615272,0.2700342371974885,0.7751188040264068,-1.4028890985071554
6,-0.625506543821929,0.6888837114209827,2.0749211884721053,0.6603226478346317,0.643526945757394,1.511013536716913,-0.05038279993588353,-0.3296882062317497,0.6299532652749755,-0.36920583874677027,1.6709725641171702,-0.2255917124377889,-0.256717921150702,-0.014407177923758303,-0.5514668398135806,-0.25047915296335477,-1.1881515167403125,1.94134108713067,1.1904279906302297,-0.9248017002013079,0.04304718523991218,-0.3767850391136013,0.01301972504575663,-0.24799086908289425,0.9835107374002835,-0.13603550282957352,-0.5951030295611793,0.9091901201737311,-0.2525499148199846,0.02411747600737606,-0.3804306578063488,-0.6683531327077054,1.2164833517344291,0.3488987551197864,0.890343258415779,0.836737890149537,0.6381176950840075,1.1409874175210601,0.4965048022876572,-0.23000736284017523,-1.1266329763290481,0.5359356829701114,1.1364683903028734,-1.2713149717586552,1.9538124991976302,-1.4207192632014518,0.5780073894932094,0.5665137401853049,-0.5525807572889935,1.3104768036948915,-1.8828306256925122,-0.8362640558018446,-1.2141011213606825,-0.3998324961933428,-0.6142380979083261,-1.0091977720375485,1.824187757087457,0.0024334037739029146,0.13213649210638845,-0.01423195589678736,0.5531540636487072,0.12278167782486692,-1.200529113186209,-0.13175879088622186,1.483777897548369,-0.06830275739621361,0.42420287255696487,0.6006074628779547,0.9891772961908288,0.13317423646542,0.8642574982021519,0.08941464980372138,2.4244115834996767,1.0218770718854813,0.6245692555359494,1.0694514867938612,0.503422430544077,1.2841435338388858,-0.3594346156386551,-0.4721893077856887,-0.6496107970413483,-1.2993633069929031,-0.7987376655935227,-0.22754546642279377,0.7346723894861198,0.3386880629695242,1.6512749565801177,-2.5217550078065774,-0.46781068079524335,-0.5846915964576467,-0.4257832723860393,0.40137320372633667,-0.3431824822129666,-0.047058267846972666,0.17771646109365138,0.020043129520984172,-0.40956047600920714,0.35599002346642145,0.3291507962004621,-0.4145265977915375,-0.49883978281748553,0.5498278522245964,-0.061901860838766636,0.49577060894858016,-2.3870738105156377,1.1713369245506204,0.17831323863196524,1.1265217001338732,-0.9553469246782299,-0.3656557411854336,-1.795475769535985,-1.344528041107368,0.3109383455009791,2.5955888609734576,3.2833917749353962,-1.4012320103543077,0.6815154034050677,-0.4317480304655011,-0.032576801046633706,-1.0658716428051835,-1.1306453919701205,-0.22831238325601902,0.9056379429866058,1.195959465265899,-0.44555499901627665,-2.030820577048174,0.3372049542565059,0.4769472285607027,0.6720013580903592,-1.5313681145868105,0.6176581051647503,0.3731212168402421,0.18082262851615272,0.2700342371974885,0.7751188040264068,-1.4028890985071554
7,-0.625506543821929,0.6888837114209827,2.0749211884721053,0.6603226478346317,0.643526945757394,1.511013536716913,-0.05038279993588353,-0.3296882062317497,0.6299532652749755,-0.36920583874677027,1.6709725641171702,-0.2255917124377889,-0.256717921150702,-0.014407177923758303,-0.5514668398135806,-0.25047915296335477,-1.1881515167403125,1.94134108713067,1.1904279906302297,-0.9248017002013079,0.04304718523991218,-0.3767850391136013,0.01301972504575663,-0.24799086908289425,0.9835107374002835,-0.13603550282957352,-0.5951030295611793,0.9091901201737311,-0.2525499148199846,0.02411747600737606,-0.3804306578063488,-0.6683531327077054,1.214917969627575,0.3473333730129322,0.890343258415779,0.836737890149537,0.6381176950840075,1.0976292245042358,0.4965048022876572,-0.23000736284017523,-1.1266329763290481,0.5549105612654612,1.1364683903028734,-1.2713149717586552,1.9538124991976302,-1.4207192632014518,0.5780073894932094,0.5665137401853049,-0.5525807572889935,1.3104768036948915,-1.8828306256925122,-0.8362640558018446,-1.2141011213606825,-0.3998324961933428,-0.6142380979083261,-1.0091977720375485,1.824187757087457,0.10300216240458125,0.13213649210638845,-0.01423195589678736,0.5531540636487072,0.12278167782486692,-1.200529113186209,-0.13175879088622186,1.483777897548369,-0.06830275739621361,0.4823798822989615,0.6006074628779547,0.9891772961908288,0.13317423646542,0.8709514849462968,0.08941464980372138,2.4244115834996767,1.0218770718854813,0.6245692555359494,1.0694514867938612,0.503422430544077,1.2841435338388858,-0.3594346156386551,-0.4721893077856887,-0.6496107970413483,-1.2993633069929031,-0.7987376655935227,-0.22754546642279377,0.7346723894861198,0.34538204971366915,1.6512749565801177,-2.5217550078065774,-0.46781068079524335,-0.5846915964576467,-0.4257832723860393,0.40137320372633667,-0.3431824822129666,-0.047058267846972666,0.17771646109365138,0.020043129520984172,-0.40956047600920714,0.35599002346642145,0.3291507962004621,-0.33928115417919746,-0.49883978281748553,0.5498278522245964,-0.061901860838766636,0.49577060894858016,-2.3870738105156377,1.1713369245506204,0.17831323863196524,1.1265217001338732,-0.9553469246782299,-0.3656557411854336,-1.795475769535985,-1.344528041107368,0.3109383455009791,2.5955888609734576,3.2833917749353962,-1.4012320103543077,0.6815154034050677,-0.4317480304655011,-0.032576801046633706,-1.0658716428051835,-1.1306453919701205,-0.22831238325601902,0.9056379429866058,1.2073713659515053,-0.44555499901627665,-2.030820577048174,0.3372049542565059,0.4769472285607027,0.6720013580903592,-1.5313681145868105,0.6176581051647503,0.3731212168402421,0.18082262851615272,0.2700342371974885,0.7751188040264068,-1.4028890985071554
8,-0.625506543821929,0.6888837114209827,2.0749211884721053,0.6603226478346317,0.643526945757394,1.511013536716913,-0.05038279993588353,-0.3296882062317497,0.6299532652749755,-0.36920583874677027,1.6709725641171702,-0.2255917124377889,-0.256717921150702,-0.014407177923758303,-0.5514668398135806,-0.25047915296335477,-1.1881515167403125,1.94134108713067,1.1904279906302297,-0.9248017002013079,0.04304718523991218,-0.3767850391136013,0.01301972504575663,-0.24799086908289425,0.9835107374002835,-0.13603550282957352,-0.5951030295611793,0.9091901201737311,-0.2525499148199846,0.02411747600737606,-0.3804306578063488,-0.6683531327077054,1.221200219071691,0.3945877586180948,0.890343258415779,0.836737890149537,0.6381176950840075,1.0976292245042358,0.4965048022876572,-0.23000736284017523,-1.1266329763290481,0.5723329156287281,1.1364683903028734,-1.2713149717586552,1.980814189427346,-1.4207192632014518,0.5780073894932094,0.5665137401853049,-0.5525807572889935,1.3104768036948915,-1.8828306256925122,-0.8362640558018446,-1.1707661925267607,-0.3998324961933428,-0.6142380979083261,-0.9984072910705805,1.840398966350205,0.12042451676784813,0.13213649210638845,-0.01423195589678736,0.5531540636487072,0.12278167782486692,-1.200529113186209,-0.13175879088622186,1.483777897548369,-0.026748483756547807,0.6256881873038151,0.6006074628779547,0.9891772961908288,0.13317423646542,0.8709514849462968,0.08941464980372138,2.4244115834996767,1.0218770718854813,0.6245692555359494,1.0694514867938612,0.503422430544077,1.2841435338388858,-0.3594346156386551,-0.4721893077856887,-0.6496107970413483,-1.2993633069929031,-0.7987376655935227,-0.22754546642279377,0.7346723894861198,0.34538204971366915,1.6512749565801177,-2.5217550078065774,-0.46781068079524335,-0.5846915964576467,-0.4257832723860393,0.40137320372633667,-0.3431824822129666,-0.047058267846972666,0.17771646109365138,0.020043129520984172,-0.40956047600920714,0.35599002346642145,0.3291507962004621,-0.33928115417919746,-0.49883978281748553,0.5498278522245964,-0.061901860838766636,0.49577060894858016,-2.3870738105156377,1.1713369245506204,0.17831323863196524,1.1265217001338732,-0.9553469246782299,-0.3656557411854336,-1.795475769535985,-1.344528041107368,0.3109383455009791,2.5955888609734576,3.2833917749353962,-1.4012320103543077,0.6815154034050677,-0.4317480304655011,-0.032576801046633706,-1.0658716428051835,-1.1306453919701205,-0.22831238325601902,0.9056379429866058,1.2073713659515053,-0.44555499901627665,-2.030820577048174,0.3372049542565059,0.4769472285607027,0.6720013580903592,-1.5313681145868105,0.6176581051647503,0.3731212168402421,0.20688895145599928,0.2700342371974885,0.7751188040264068,-1.4028890985071554
9,-0.625506543821929,0.6888837114209827,2.0749211884721053,0.6603226478346317,0.643526945757394,1.511013536716913,-0.05038279993588353,-0.3296882062317497,0.6299532652749755,-0.36920583874677027,1.6709725641171702,-0.2255917124377889,-0.256717921150702,-0.014407177923758303,-0.5514668398135806,-0.25047915296335477,-1.1881515167403125,1.94134108713067,1.1904279906302297,-0.9248017002013079,0.04304718523991218,-0.3767850391136013,0.01301972504575663,-0.24799086908289425,0.9835107374002835,-0.13603550282957352,-0.5951030295611793,0.9091901201737311,-0.2525499148199846,0.02411747600737606,-0.3804306578063488,-0.6683531327077054,1.221200219071691,0.3945877586180948,0.890343258415779,0.836737890149537,0.6381176950840075,1.0976292245042358,0.4965048022876572,-0.23000736284017523,-1.1266329763290481,0.5790724651461832,1.1364683903028734,-1.2713149717586552,1.9969929762715686,-1.4207192632014518,0.5780073894932094,0.5665137401853049,-0.5525807572889935,1.3104768036948915,-1.8828306256925122,-0.8362640558018446,-1.1707661925267607,-0.3998324961933428,-0.6142380979083261,-0.9984072910705805,1.8565777531944274,0.12042451676784813,0.13213649210638845,-0.01423195589678736,0.5531540636487072,0.12278167782486692,-1.200529113186209,-0.13175879088622186,1.483777897548369,-0.026748483756547807,0.6324277368212702,0.6006074628779547,0.9891772961908288,0.13317423646542,0.8709514849462968,0.08941464980372138,2.4244115834996767,1.0218770718854813,0.6245692555359494,1.0694514867938612,0.503422430544077,1.2841435338388858,-0.3594346156386551,-0.4721893077856887,-0.6496107970413483,-1.2993633069929031,-0.7987376655935227,-0.22754546642279377,0.7346723894861198,0.37019287832947867,1.6512749565801177,-2.5217550078065774,-0.46781068079524335,-0.5846915964576467,-0.4009724437702298,0.40137320372633667,-0.3431824822129666,-0.047058267846972666,0.17771646109365138,0.020043129520984172,-0.40956047600920714,0.35599002346642145,0.3291507962004621,-0.33928115417919746,-0.49883978281748553,0.5498278522245964,-0.061901860838766636,0.49577060894858016,-2.3870738105156377,1.1713369245506204,0.17831323863196524,1.1265217001338732,-0.9553469246782299,-0.3656557411854336,-1.795475769535985,-1.344528041107368,0.3109383455009791,2.5955888609734576,3.2833917749353962,-1.4012320103543077,0.6815154034050677,-0.4317480304655011,-0.032576801046633706,-1.0658716428051835,-1.1306453919701205,-0.22831238325601902,0.9056379429866058,1.2073713659515053,-0.44555499901627665,-2.030820577048174,0.3372049542565059,0.4769472285607027,0.6720013580903592,-1.5313681145868105,0.6176581051647503,0.3731212168402421,0.20688895145599928,0.2700342371974885,0.7751188040264068,-1.4028890985071554
10,-0.625506543821929,0.6888837114209827,2.0749211884721053,0.6603226478346317,0.643526945757394,1.511013536716913,-0.05038279993588353,-0.3296882062317497,0.6299532652749755,-0.36920583874677027,1.6709725641171702,-0.2255917124377889,-0.256717921150702,-0.014407177923758303,-0.5514668398135806,-0.25047915296335477,-1.1881515167403125,1.94134108713067,1.1904279906302297,-0.9248017002013079,0.04304718523991218,-0.3767850391136013,0.01301972504575663,-0.24799086908289425,0.9835107374002835,-0.13603550282957352,-0.5951030295611793,0.9091901201737311,-0.2525499148199846,0.02411747600737606,-0.3804306578063488,-0.6683531327077054,1.225022461370017,0.3945877586180948,0.890343258415779,0.836737890149537,0.6381176950840075,1.0478397323740605,0.4965048022876572,-0.23000736284017523,-1.1266329763290481,0.5959017404607072,1.1364683903028734,-1.2713149717586552,2.0199880516071134,-1.4207192632014518,0.5780073894932094,0.5665137401853049,-0.5525807572889935,1.3104768036948915,-1.8828306256925122,-0.8362640558018446,-1.1707661925267607,-0.3998324961933428,-0.6142380979083261,-0.9754122157350356,1.8565777531944274,0.18164693768875478,0.13213649210638845,-0.01423195589678736,0.5531540636487072,0.12278167782486692,-1.200529113186209,-0.13175879088622186,1.483777897548369,-0.008042853865037551,0.6374316981694587,0.6006074628779547,0.9891772961908288,0.13317423646542,0.8860518606989624,0.08941464980372138,2.4244115834996767,1.0218770718854813,0.6245692555359494,1.0694514867938612,0.503422430544077,1.2841435338388858,-0.3594346156386551,-0.4721893077856887,-0.6496107970413483,-1.2993633069929031,-0.7987376655935227,-0.22754546642279377,0.7346723894861198,0.38529325408214427,1.6512749565801177,-2.5217550078065774,-0.46781068079524335,-0.5846915964576467,-0.4009724437702298,0.40137320372633667,-0.3431824822129666,-0.047058267846972666,0.17771646109365138,0.020043129520984172,-0.40956047600920714,0.35599002346642145,0.3291507962004621,-0.33928115417919746,-0.49883978281748553,0.5498278522245964,-0.061901860838766636,0.49577060894858016,-2.3870738105156377,1.1713369245506204,0.17831323863196524,1.1265217001338732,-0.9553469246782299,-0.3656557411854336,-1.795475769535985,-1.344528041107368,0.3109383455009791,2.5955888609734576,3.2833917749353962,-1.4012320103543077,0.6815154034050677,-0.4317480304655011,-0.032576801046633706,-1.0658716428051835,-1.1306453919701205,-0.22831238325601902,0.9056379429866058,1.2065459861715362,-0.44555499901627665,-2.030820577048174,0.3372049542565059,0.4769472285607027,0.6720013580903592,-1.5313681145868105,0.6176581051647503,0.3731212168402421,0.20688895145599928,0.2700342371974885,0.7751188040264068,-1.4028890985071554
11,-0.625506543821929,0.6888837114209827,2.0749211884721053,0.6603226478346317,0.643526945757394,1.511013536716913,-0.05038279993588353,-0.3296882062317497,0.6299532652749755,-0.36920583874677027,1.6709725641171702,-0.2255917124377889,-0.256717921150702,-0.014407177923758303,-0.5514668398135806,-0.25047915296335477,-1.1881515167403125,1.94134108713067,1.1904279906302297,-0.9248017002013079,0.04304718523991218,-0.3767850391136013,0.01301972504575663,-0.24799086908289425,0.9835107374002835,-0.13603550282957352,-0.5951030295611793,0.9091901201737311,-0.2525499148199846,0.02411747600737606,-0.3804306578063488,-0.6683531327077054,1.223797438908647,0.3945877586180948,0.890343258415779,0.836737890149537,0.6381176950840075,1.0478397323740605,0.4965048022876572,-0.23000736284017523,-1.1266329763290481,0.6227175604886844,1.1364683903028734,-1.2713149717586552,2.0199880516071134,-1.4207192632014518,0.5780073894932094,0.5665137401853049,-0.5525807572889935,1.3104768036948915,-1.8828306256925122,-0.8362640558018446,-1.1280975302765814,-0.3998324961933428,-0.6142380979083261,-0.9754122157350356,1.8565777531944274,0.252730645131622,0.13213649210638845,-0.01423195589678736,0.5531540636487072,0.12278167782486692,-1.200529113186209,-0.13175879088622186,1.483777897548369,0.03319127549933948,0.7617637348656073,0.6006074628779547,0.9891772961908288,0.13317423646542,0.8860518606989624,0.08941464980372138,2.4244115834996767,1.0218770718854813,0.6245692555359494,1.0694514867938612,0.503422430544077,1.2841435338388858,-0.3594346156386551,-0.4721893077856887,-0.6496107970413483,-1.2993633069929031,-0.7987376655935227,-0.22754546642279377,0.7346723894861198,0.38529325408214427,1.6512749565801177,-2.5217550078065774,-0.46781068079524335,-0.5846915964576467,-0.4009724437702298,0.40137320372633667,-0.3431824822129666,-0.047058267846972666,0.17771646109365138,0.020043129520984172,-0.40956047600920714,0.35599002346642145,0.3291507962004621,-0.33928115417919746,-0.49883978281748553,0.5498278522245964,-0.061901860838766636,0.49577060894858016,-2.3870738105156377,1.1713369245506204,0.17831323863196524,1.1265217001338732,-0.9553469246782299,-0.3656557411854336,-1.795475769535985,-1.344528041107368,0.3109383455009791,2.5955888609734576,3.2833917749353962,-1.4012320103543077,0.6815154034050677,-0.4317480304655011,-0.032576801046633706,-1.0658716428051835,-1.1306453919701205,-0.22831238325601902,0.9056379429866058,1.2065459861715362,-0.44555499901627665,-2.030820577048174,0.3372049542565059,0.4769472285607027,0.6720013580903592,-1.5313681145868105,0.6176581051647503,0.3731212168402421,0.20688895145599928,0.2700342371974885,0.7751188040264068,-1.4028890985071554
12,-0.625506543821929,0.6888837114209827,2.0749211884721053,0.6603226478346317,0.643526945757394,1.511013536716913,-0.05038279993588353,-0.3296882062317497,0.6299532652749755,-0.36920583874677027,1.6709725641171702,-0.2255917124377889,-0.256717921150702,-0.014407177923758303,-0.5514668398135806,-0.25047915296335477,-1.1881515167403125,1.94134108713067,1.1904279906302297,-0.9248017002013079,0.04304718523991218,-0.3767850391136013,0.01301972504575663,-0.24799086908289425,0.9835107374002835,-0.13603550282957352,-0.5951030295611793,0.9091901201737311,-0.2525499148199846,0.02411747600737606,-0.3804306578063488,-0.6683531327077054,1.2300708088834822,0.3945877586180948,0.890343258415779,0.836737890149537,0.6381176950840075,1.0478397323740605,0.4965048022876572,-0.23000736284017523,-1.1266329763290481,0.6258964473641285,1.1364683903028734,-1.2713149717586552,2.0199880516071134,-1.4207192632014518,0.5780073894932094,0.5665137401853049,-0.5525807572889935,1.3104768036948915,-1.8828306256925122,-0.8362640558018446,-1.1280975302765814,-0.3998324961933428,-0.6142380979083261,-0.9754122157350356,1.8565777531944274,0.252730645131622,0.13213649210638845,-0.01423195589678736,0.5531540636487072,0.12278167782486692,-1.200529113186209,-0.13175879088622186,1.483777897548369,0.03319127549933948,0.7649426217410514,0.6006074628779547,0.9891772961908288,0.13317423646542,0.8860518606989624,0.08941464980372138,2.4244115834996767,1.0218770718854813,0.6245692555359494,1.0694514867938612,0.503422430544077,1.2841435338388858,-0.3594346156386551,-0.4721893077856887,-0.6496107970413483,-1.2993633069929031,-0.7987376655935227,-0.22754546642279377,0.7346723894861198,0.38529325408214427,1.6512749565801177,-2.5217550078065774,-0.46781068079524335,-0.5846915964576467,-0.4009724437702298,0.40137320372633667,-0.3431824822129666,-0.047058267846972666,0.17771646109365138,0.020043129520984172,-0.40956047600920714,0.35599002346642145,0.3291507962004621,-0.30162701831308353,-0.49883978281748553,0.5498278522245964,-0.061901860838766636,0.49577060894858016,-2.3870738105156377,1.1713369245506204,0.17831323863196524,1.1265217001338732,-0.9553469246782299,-0.3656557411854336,-1.795475769535985,-1.344528041107368,0.3109383455009791,2.5955888609734576,3.2833917749353962,-1.4012320103543077,0.6815154034050677,-0.4317480304655011,-0.032576801046633706,-1.0658716428051835,-1.1306453919701205,-0.22831238325601902,0.9056379429866058,1.2131643852011136,-0.44555499901627665,-2.030820577048174,0.3372049542565059,0.4769472285607027,0.6720013580903592,-1.5313681145868105,0.6176581051647503,0.3731212168402421,0.20688895145599928,0.2700342371974885,0.7751188040264068,-1.4028890985071554
13,-0.625506543821929,0.6888837114209827,2.0749211884721053,0.6603226478346317,0.643526945757394,1.511013536716913,-0.05038279993588353,-0.3296882062317497,0.6299532652749755,-0.36920583874677027,1.6709725641171702,-0.2255917124377889,-0.256717921150702,-0.014407177923758303,-0.5514668398135806,-0.25047915296335477,-1.1881515167403125,1.94134108713067,1.1904279906302297,-0.9248017002013079,0.04304718523991218,-0.3767850391136013,0.01301972504575663,-0.24799086908289425,0.9835107374002835,-0.13603550282957352,-0.5951030295611793,0.9091901201737311,-0.2525499148199846,0.02411747600737606,-0.3804306578063488,-0.6683531327077054,1.2288407380745987,0.3945877586180948,0.890343258415779,0.836737890149537,0.6381176950840075,1.0478397323740605,0.4965048022876572,-0.23000736284017523,-1.1266329763290481,0.6287145064702846,1.1364683903028734,-1.2713149717586552,2.0199880516071134,-1.4207192632014518,0.5780073894932094,0.5665137401853049,-0.5525807572889935,1.3104768036948915,-1.8828306256925122,-0.8362640558018446,-1.1280975302765814,-0.3998324961933428,-0.6142380979083261,-0.9754122157350356,1.8565777531944274,0.27326040559648,0.13213649210638845,-0.01423195589678736,0.5531540636487072,0.12278167782486692,-1.200529113186209,-0.13175879088622186,1.483777897548369,0.03319127549933948,0.7882904413120655,0.6006074628779547,0.9891772961908288,0.13317423646542,0.8860518606989624,0.08941464980372138,2.4244115834996767,1.0218770718854813,0.6245692555359494,1.0694514867938612,0.503422430544077,1.2841435338388858,-0.3594346156386551,-0.4721893077856887,-0.6496107970413483,-1.2993633069929031,-0.7987376655935227,-0.22754546642279377,0.7346723894861198,0.38529325408214427,1.6512749565801177,-2.5217550078065774,-0.46781068079524335,-0.5846915964576467,-0.4009724437702298,0.40137320372633667,-0.3431824822129666,-0.047058267846972666,0.17771646109365138,0.020043129520984172,-0.40956047600920714,0.35599002346642145,0.3291507962004621,-0.30162701831308353,-0.49883978281748553,0.5498278522245964,-0.061901860838766636,0.49577060894858016,-2.3870738105156377,1.1713369245506204,0.17831323863196524,1.1265217001338732,-0.9553469246782299,-0.3656557411854336,-1.795475769535985,-1.344528041107368,0.3109383455009791,2.5955888609734576,3.2833917749353962,-1.4012320103543077,0.6815154034050677,-0.4317480304655011,-0.032576801046633706,-1.0658716428051835,-1.1306453919701205,-0.22831238325601902,0.9056379429866058,1.2131643852011136,-0.44555499901627665,-2.030820577048174,0.3372049542565059,0.4769472285607027,0.6720013580903592,-1.5313681145868105,0.6176581051647503,0.3731212168402421,0.20688895145599928,0.2700342371974885,0.7751188040264068,-1.4028890985071554
14,-0.625506543821929,0.6888837114209827,2.0749211884721053,0.6603226478346317,0.643526945757394,1.511013536716913,-0.05038279993588353,-0.3296882062317497,0.6299532652749755,-0.36920583874677027,1.6709725641171702,-0.2255917124377889,-0.256717921150702,-0.014407177923758303,-0.5514668398135806,-0.25047915296335477,-1.1881515167403125,1.94134108713067,1.1904279906302297,-0.9248017002013079,0.04304718523991218,-0.3767850391136013,0.01301972504575663,-0.24799086908289425,0.9835107374002835,-0.13603550282957352,-0.5951030295611793,0.9091901201737311,-0.2525499148199846,0.02411747600737606,-0.3804306578063488,-0.6683531327077054,1.227217309577906,0.39296433012140214,0.890343258415779,0.836737890149537,0.6381176950840075,1.0478397323740605,0.4965048022876572,-0.23000736284017523,-1.1266329763290481,0.6287145064702846,1.1364683903028734,-1.2713149717586552,2.0457426418381273,-1.4207192632014518,0.5780073894932094,0.5665137401853049,-0.5525807572889935,1.3104768036948915,-1.8828306256925122,-0.8362640558018446,-1.1280975302765814,-0.3998324961933428,-0.6142380979083261,-0.9657810596992199,1.8727011873896258,0.27326040559648,0.13213649210638845,-0.01423195589678736,0.5531540636487072,0.12278167782486692,-1.200529113186209,-0.13175879088622186,1.483777897548369,0.03319127549933948,0.7882904413120655,0.6006074628779547,0.9891772961908288,0.13317423646542,0.8860518606989624,0.08941464980372138,2.4244115834996767,1.0218770718854813,0.6245692555359494,1.0694514867938612,0.503422430544077,1.2841435338388858,-0.3594346156386551,-0.4721893077856887,-0.6496107970413483,-1.2993633069929031,-0.7987376655935227,-0.22754546642279377,0.7346723894861198,0.38529325408214427,1.6512749565801177,-2.5217550078065774,-0.46781068079524335,-0.5846915964576467,-0.4009724437702298,0.40137320372633667,-0.3431824822129666,-0.047058267846972666,0.17771646109365138,0.020043129520984172,-0.40956047600920714,0.35599002346642145,0.3291507962004621,-0.30162701831308353,-0.49883978281748553,0.5498278522245964,-0.061901860838766636,0.49577060894858016,-2.3870738105156377,1.1713369245506204,0.17831323863196524,1.1265217001338732,-0.9553469246782299,-0.3656557411854336,-1.795475769535985,-1.344528041107368,0.3109383455009791,2.5955888609734576,3.2833917749353962,-1.4012320103543077,0.6815154034050677,-0.4317480304655011,-0.032576801046633706,-1.0658716428051835,-1.1306453919701205,-0.22831238325601902,0.9056379429866058,1.2131643852011136,-0.44555499901627665,-2.030820577048174,0.3372049542565059,0.4769472285607027,0.6720013580903592,-1.5313681145868105,0.6176581051647503,0.3731212168402421,0.20688895145599928,0.2700342371974885,0.7751188040264068,-1.4028890985071554
15,-0.625506543821929,0.6888837114209827,2.0749211884721053,0.6603226478346317,0.643526945757394,1.511013536716913,-0.05038279993588353,-0.3296882062317497,0.6299532652749755,-0.36920583874677027,1.6709725641171702,-0.2255917124377889,-0.256717921150702,-0.014407177923758303,-0.5514668398135806,-0.25047915296335477,-1.1881515167403125,1.94134108713067,1.1904279906302297,-0.9248017002013079,0.04304718523991218,-0.3767850391136013,0.01301972504575663,-0.24799086908289425,0.9835107374002835,-0.13603550282957352,-0.5951030295611793,0.9091901201737311,-0.2525499148199846,0.02411747600737606,-0.3804306578063488,-0.6683531327077054,1.2678832353358545,0.49958258368780956,0.890343258415779,0.836737890149537,0.6381176950840075,1.036631321929726,0.4965048022876572,-0.23000736284017523,-1.1266329763290481,0.6287145064702846,1.1364683903028734,-1.2713149717586552,2.054926861349636,-1.4207192632014518,0.5780073894932094,0.5665137401853049,-0.5525807572889935,1.3104768036948915,-1.8828306256925122,-0.8362640558018446,-1.0554721490800132,-0.3998324961933428,-0.6142380979083261,-0.9565968401877112,1.8727011873896258,0.34588578679304816,0.13213649210638845,-0.01423195589678736,0.5531540636487072,0.12278167782486692,-1.200529113186209,-0.13175879088622186,1.483777897548369,0.12780766998889392,0.8183824225083408,0.6006074628779547,0.9891772961908288,0.13317423646542,0.8860518606989624,0.08941464980372138,2.4244115834996767,1.0218770718854813,0.6245692555359494,1.0694514867938612,0.503422430544077,1.2841435338388858,-0.3594346156386551,-0.4721893077856887,-0.6496107970413483,-1.2993633069929031,-0.7987376655935227,-0.22754546642279377,0.7346723894861198,0.38529325408214427,1.6512749565801177,-2.5217550078065774,-0.46781068079524335,-0.5846915964576467,-0.4009724437702298,0.40137320372633667,-0.3431824822129666,-0.047058267846972666,0.17771646109365138,0.020043129520984172,-0.40956047600920714,0.35599002346642145,0.3291507962004621,-0.30162701831308353,-0.49883978281748553,0.5498278522245964,-0.061901860838766636,0.49577060894858016,-2.3870738105156377,1.1713369245506204,0.17831323863196524,1.1265217001338732,-0.9553469246782299,-0.3656557411854336,-1.795475769535985,-1.344528041107368,0.3109383455009791,2.5955888609734576,3.2833917749353962,-1.4012320103543077,0.6815154034050677,-0.4317480304655011,-0.032576801046633706,-1.0658716428051835,-1.1306453919701205,-0.22831238325601902,0.9056379429866058,1.2131643852011136,-0.44555499901627665,-2.030820577048174,0.3372049542565059,0.4769472285607027,0.6720013580903592,-1.5313681145868105,0.6176581051647503,0.3731212168402421,0.20688895145599928,0.2700342371974885,0.7751188040264068,-1.4028890985071554
16,-0.625506543821929,0.6888837114209827,2.0749211884721053,0.6603226478346317,0.643526945757394,1.511013536716913,-0.05038279993588353,-0.3296882062317497,0.6299532652749755,-0.36920583874677027,1.6709725641171702,-0.2255917124377889,-0.256717921150702,-0.014407177923758303,-0.5514668398135806,-0.25047915296335477,-1.1881515167403125,1.94134108713067,1.1904279906302297,-0.9248017002013079,0.04304718523991218,-0.3767850391136013,0.01301972504575663,-0.24799086908289425,0.9835107374002835,-0.13603550282957352,-0.5951030295611793,0.9091901201737311,-0.2525499148199846,0.02411747600737606,-0.3804306578063488,-0.6683531327077054,1.276107421190587,0.49958258368780956,0.890343258415779,0.836737890149537,0.6381176950840075,1.025525581406273,0.4965048022876572,-0.23000736284017523,-1.1266329763290481,0.6287145064702846,1.1364683903028734,-1.2713149717586552,2.054926861349636,-1.4207192632014518,0.5780073894932094,0.5665137401853049,-0.5525807572889935,1.3104768036948915,-1.8828306256925122,-0.8362640558018446,-1.0554721490800132,-0.3998324961933428,-0.6142380979083261,-0.9565968401877112,1.8727011873896258,0.3665519096671453,0.13213649210638845,-0.01423195589678736,0.5531540636487072,0.12278167782486692,-1.200529113186209,-0.13175879088622186,1.483777897548369,0.12780766998889392,0.8279428048589843,0.6006074628779547,0.9891772961908288,0.13317423646542,0.8860518606989624,0.08941464980372138,2.4244115834996767,1.0218770718854813,0.6245692555359494,1.0694514867938612,0.503422430544077,1.2841435338388858,-0.3594346156386551,-0.4721893077856887,-0.6496107970413483,-1.2993633069929031,-0.7987376655935227,-0.22754546642279377,0.7346723894861198,0.38529325408214427,1.6512749565801177,-2.5217550078065774,-0.46781068079524335,-0.5846915964576467,-0.4009724437702298,0.40137320372633667,-0.3431824822129666,-0.047058267846972666,0.17771646109365138,0.020043129520984172,-0.40956047600920714,0.35599002346642145,0.3291507962004621,-0.30162701831308353,-0.49883978281748553,0.5498278522245964,-0.061901860838766636,0.49577060894858016,-2.3870738105156377,1.1713369245506204,0.17831323863196524,1.1265217001338732,-0.9553469246782299,-0.3656557411854336,-1.795475769535985,-1.344528041107368,0.3109383455009791,2.5955888609734576,3.2833917749353962,-1.4012320103543077,0.6815154034050677,-0.4317480304655011,-0.032576801046633706,-1.0658716428051835,-1.1306453919701205,-0.22831238325601902,0.9056379429866058,1.2129908789684725,-0.44555499901627665,-2.030820577048174,0.3372049542565059,0.4769472285607027,0.6720013580903592,-1.5313681145868105,0.6176581051647503,0.3731212168402421,0.20688895145599928,0.2700342371974885,0.7751188040264068,-1.4028890985071554
17,-0.625506543821929,0.6888837114209827,2.0749211884721053,0.6603226478346317,0.643526945757394,1.511013536716913,-0.05038279993588353,-0.3296882062317497,0.6299532652749755,-0.36920583874677027,1.6709725641171702,-0.2255917124377889,-0.256717921150702,-0.014407177923758303,-0.5514668398135806,-0.25047915296335477,-1.1881515167403125,1.94134108713067,1.1904279906302297,-0.9248017002013079,0.04304718523991218,-0.3767850391136013,0.01301972504575663,-0.24799086908289425,0.9835107374002835,-0.13603550282957352,-0.5951030295611793,0.9091901201737311,-0.2525499148199846,0.02411747600737606,-0.3804306578063488,-0.6683531327077054,1.276107421190587,0.49958258368780956,0.890343258415779,0.836737890149537,0.6381176950840075,1.025525581406273,0.4965048022876572,-0.23000736284017523,-1.1266329763290481,0.6287145064702846,1.1364683903028734,-1.2713149717586552,2.078351029473086,-1.4207192632014518,0.5780073894932094,0.5665137401853049,-0.5525807572889935,1.3104768036948915,-1.8828306256925122,-0.8362640558018446,-1.0084837756370533,-0.3998324961933428,-0.6142380979083261,-0.9448253305182601,1.888766200185559,0.43994735500945187,0.13213649210638845,-0.01423195589678736,0.5531540636487072,0.12278167782486692,-1.200529113186209,-0.13175879088622186,1.483777897548369,0.13727483116278114,0.8790015743703159,0.6006074628779547,0.9891772961908288,0.13317423646542,0.8860518606989624,0.08941464980372138,2.4244115834996767,1.0218770718854813,0.6245692555359494,1.0694514867938612,0.503422430544077,1.2841435338388858,-0.3594346156386551,-0.4721893077856887,-0.6496107970413483,-1.2993633069929031,-0.7987376655935227,-0.22754546642279377,0.7346723894861198,0.38529325408214427,1.6512749565801177,-2.5217550078065774,-0.46781068079524335,-0.5846915964576467,-0.35921488480213565,0.40137320372633667,-0.3431824822129666,-0.047058267846972666,0.17771646109365138,0.020043129520984172,-0.40956047600920714,0.35599002346642145,0.3291507962004621,-0.30162701831308353,-0.49883978281748553,0.5498278522245964,-0.061901860838766636,0.49577060894858016,-2.3870738105156377,1.1713369245506204,0.17831323863196524,1.1265217001338732,-0.9553469246782299,-0.3656557411854336,-1.795475769535985,-1.344528041107368,0.3109383455009791,2.5955888609734576,3.2833917749353962,-1.4012320103543077,0.6815154034050677,-0.4317480304655011,-0.032576801046633706,-1.0658716428051835,-1.1306453919701205,-0.22831238325601902,0.9056379429866058,1.2129908789684725,-0.44555499901627665,-2.030820577048174,0.3372049542565059,0.4769472285607027,0.6720013580903592,-1.5313681145868105,0.6176581051647503,0.3731212168402421,0.23648928251956883,0.2700342371974885,0.7751188040264068,-1.4028890985071554
18,-0.625506543821929,0.6888837114209827,2.0749211884721053,0.6603226478346317,0.643526945757394,1.511013536716913,-0.05038279993588353,-0.3296882062317497,0.6299532652749755,-0.36920583874677027,1.6709725641171702,-0.2255917124377889,-0.256717921150702,-0.014407177923758303,-0.5514668398135806,-0.25047915296335477,-1.1881515167403125,1.94134108713067,1.1904279906302297,-0.9248017002013079,0.04304718523991218,-0.3767850391136013,0.01301972504575663,-0.24799086908289425,0.9835107374002835,-0.13603550282957352,-0.5951030295611793,0.9091901201737311,-0.2525499148199846,0.02411747600737606,-0.3804306578063488,-0.6683531327077054,1.3259605001302894,0.5649661593775677,0.890343258415779,0.836737890149537,0.6381176950840075,1.0135543008234467,0.4965048022876572,-0.23000736284017523,-1.1266329763290481,0.6354907575840641,1.1364683903028734,-1.2713149717586552,2.0762395559218945,-1.4207192632014518,0.5780073894932094,0.5665137401853049,-0.5525807572889935,1.3104768036948915,-1.8828306256925122,-0.8362640558018446,-0.9717408123211692,-0.3998324961933428,-0.6142380979083261,-0.9448253305182601,1.888766200185559,0.4939055231174926,0.13213649210638845,-0.01423195589678736,0.5531540636487072,0.12278167782486692,-1.200529113186209,-0.13175879088622186,1.483777897548369,0.14850426382410004,1.0136681672492194,0.6006074628779547,0.9891772961908288,0.13317423646542,0.8986478034859262,0.08941464980372138,2.4244115834996767,1.0218770718854813,0.6245692555359494,1.0694514867938612,0.503422430544077,1.2841435338388858,-0.3594346156386551,-0.4721893077856887,-0.6496107970413483,-1.2993633069929031,-0.7987376655935227,-0.22754546642279377,0.7346723894861198,0.43304331715841793,1.6512749565801177,-2.5217550078065774,-0.46781068079524335,-0.5846915964576467,-0.32406076451282584,0.40137320372633667,-0.3431824822129666,-0.047058267846972666,0.17771646109365138,0.020043129520984172,-0.40956047600920714,0.35599002346642145,0.3291507962004621,-0.2618563678541323,-0.49883978281748553,0.5498278522245964,-0.061901860838766636,0.49577060894858016,-2.3870738105156377,1.1713369245506204,0.17831323863196524,1.1265217001338732,-0.9553469246782299,-0.3656557411854336,-1.795475769535985,-1.344528041107368,0.3109383455009791,2.5955888609734576,3.2833917749353962,-1.4012320103543077,0.6815154034050677,-0.4317480304655011,-0.032576801046633706,-1.0658716428051835,-1.1306453919701205,-0.22831238325601902,0.9056379429866058,1.2129908789684725,-0.44555499901627665,-2.030820577048174,0.3372049542565059,0.4769472285607027,0.6720013580903592,-1.5313681145868105,0.6176581051647503,0.3731212168402421,0.23648928251956883,0.2700342371974885,0.7751188040264068,-1.4028890985071554
19,-0.625506543821929,0.6888837114209827,2.0749211884721053,0.6603226478346317,0.643526945757394,1.511013536716913,-0.05038279993588353,-0.3296882062317497,0.6299532652749755,-0.36920583874677027,1.6709725641171702,-0.2255917124377889,-0.256717921150702,-0.014407177923758303,-0.5514668398135806,-0.25047915296335477,-1.1881515167403125,1.94134108713067,1.1904279906302297,-0.9248017002013079,0.04304718523991218,-0.3767850391136013,0.01301972504575663,-0.24799086908289425,0.9835107374002835,-0.13603550282957352,-0.5951030295611793,0.9091901201737311,-0.2525499148199846,0.02411747600737606,-0.3804306578063488,-0.6683531327077054,1.335368896658333,0.5649661593775677,0.890343258415779,0.836737890149537,0.6381176950840075,1.0135543008234467,0.4965048022876572,-0.23000736284017523,-1.1266329763290481,0.6993649236430886,1.1364683903028734,-1.2713149717586552,2.0762395559218945,-1.4207192632014518,0.5780073894932094,0.5665137401853049,-0.5525807572889935,1.3104768036948915,-1.8828306256925122,-0.8362640558018446,-0.9295212977250356,-0.3998324961933428,-0.6142380979083261,-0.9448253305182601,1.888766200185559,0.5584859253397236,0.13213649210638845,-0.01423195589678736,0.5531540636487072,0.12278167782486692,-1.200529113186209,-0.13175879088622186,1.483777897548369,0.14850426382410004,1.04038820995652,0.6006074628779547,0.9891772961908288,0.13317423646542,0.8986478034859262,0.08941464980372138,2.4244115834996767,1.0218770718854813,0.6245692555359494,1.0694514867938612,0.503422430544077,1.2841435338388858,-0.3594346156386551,-0.4721893077856887,-0.6496107970413483,-1.2993633069929031,-0.7987376655935227,-0.22754546642279377,0.7346723894861198,0.43304331715841793,1.6512749565801177,-2.5217550078065774,-0.46781068079524335,-0.5846915964576467,-0.28165194269192007,0.40137320372633667,-0.3431824822129666,-0.047058267846972666,0.17771646109365138,0.020043129520984172,-0.40956047600920714,0.35599002346642145,0.3291507962004621,-0.2618563678541323,-0.49883978281748553,0.5498278522245964,-0.061901860838766636,0.49577060894858016,-2.3870738105156377,1.1713369245506204,0.17831323863196524,1.1265217001338732,-0.9553469246782299,-0.3656557411854336,-1.795475769535985,-1.344528041107368,0.3109383455009791,2.5955888609734576,3.2833917749353962,-1.4012320103543077,0.6815154034050677,-0.4317480304655011,-0.032576801046633706,-1.0658716428051835,-1.1306453919701205,-0.22831238325601902,0.9056379429866058,1.2129908789684725,-0.44555499901627665,-2.030820577048174,0.3372049542565059,0.4769472285607027,0.6720013580903592,-1.5313681145868105,0.6176581051647503,0.3731212168402421,0.23648928251956883,0.2700342371974885,0.7751188040264068,-1.4028890985071554
20,-0.625506543821929,0.6888837114209827,2.0749211884721053,0.6603226478346317,0.643526945757394,1.511013536716913,-0.05038279993588353,-0.3296882062317497,0.6299532652749755,-0.36920583874677027,1.6709725641171702,-0.2255917124377889,-0.256717921150702,-0.014407177923758303,-0.5514668398135806,-0.25047915296335477,-1.1881515167403125,1.94134108713067,1.1904279906302297,-0.9248017002013079,0.04304718523991218,-0.3767850391136013,0.01301972504575663,-0.24799086908289425,0.9835107374002835,-0.13603550282957352,-0.5951030295611793,0.9091901201737311,-0.2525499148199846,0.02411747600737606,-0.3804306578063488,-0.6683531327077054,1.335368896658333,0.5897732022546984,0.890343258415779,0.836737890149537,0.6381176950840075,1.0135543008234467,0.4965048022876572,-0.23000736284017523,-1.1266329763290481,0.7103142727281144,1.1364683903028734,-1.2713149717586552,2.0762395559218945,-1.4207192632014518,0.5780073894932094,0.5665137401853049,-0.5525807572889935,1.3104768036948915,-1.8828306256925122,-0.8362640558018446,-0.9295212977250356,-0.3998324961933428,-0.6142380979083261,-0.9448253305182601,1.888766200185559,0.6146242688156021,0.13213649210638845,-0.01423195589678736,0.5531540636487072,0.12278167782486692,-1.200529113186209,-0.13175879088622186,1.483777897548369,0.14850426382410004,1.04038820995652,0.6006074628779547,0.9891772961908288,0.13317423646542,0.8986478034859262,0.08941464980372138,2.4244115834996767,1.0218770718854813,0.6245692555359494,1.0694514867938612,0.503422430544077,1.2841435338388858,-0.3594346156386551,-0.4721893077856887,-0.6496107970413483,-1.2993633069929031,-0.7987376655935227,-0.22754546642279377,0.7346723894861198,0.43304331715841793,1.6512749565801177,-2.5217550078065774,-0.46781068079524335,-0.5846915964576467,-0.2506468948015733,0.40137320372633667,-0.3431824822129666,-0.047058267846972666,0.17771646109365138,0.020043129520984172,-0.40956047600920714,0.35599002346642145,0.3291507962004621,-0.2618563678541323,-0.49883978281748553,0.5498278522245964,-0.061901860838766636,0.49577060894858016,-2.3870738105156377,1.1713369245506204,0.17831323863196524,1.1265217001338732,-0.9553469246782299,-0.3656557411854336,-1.795475769535985,-1.344528041107368,0.3109383455009791,2.5955888609734576,3.2833917749353962,-1.4012320103543077,0.6815154034050677,-0.4317480304655011,-0.032576801046633706,-1.0658716428051835,-1.1306453919701205,-0.22831238325601902,0.9056379429866058,1.2151930180536075,-0.44555499901627665,-2.030820577048174,0.3372049542565059,0.4769472285607027,0.6720013580903592,-1.5313681145868105,0.6176581051647503,0.3731212168402421,0.23648928251956883,0.2700342371974885,0.7751188040264068,-1.4028890985071554
21,-0.625506543821929,0.6888837114209827,2.0749211884721053,0.6603226478346317,0.643526945757394,1.511013536716913,-0.05038279993588353,-0.3296882062317497,0.6299532652749755,-0.36920583874677027,1.6709725641171702,-0.2255917124377889,-0.256717921150702,-0.014407177923758303,-0.5514668398135806,-0.25047915296335477,-1.1881515167403125,1.94134108713067,1.1904279906302297,-0.9248017002013079,0.04304718523991218,-0.3767850391136013,0.01301972504575663,-0.24799086908289425,0.9835107374002835,-0.13603550282957352,-0.5951030295611793,0.9091901201737311,-0.2525499148199846,0.02411747600737606,-0.3804306578063488,-0.6683531327077054,1.33344375455942,0.5878480601557854,0.890343258415779,0.836737890149537,0.6381176950840075,1.0135543008234467,0.4965048022876572,-0.23000736284017523,-1.1266329763290481,0.7330668686667949,1.1364683903028734,-1.2713149717586552,2.119551311418195,-1.4207192632014518,0.5780073894932094,0.5665137401853049,-0.5525807572889935,1.3104768036948915,-1.8828306256925122,-0.8362640558018446,-0.9295212977250356,-0.3998324961933428,-0.6142380979083261,-0.9174844763905613,1.9414891227173605,0.6441624607483354,0.13213649210638845,-0.01423195589678736,0.5531540636487072,0.12278167782486692,-1.200529113186209,-0.13175879088622186,1.483777897548369,0.14850426382410004,1.0828815936843272,0.6006074628779547,0.9891772961908288,0.13317423646542,0.8986478034859262,0.08941464980372138,2.4244115834996767,1.0218770718854813,0.6245692555359494,1.0694514867938612,0.503422430544077,1.2841435338388858,-0.3594346156386551,-0.4721893077856887,-0.6496107970413483,-1.2993633069929031,-0.7987376655935227,-0.22754546642279377,0.7346723894861198,0.43304331715841793,1.6512749565801177,-2.5217550078065774,-0.46781068079524335,-0.5846915964576467,-0.2506468948015733,0.40137320372633667,-0.3431824822129666,-0.047058267846972666,0.17771646109365138,0.020043129520984172,-0.40956047600920714,0.35599002346642145,0.3291507962004621,-0.2618563678541323,-0.49883978281748553,0.5498278522245964,-0.061901860838766636,0.49577060894858016,-2.3870738105156377,1.1713369245506204,0.17831323863196524,1.1265217001338732,-0.9553469246782299,-0.3656557411854336,-1.795475769535985,-1.344528041107368,0.3109383455009791,2.5955888609734576,3.2833917749353962,-1.4012320103543077,0.6815154034050677,-0.4317480304655011,-0.032576801046633706,-1.0658716428051835,-1.1306453919701205,-0.22831238325601902,0.9056379429866058,1.2394952202997929,-0.44555499901627665,-2.030820577048174,0.3372049542565059,0.4769472285607027,0.6720013580903592,-1.5313681145868105,0.6176581051647503,0.3731212168402421,0.2683371967485251,0.2700342371974885,0.7751188040264068,-1.4028890985071554
22,-0.625506543821929,0.6888837114209827,2.0749211884721053,0.6603226478346317,0.643526945757394,1.511013536716913,-0.05038279993588353,-0.3296882062317497,0.6299532652749755,-0.36920583874677027,1.6709725641171702,-0.2255917124377889,-0.256717921150702,-0.014407177923758303,-0.5514668398135806,-0.25047915296335477,-1.1881515167403125,1.94134108713067,1.1904279906302297,-0.9248017002013079,0.04304718523991218,-0.3767850391136013,0.01301972504575663,-0.24799086908289425,0.9835107374002835,-0.13603550282957352,-0.5951030295611793,0.9091901201737311,-0.2525499148199846,0.02411747600737606,-0.3804306578063488,-0.6683531327077054,1.3427711467211123,0.7401347157755593,0.890343258415779,0.836737890149537,0.6381176950840075,1.0135543008234467,0.4965048022876572,-0.23000736284017523,-1.1266329763290481,0.7337822853364145,1.1364683903028734,-1.2713149717586552,2.119551311418195,-1.4207192632014518,0.5780073894932094,0.5665137401853049,-0.5525807572889935,1.3104768036948915,-1.8828306256925122,-0.8362640558018446,-0.7662714207366998,-0.3998324961933428,-0.6142380979083261,-0.9174844763905613,1.9414891227173605,0.6864750055744946,0.13213649210638845,-0.01423195589678736,0.5531540636487072,0.12278167782486692,-1.200529113186209,-0.13175879088622186,1.483777897548369,0.1851886989759114,1.3044765488565973,0.6006074628779547,0.9891772961908288,0.13317423646542,0.8986478034859262,0.08941464980372138,2.4244115834996767,1.0218770718854813,0.6245692555359494,1.0694514867938612,0.503422430544077,1.2841435338388858,-0.3594346156386551,-0.4721893077856887,-0.6496107970413483,-1.2993633069929031,-0.7987376655935227,-0.22754546642279377,0.7346723894861198,0.4882085760477497,1.6512749565801177,-2.5217550078065774,-0.46781068079524335,-0.5846915964576467,-0.16513326667958106,0.40137320372633667,-0.3431824822129666,-0.047058267846972666,0.17771646109365138,0.020043129520984172,-0.40956047600920714,0.35599002346642145,0.3291507962004621,-0.22011469601746075,-0.49883978281748553,0.5498278522245964,-0.061901860838766636,0.49577060894858016,-2.3870738105156377,1.1713369245506204,0.17831323863196524,1.1265217001338732,-0.9553469246782299,-0.3656557411854336,-1.795475769535985,-1.344528041107368,0.3109383455009791,2.5955888609734576,3.2833917749353962,-1.4012320103543077,0.6815154034050677,-0.4317480304655011,-0.032576801046633706,-1.0658716428051835,-1.1306453919701205,-0.22831238325601902,0.9056379429866058,1.2394952202997929,-0.44555499901627665,-2.030820577048174,0.3372049542565059,0.4769472285607027,0.6720013580903592,-1.5313681145868105,0.6176581051647503,0.3731212168402421,0.2994749972931435,0.2700342371974885,0.7751188040264068,-1.4028890985071554
23,-0.625506543821929,0.6888837114209827,2.0749211884721053,0.6603226478346317,0.643526945757394,1.511013536716913,-0.05038279993588353,-0.3296882062317497,0.6299532652749755,-0.36920583874677027,1.6709725641171702,-0.2255917124377889,-0.256717921150702,-0.014407177923758303,-0.5514668398135806,-0.25047915296335477,-1.1881515167403125,1.94134108713067,1.1904279906302297,-0.9248017002013079,0.04304718523991218,-0.3767850391136013,0.01301972504575663,-0.24799086908289425,0.9835107374002835,-0.13603550282957352,-0.5951030295611793,0.9091901201737311,-0.2525499148199846,0.02411747600737606,-0.3804306578063488,-0.6683531327077054,1.3406882408586156,0.7380518099130626,0.890343258415779,0.836737890149537,0.6381176950840075,0.9974418977268229,0.4965048022876572,-0.23000736284017523,-1.1266329763290481,0.7313708029326497,1.1364683903028734,-1.2713149717586552,2.1045702997928197,-1.4207192632014518,0.5780073894932094,0.5665137401853049,-0.5525807572889935,1.3104768036948915,-1.8828306256925122,-0.8362640558018446,-0.7662714207366998,-0.3998324961933428,-0.6142380979083261,-0.9019506017036772,1.9574590332053383,0.6864750055744946,0.13213649210638845,-0.01423195589678736,0.5531540636487072,0.12278167782486692,-1.200529113186209,-0.13175879088622186,1.4372931007481322,0.1851886989759114,1.2859526633562086,0.6006074628779547,0.9891772961908288,0.13317423646542,0.8986478034859262,0.08941464980372138,2.4244115834996767,1.0218770718854813,0.6245692555359494,1.0694514867938612,0.503422430544077,1.3299462122469172,-0.3594346156386551,-0.4721893077856887,-0.6496107970413483,-1.2993633069929031,-0.7987376655935227,-0.22754546642279377,0.7346723894861198,0.4882085760477497,1.6512749565801177,-2.5217550078065774,-0.46781068079524335,-0.5846915964576467,-0.09055484636164442,0.40137320372633667,-0.3431824822129666,-0.047058267846972666,0.17771646109365138,0.020043129520984172,-0.40956047600920714,0.35599002346642145,0.3291507962004621,-0.17613719070967476,-0.49883978281748553,0.5498278522245964,-0.061901860838766636,0.49577060894858016,-2.3870738105156377,1.1713369245506204,0.17831323863196524,1.1265217001338732,-0.9553469246782299,-0.3656557411854336,-1.795475769535985,-1.344528041107368,0.3109383455009791,2.5955888609734576,3.2833917749353962,-1.4012320103543077,0.6815154034050677,-0.4317480304655011,-0.032576801046633706,-1.0658716428051835,-1.1306453919701205,-0.22831238325601902,0.9056379429866058,1.254667993311923,-0.44555499901627665,-2.030820577048174,0.3372049542565059,0.4769472285607027,0.6720013580903592,-1.5313681145868105,0.6176581051647503,0.3731212168402421,0.2994749972931435,0.2700342371974885,0.7751188040264068,-1.4028890985071554
24,-0.625506543821929,0.6888837114209827,2.0749211884721053,0.6603226478346317,0.643526945757394,1.511013536716913,-0.05038279993588353,-0.3296882062317497,0.6299532652749755,-0.36920583874677027,1.6709725641171702,-0.2255917124377889,-0.256717921150702,-0.014407177923758303,-0.5514668398135806,-0.25047915296335477,-1.1881515167403125,1.94134108713067,1.1904279906302297,-0.9248017002013079,0.04304718523991218,-0.3767850391136013,0.01301972504575663,-0.24799086908289425,0.9835107374002835,-0.13603550282957352,-0.5951030295611793,0.9091901201737311,-0.2525499148199846,0.02411747600737606,-0.3804306578063488,-0.6683531327077054,1.3406882408586156,0.7380518099130626,0.890343258415779,0.836737890149537,0.6381176950840075,0.9012233200987958,0.4965048022876572,-0.23000736284017523,-1.1266329763290481,0.7313708029326497,1.1364683903028734,-1.2713149717586552,2.1045702997928197,-1.4207192632014518,0.5780073894932094,0.5665137401853049,-0.5525807572889935,1.3104768036948915,-1.8828306256925122,-0.8362640558018446,-0.7662714207366998,-0.3998324961933428,-0.6142380979083261,-0.9019506017036772,1.9574590332053383,0.6950220133014205,0.13213649210638845,-0.01423195589678736,0.5531540636487072,0.12278167782486692,-1.200529113186209,-0.13175879088622186,1.4372931007481322,0.1851886989759114,1.1811870780012554,0.6006074628779547,0.9891772961908288,0.13317423646542,0.8986478034859262,0.08941464980372138,2.4244115834996767,1.0218770718854813,0.6245692555359494,1.0694514867938612,0.503422430544077,1.3299462122469172,-0.3594346156386551,-0.4721893077856887,-0.6496107970413483,-1.2993633069929031,-0.7987376655935227,-0.22754546642279377,0.7346723894861198,0.5199595411535906,1.6512749565801177,-2.5217550078065774,-0.46781068079524335,-0.5846915964576467,-0.09055484636164442,0.40137320372633667,-0.3431824822129666,-0.047058267846972666,0.17771646109365138,0.020043129520984172,-0.40956047600920714,0.35599002346642145,0.3291507962004621,-0.17613719070967476,-0.49883978281748553,0.5498278522245964,-0.061901860838766636,0.49577060894858016,-2.3870738105156377,1.1713369245506204,0.17831323863196524,1.1265217001338732,-0.9553469246782299,-0.3656557411854336,-1.795475769535985,-1.344528041107368,0.3109383455009791,2.5955888609734576,3.2833917749353962,-1.4012320103543077,0.6815154034050677,-0.4317480304655011,-0.032576801046633706,-1.0658716428051835,-1.1306453919701205,-0.22831238325601902,0.9056379429866058,1.254667993311923,-0.44555499901627665,-2.030820577048174,0.3372049542565059,0.4769472285607027,0.6720013580903592,-1.5313681145868105,0.6176581051647503,0.3731212168402421,0.3352507244883188,0.2700342371974885,0.7751188040264068,-1.4028890985071554
25,-0.625506543821929,0.6888837114209827,2.0749211884721053,0.6603226478346317,0.643526945757394,1.511013536716913,-0.05038279993588353,-0.3296882062317497,0.6734667922803352,-0.36920583874677027,1.6709725641171702,-0.2255917124377889,-0.256717921150702,-0.014407177923758303,-0.5514668398135806,-0.25047915296335477,-1.1881515167403125,1.94134108713067,1.1904279906302297,-0.9248017002013079,0.04304718523991218,-0.3767850391136013,0.01301972504575663,-0.24799086908289425,0.9835107374002835,-0.13603550282957352,-0.5951030295611793,0.9091901201737311,-0.2525499148199846,0.02411747600737606,-0.3804306578063488,-0.6683531327077054,1.3907921776591567,0.7563457106817009,0.890343258415779,0.836737890149537,0.6381176950840075,0.892780653474285,0.4965048022876572,-0.23000736284017523,-1.1266329763290481,0.7533667021792569,1.1364683903028734,-1.2713149717586552,2.1045702997928197,-1.4207192632014518,0.5780073894932094,0.5665137401853049,-0.5525807572889935,1.3104768036948915,-1.8828306256925122,-0.8362640558018446,-0.7662714207366998,-0.3998324961933428,-0.6142380979083261,-0.9019506017036772,1.9574590332053383,0.7649098569477606,0.13213649210638845,-0.01423195589678736,0.5531540636487072,0.12278167782486692,-1.200529113186209,-0.13175879088622186,1.4372931007481322,0.21060117563666209,1.220117199026541,0.6006074628779547,0.9891772961908288,0.13317423646542,0.8986478034859262,0.08941464980372138,2.4244115834996767,1.0218770718854813,0.6768153244804949,1.0694514867938612,0.503422430544077,1.3299462122469172,-0.3594346156386551,-0.4721893077856887,-0.6496107970413483,-1.2993633069929031,-0.7987376655935227,-0.22754546642279377,0.7346723894861198,0.5199595411535906,1.6512749565801177,-2.5217550078065774,-0.46781068079524335,-0.5846915964576467,0.003168596012671665,0.40137320372633667,-0.3431824822129666,-0.047058267846972666,0.17771646109365138,0.020043129520984172,-0.40956047600920714,0.35599002346642145,0.3291507962004621,-0.13264842046025777,-0.49883978281748553,0.5498278522245964,-0.061901860838766636,0.49577060894858016,-2.3870738105156377,1.1713369245506204,0.17831323863196524,1.1265217001338732,-0.9553469246782299,-0.3656557411854336,-1.795475769535985,-1.344528041107368,0.3109383455009791,2.5955888609734576,3.2833917749353962,-1.4012320103543077,0.6815154034050677,-0.4317480304655011,-0.032576801046633706,-1.0658716428051835,-1.1306453919701205,-0.22831238325601902,0.9056379429866058,1.270285831327113,-0.44555499901627665,-2.030820577048174,0.3372049542565059,0.4769472285607027,0.6720013580903592,-1.5313681145868105,0.6176581051647503,0.3731212168402421,0.3352507244883188,0.2700342371974885,0.7751188040264068,-1.4028890985071554
26,-0.625506543821929,0.6888837114209827,2.0749211884721053,0.6603226478346317,0.643526945757394,1.511013536716913,-0.05038279993588353,-0.3296882062317497,0.6734667922803352,-0.36920583874677027,1.6709725641171702,-0.2255917124377889,-0.256717921150702,-0.014407177923758303,-0.5514668398135806,-0.25047915296335477,-1.1881515167403125,1.94134108713067,1.1904279906302297,-0.9248017002013079,0.04304718523991218,-0.3767850391136013,0.01301972504575663,-0.24799086908289425,0.9835107374002835,-0.13603550282957352,-0.5951030295611793,0.9091901201737311,-0.19117508423902357,0.02411747600737606,-0.3804306578063488,-0.6069783021267443,1.4145397507507877,0.7541855930170347,0.890343258415779,0.836737890149537,0.6381176950840075,0.8884303152599325,0.4965048022876572,-0.23000736284017523,-1.1266329763290481,0.7659565114886939,1.1364683903028734,-1.2713149717586552,2.0685747122488545,-1.4207192632014518,0.5780073894932094,0.5665137401853049,-0.5525807572889935,1.3104768036948915,-1.8828306256925122,-0.8362640558018446,-0.7341425547709081,-0.3998324961933428,-0.6142380979083261,-0.8852073757869838,1.9574590332053383,0.8493596229900888,0.13213649210638845,-0.01423195589678736,0.5531540636487072,0.12278167782486692,-1.200529113186209,-0.13175879088622186,1.4372931007481322,0.16978932837124963,1.2802154619412522,0.6006074628779547,0.9891772961908288,0.13317423646542,0.8986478034859262,0.08941464980372138,2.4244115834996767,1.0218770718854813,0.6768153244804949,1.0694514867938612,0.503422430544077,1.3299462122469172,-0.3594346156386551,-0.4721893077856887,-0.6496107970413483,-1.2993633069929031,-0.7987376655935227,-0.22754546642279377,0.7346723894861198,0.5507027599418539,1.6512749565801177,-2.5217550078065774,-0.46781068079524335,-0.5846915964576467,0.07443936003650498,0.40137320372633667,-0.3431824822129666,-0.047058267846972666,0.17771646109365138,0.020043129520984172,-0.40956047600920714,0.35599002346642145,0.3291507962004621,-0.13264842046025777,-0.49883978281748553,0.5498278522245964,-0.061901860838766636,0.49577060894858016,-2.3870738105156377,1.1713369245506204,0.17831323863196524,1.1265217001338732,-0.9553469246782299,-0.3656557411854336,-1.795475769535985,-1.344528041107368,0.3109383455009791,2.5955888609734576,3.2833917749353962,-1.4012320103543077,0.6815154034050677,-0.4317480304655011,-0.032576801046633706,-1.0658716428051835,-1.1306453919701205,-0.22831238325601902,0.9056379429866058,1.3015699598391048,-0.44555499901627665,-2.030820577048174,0.3372049542565059,0.4769472285607027,0.6720013580903592,-1.5313681145868105,0.6176581051647503,0.3731212168402421,0.3352507244883188,0.2700342371974885,0.7751188040264068,-1.4028890985071554
27,-0.625506543821929,0.6888837114209827,2.0749211884721053,0.6603226478346317,0.643526945757394,1.511013536716913,-0.05038279993588353,-0.3296882062317497,0.6734667922803352,-0.36920583874677027,1.6709725641171702,-0.2255917124377889,-0.256717921150702,-0.014407177923758303,-0.5514668398135806,-0.25047915296335477,-1.1881515167403125,1.94134108713067,1.1904279906302297,-0.9248017002013079,0.04304718523991218,-0.3767850391136013,0.01301972504575663,-0.24799086908289425,0.9835107374002835,-0.13603550282957352,-0.5951030295611793,0.9091901201737311,-0.19117508423902357,0.02411747600737606,-0.3804306578063488,-0.6069783021267443,1.440356808797417,0.7541855930170347,0.890343258415779,0.836737890149537,0.6381176950840075,0.8884303152599325,0.4965048022876572,-0.23000736284017523,-1.1266329763290481,0.7659565114886939,1.1364683903028734,-1.2713149717586552,2.0863585317950206,-1.4207192632014518,0.5780073894932094,0.5665137401853049,-0.5525807572889935,1.3104768036948915,-1.8828306256925122,-0.8362640558018446,-0.7341425547709081,-0.3998324961933428,-0.6142380979083261,-0.8674235562408177,1.9574590332053383,0.8493596229900888,0.13213649210638845,-0.01423195589678736,0.5531540636487072,0.12278167782486692,-1.200529113186209,-0.13175879088622186,1.4372931007481322,0.1822403988404031,1.2926665324104056,0.6006074628779547,0.9891772961908288,0.13317423646542,0.8986478034859262,0.08941464980372138,2.4244115834996767,1.0218770718854813,0.6768153244804949,1.0694514867938612,0.503422430544077,1.3299462122469172,-0.3594346156386551,-0.4721893077856887,-0.6496107970413483,-1.2993633069929031,-0.7987376655935227,-0.22754546642279377,0.7346723894861198,0.5507027599418539,1.6512749565801177,-2.5217550078065774,-0.46781068079524335,-0.5846915964576467,0.07443936003650498,0.40137320372633667,-0.3431824822129666,-0.047058267846972666,0.17771646109365138,0.020043129520984172,-0.40956047600920714,0.35599002346642145,0.3291507962004621,-0.08878967051946399,-0.49883978281748553,0.5498278522245964,-0.061901860838766636,0.49577060894858016,-2.3870738105156377,1.1713369245506204,0.17831323863196524,1.1265217001338732,-0.9553469246782299,-0.3656557411854336,-1.795475769535985,-1.344528041107368,0.3109383455009791,2.5955888609734576,3.2833917749353962,-1.4012320103543077,0.6815154034050677,-0.4317480304655011,-0.032576801046633706,-1.0658716428051835,-1.1306453919701205,-0.22831238325601902,0.9056379429866058,1.3015699598391048,-0.44555499901627665,-2.030820577048174,0.3372049542565059,0.4769472285607027,0.6720013580903592,-1.5313681145868105,0.6176581051647503,0.3731212168402421,0.3352507244883188,0.2700342371974885,0.7751188040264068,-1.4028890985071554
28,-0.625506543821929,0.6888837114209827,2.0749211884721053,0.6603226478346317,0.643526945757394,1.511013536716913,-0.05038279993588353,-0.3296882062317497,0.6734667922803352,-0.36920583874677027,1.6709725641171702,-0.2255917124377889,-0.256717921150702,-0.014407177923758303,-0.5514668398135806,-0.25047915296335477,-1.1881515167403125,1.94134108713067,1.1904279906302297,-0.9248017002013079,0.04304718523991218,-0.3767850391136013,0.01301972504575663,-0.24799086908289425,0.9835107374002835,-0.13603550282957352,-0.5951030295611793,0.9091901201737311,-0.19117508423902357,0.02411747600737606,-0.3804306578063488,-0.6069783021267443,1.440356808797417,0.7807981867911686,0.890343258415779,0.836737890149537,0.6381176950840075,0.8862056951470051,0.4965048022876572,-0.23000736284017523,-1.1266329763290481,0.7665050790646486,1.1364683903028734,-1.2713149717586552,2.0863585317950206,-1.4207192632014518,0.5780073894932094,0.5665137401853049,-0.5525807572889935,1.3104768036948915,-1.8828306256925122,-0.8362640558018446,-0.7033660240992231,-0.3998324961933428,-0.6142380979083261,-0.8674235562408177,1.9574590332053383,0.88042460734269,0.13213649210638845,-0.01423195589678736,0.5842190480013084,0.12278167782486692,-1.200529113186209,-0.13175879088622186,1.4372931007481322,0.19443856584986152,1.3339651775545762,0.6006074628779547,0.9891772961908288,0.13317423646542,0.8986478034859262,0.08941464980372138,2.4244115834996767,1.0218770718854813,0.6768153244804949,1.0694514867938612,0.503422430544077,1.3299462122469172,-0.3594346156386551,-0.4721893077856887,-0.6496107970413483,-1.2993633069929031,-0.7987376655935227,-0.22754546642279377,0.7346723894861198,0.5507027599418539,1.6512749565801177,-2.5217550078065774,-0.46781068079524335,-0.5846915964576467,0.07443936003650498,0.40137320372633667,-0.3431824822129666,-0.047058267846972666,0.17771646109365138,0.020043129520984172,-0.40956047600920714,0.35599002346642145,0.3291507962004621,-0.08878967051946399,-0.49883978281748553,0.5498278522245964,-0.061901860838766636,0.49577060894858016,-2.3870738105156377,1.1713369245506204,0.17831323863196524,1.1265217001338732,-0.9553469246782299,-0.3656557411854336,-1.795475769535985,-1.344528041107368,0.3109383455009791,2.5955888609734576,3.2833917749353962,-1.4012320103543077,0.6815154034050677,-0.4317480304655011,-0.032576801046633706,-1.0658716428051835,-1.1306453919701205,-0.22831238325601902,0.9056379429866058,1.3015699598391048,-0.44555499901627665,-2.030820577048174,0.3372049542565059,0.4769472285607027,0.6720013580903592,-1.5313681145868105,0.6176581051647503,0.3731212168402421,0.3352507244883188,0.2700342371974885,0.7751188040264068,-1.4028890985071554
29,-0.625506543821929,0.6888837114209827,2.0749211884721053,0.6603226478346317,0.643526945757394,1.511013536716913,-0.05038279993588353,-0.3296882062317497,0.6734667922803352,-0.36920583874677027,1.6709725641171702,-0.2255917124377889,-0.256717921150702,-0.014407177923758303,-0.5514668398135806,-0.25047915296335477,-1.1881515167403125,1.94134108713067,1.1904279906302297,-0.9248017002013079,0.04304718523991218,-0.3767850391136013,0.01301972504575663,-0.24799086908289425,0.9835107374002835,-0.13603550282957352,-0.5951030295611793,0.9091901201737311,-0.19117508423902357,0.02411747600737606,-0.3804306578063488,-0.6069783021267443,1.4681427936203575,0.8073841679715283,0.890343258415779,0.836737890149537,0.6381176950840075,0.8862056951470051,0.4965048022876572,-0.23000736284017523,-1.1266329763290481,0.7665050790646486,1.1364683903028734,-1.2713149717586552,2.1053524193375086,-1.4207192632014518,0.5780073894932094,0.5665137401853049,-0.5525807572889935,1.3104768036948915,-1.8828306256925122,-0.8362640558018446,-0.6259828607904118,-0.3998324961933428,-0.6142380979083261,-0.8484296686983298,1.9574590332053383,0.9533051663793031,0.13213649210638845,-0.01423195589678736,0.5842190480013084,0.12278167782486692,-1.200529113186209,-0.13175879088622186,1.4372931007481322,0.19443856584986152,1.3294625732823777,0.6006074628779547,0.9891772961908288,0.13317423646542,0.8986478034859262,0.08941464980372138,2.4244115834996767,1.0218770718854813,0.6768153244804949,1.0694514867938612,0.503422430544077,1.3299462122469172,-0.3594346156386551,-0.4721893077856887,-0.6496107970413483,-1.2993633069929031,-0.7987376655935227,-0.22754546642279377,0.7346723894861198,0.5507027599418539,1.6512749565801177,-2.5217550078065774,-0.46781068079524335,-0.5846915964576467,0.07443936003650498,0.40137320372633667,-0.3431824822129666,-0.047058267846972666,0.17771646109365138,0.020043129520984172,-0.40956047600920714,0.35599002346642145,0.3291507962004621,-0.08878967051946399,-0.49883978281748553,0.5498278522245964,-0.061901860838766636,0.49577060894858016,-2.3870738105156377,1.1713369245506204,0.17831323863196524,1.1265217001338732,-0.9553469246782299,-0.3656557411854336,-1.795475769535985,-1.344528041107368,0.3109383455009791,2.5955888609734576,3.2833917749353962,-1.4012320103543077,0.6815154034050677,-0.4317480304655011,-0.015139106078453996,-1.0658716428051835,-1.1306453919701205,-0.22831238325601902,0.9056379429866058,1.335862513981385,-0.44555499901627665,-2.030820577048174,0.3372049542565059,0.4769472285607027,0.6720013580903592,-1.5313681145868105,0.6176581051647503,0.3731212168402421,0.3352507244883188,0.2700342371974885,0.7751188040264068,-1.4028890985071554
30,-0.625506543821929,0.6888837114209827,2.0749211884721053,0.6603226478346317,0.643526945757394,1.511013536716913,-0.05038279993588353,-0.3296882062317497,0.6734667922803352,-0.36920583874677027,1.6709725641171702,-0.2255917124377889,-0.256717921150702,-0.014407177923758303,-0.5514668398135806,-0.25047915296335477,-1.1881515167403125,1.94134108713067,1.1904279906302297,-0.9248017002013079,0.04304718523991218,-0.3767850391136013,0.01301972504575663,-0.24799086908289425,0.9835107374002835,-0.13603550282957352,-0.5951030295611793,0.9091901201737311,-0.19117508423902357,0.02411747600737606,-0.3804306578063488,-0.6069783021267443,1.4686344635119373,0.8078758378631081,0.890343258415779,0.836737890149537,0.6381176950840075,0.8862056951470051,0.4965048022876572,-0.23000736284017523,-1.1266329763290481,0.7759067496279749,1.1364683903028734,-1.2713149717586552,2.124907388392098,-1.4207192632014518,0.5780073894932094,0.5665137401853049,-0.5525807572889935,1.3104768036948915,-1.8828306256925122,-0.8362640558018446,-0.5967209578059931,-0.3998324961933428,-0.6142380979083261,-0.8288746996437405,1.9574590332053383,1.0651942951410778,0.13213649210638845,-0.01423195589678736,0.5842190480013084,0.12278167782486692,-1.200529113186209,-0.13175879088622186,1.4372931007481322,0.2091437705955706,1.3614912529753953,0.6006074628779547,0.9891772961908288,0.13317423646542,0.8986478034859262,0.08941464980372138,2.4244115834996767,1.0218770718854813,0.6768153244804949,1.0694514867938612,0.503422430544077,1.3299462122469172,-0.3594346156386551,-0.4721893077856887,-0.6496107970413483,-1.2993633069929031,-0.7987376655935227,-0.22754546642279377,0.7346723894861198,0.5507027599418539,1.6512749565801177,-2.5217550078065774,-0.46781068079524335,-0.5846915964576467,0.1384947513283207,0.40137320372633667,-0.3431824822129666,-0.047058267846972666,0.17771646109365138,0.020043129520984172,-0.40956047600920714,0.35599002346642145,0.3291507962004621,-0.04364129005550277,-0.49883978281748553,0.5498278522245964,-0.061901860838766636,0.49577060894858016,-2.3870738105156377,1.1713369245506204,0.17831323863196524,1.1265217001338732,-0.9553469246782299,-0.3656557411854336,-1.795475769535985,-1.344528041107368,0.3109383455009791,2.5955888609734576,3.2833917749353962,-1.4012320103543077,0.6815154034050677,-0.4317480304655011,-0.015139106078453996,-1.0658716428051835,-1.1306453919701205,-0.22831238325601902,0.9056379429866058,1.3552522891159702,-0.44555499901627665,-2.030820577048174,0.3372049542565059,0.4769472285607027,0.6720013580903592,-1.5313681145868105,0.6176581051647503,0.3731212168402421,0.3352507244883188,0.2700342371974885,0.7751188040264068,-1.4028890985071554
31,-0.625506543821929,0.6888837114209827,2.0749211884721053,0.6603226478346317,0.643526945757394,1.511013536716913,-0.05038279993588353,-0.3296882062317497,0.6734667922803352,-0.36920583874677027,1.6709725641171702,-0.2255917124377889,-0.256717921150702,-0.014407177923758303,-0.5514668398135806,-0.25047915296335477,-1.1881515167403125,1.94134108713067,1.1904279906302297,-0.9248017002013079,0.04304718523991218,-0.3767850391136013,0.01301972504575663,-0.24799086908289425,0.9835107374002835,-0.13603550282957352,-0.5951030295611793,0.9091901201737311,-0.19117508423902357,0.02411747600737606,-0.3804306578063488,-0.6069783021267443,1.4830857232549022,0.8378891687619398,0.890343258415779,0.836737890149537,0.6381176950840075,0.8675008559341825,0.4965048022876572,-0.23000736284017523,-1.1266329763290481,0.7825543399796611,1.1364683903028734,-1.2713149717586552,2.1221020621965647,-1.4207192632014518,0.5780073894932094,0.5665137401853049,-0.5525807572889935,1.3104768036948915,-1.8828306256925122,-0.8362640558018446,-0.5967209578059931,-0.3998324961933428,-0.6142380979083261,-0.8288746996437405,1.9733954084852163,0.9824695295748958,0.13213649210638845,-0.01423195589678736,0.5842190480013084,0.12278167782486692,-1.200529113186209,-0.13175879088622186,1.4372931007481322,0.23045747982669182,1.3221350615825676,0.6006074628779547,0.9891772961908288,0.13317423646542,0.8986478034859262,0.08941464980372138,2.4244115834996767,1.0218770718854813,0.6768153244804949,1.0694514867938612,0.503422430544077,1.3299462122469172,-0.3594346156386551,-0.4721893077856887,-0.6496107970413483,-1.2993633069929031,-0.7987376655935227,-0.22754546642279377,0.7346723894861198,0.5831521393473454,1.6512749565801177,-2.5217550078065774,-0.46781068079524335,-0.5846915964576467,0.17094413073381223,0.40137320372633667,-0.3431824822129666,-0.047058267846972666,0.17771646109365138,0.020043129520984172,-0.40956047600920714,0.35599002346642145,0.3291507962004621,0.0034023834017010424,-0.49883978281748553,0.5498278522245964,-0.061901860838766636,0.49577060894858016,-2.3870738105156377,1.1713369245506204,0.17831323863196524,1.1265217001338732,-0.9553469246782299,-0.3656557411854336,-1.795475769535985,-1.344528041107368,0.3109383455009791,2.5955888609734576,3.2833917749353962,-1.4012320103543077,0.6815154034050677,-0.4317480304655011,-0.015139106078453996,-1.0658716428051835,-1.1306453919701205,-0.22831238325601902,0.9056379429866058,1.3552522891159702,-0.44555499901627665,-2.030820577048174,0.3372049542565059,0.4769472285607027,0.6720013580903592,-1.5313681145868105,0.6176581051647503,0.3731212168402421,0.3352507244883188,0.2700342371974885,0.7751188040264068,-1.4028890985071554
32,-0.625506543821929,0.6888837114209827,2.0749211884721053,0.6603226478346317,0.643526945757394,1.511013536716913,-0.05038279993588353,-0.3296882062317497,0.6734667922803352,-0.36920583874677027,1.6709725641171702,-0.2255917124377889,-0.256717921150702,-0.014407177923758303,-0.5514668398135806,-0.25047915296335477,-1.1881515167403125,1.94134108713067,1.1904279906302297,-0.9248017002013079,0.04304718523991218,-0.3767850391136013,0.01301972504575663,-0.24799086908289425,0.9835107374002835,-0.13603550282957352,-0.5951030295611793,0.9091901201737311,-0.19117508423902357,0.02411747600737606,-0.3804306578063488,-0.6069783021267443,1.5175225317381242,0.8658842076962022,0.890343258415779,0.836737890149537,0.6381176950840075,0.84179730951279,0.4965048022876572,-0.23000736284017523,-1.1266329763290481,0.7925385906378222,1.1364683903028734,-1.2713149717586552,2.1312246723930324,-1.4207192632014518,0.5780073894932094,0.5665137401853049,-0.5525807572889935,1.3104768036948915,-1.8828306256925122,-0.8362640558018446,-0.5967209578059931,-0.3998324961933428,-0.6142380979083261,-0.8197520894472727,1.9733954084852163,0.9667502338116644,0.13213649210638845,-0.01423195589678736,0.5842190480013084,0.12278167782486692,-1.200529113186209,-0.13175879088622186,1.4372931007481322,0.23045747982669182,1.3221350615825676,0.6006074628779547,0.9891772961908288,0.13317423646542,0.8986478034859262,0.08941464980372138,2.4244115834996767,1.0218770718854813,0.6768153244804949,1.0694514867938612,0.503422430544077,1.3299462122469172,-0.3594346156386551,-0.4721893077856887,-0.6496107970413483,-1.2993633069929031,-0.7987376655935227,-0.22754546642279377,0.7346723894861198,0.5831521393473454,1.6512749565801177,-2.5217550078065774,-0.46781068079524335,-0.5846915964576467,0.17094413073381223,0.40137320372633667,-0.3431824822129666,-0.047058267846972666,0.17771646109365138,0.020043129520984172,-0.40956047600920714,0.35599002346642145,0.3291507962004621,0.0034023834017010424,-0.49883978281748553,0.5498278522245964,-0.061901860838766636,0.49577060894858016,-2.3870738105156377,1.1713369245506204,0.17831323863196524,1.1265217001338732,-0.9553469246782299,-0.3656557411854336,-1.795475769535985,-1.344528041107368,0.3109383455009791,2.5955888609734576,3.2833917749353962,-1.4012320103543077,0.6815154034050677,-0.4317480304655011,-0.015139106078453996,-1.0658716428051835,-1.1306453919701205,-0.22831238325601902,0.9056379429866058,1.3552522891159702,-0.44555499901627665,-2.030820577048174,0.3372049542565059,0.4769472285607027,0.6720013580903592,-1.5313681145868105,0.6176581051647503,0.3731212168402421,0.3352507244883188,0.2700342371974885,0.7751188040264068,-1.4028890985071554
33,-0.625506543821929,0.6888837114209827,2.0749211884721053,0.6603226478346317,0.643526945757394,1.511013536716913,-0.05038279993588353,-0.3296882062317497,0.6734667922803352,-0.36920583874677027,1.6709725641171702,-0.2255917124377889,-0.256717921150702,-0.014407177923758303,-0.5514668398135806,-0.25047915296335477,-1.1881515167403125,1.94134108713067,1.1904279906302297,-0.9248017002013079,0.04304718523991218,-0.3767850391136013,0.01301972504575663,-0.24799086908289425,0.9835107374002835,-0.13603550282957352,-0.5951030295611793,0.9091901201737311,-0.19117508423902357,0.02411747600737606,-0.3804306578063488,-0.6069783021267443,1.5151391249986899,0.8635008009567678,0.890343258415779,0.836737890149537,0.6381176950840075,0.84179730951279,0.4965048022876572,-0.23000736284017523,-1.1266329763290481,0.7955298456426666,1.1364683903028734,-1.2713149717586552,2.1312246723930324,-1.4207192632014518,0.5780073894932094,0.5665137401853049,-0.5525807572889935,1.3104768036948915,-1.8828306256925122,-0.8362640558018446,-0.5967209578059931,-0.3998324961933428,-0.6142380979083261,-0.8197520894472727,1.9733954084852163,1.0002358216026503,0.13213649210638845,-0.01423195589678736,0.5842190480013084,0.12278167782486692,-1.200529113186209,-0.13175879088622186,1.4372931007481322,0.23045747982669182,1.344482944172584,0.6006074628779547,0.9891772961908288,0.13317423646542,0.8986478034859262,0.08941464980372138,2.4244115834996767,1.0218770718854813,0.6768153244804949,1.0694514867938612,0.503422430544077,1.3299462122469172,-0.3594346156386551,-0.4721893077856887,-0.6496107970413483,-1.2993633069929031,-0.7987376655935227,-0.22754546642279377,0.7346723894861198,0.5831521393473454,1.6512749565801177,-2.5217550078065774,-0.46781068079524335,-0.5846915964576467,0.17094413073381223,0.40137320372633667,-0.3431824822129666,-0.047058267846972666,0.17771646109365138,0.020043129520984172,-0.40956047600920714,0.35599002346642145,0.3291507962004621,0.0034023834017010424,-0.49883978281748553,0.5498278522245964,-0.061901860838766636,0.49577060894858016,-2.3870738105156377,1.1713369245506204,0.17831323863196524,1.1265217001338732,-0.9553469246782299,-0.3656557411854336,-1.795475769535985,-1.344528041107368,0.3109383455009791,2.5955888609734576,3.2833917749353962,-1.4012320103543077,0.6815154034050677,-0.4317480304655011,-0.015139106078453996,-1.0658716428051835,-1.1306453919701205,-0.22831238325601902,0.9056379429866058,1.3552522891159702,-0.44555499901627665,-2.030820577048174,0.3372049542565059,0.4769472285607027,0.6720013580903592,-1.5313681145868105,0.6176581051647503,0.3731212168402421,0.3352507244883188,0.2700342371974885,0.7751188040264068,-1.4028890985071554
34,-0.625506543821929,0.6888837114209827,2.0749211884721053,0.6603226478346317,0.643526945757394,1.511013536716913,-0.05038279993588353,-0.3296882062317497,0.6734667922803352,-0.36920583874677027,1.6709725641171702,-0.2255917124377889,-0.256717921150702,-0.014407177923758303,-0.5514668398135806,-0.25047915296335477,-1.1881515167403125,1.94134108713067,1.1904279906302297,-0.9248017002013079,0.04304718523991218,-0.3767850391136013,0.01301972504575663,-0.24799086908289425,0.9835107374002835,-0.13603550282957352,-0.5951030295611793,0.9091901201737311,-0.19117508423902357,0.02411747600737606,-0.3804306578063488,-0.6069783021267443,1.513031160542947,0.8613928365010249,0.890343258415779,0.836737890149537,0.6381176950840075,0.84179730951279,0.4965048022876572,-0.23000736284017523,-1.1266329763290481,0.8065732218852806,1.1364683903028734,-1.2713149717586552,2.1454328469026818,-1.4207192632014518,0.5780073894932094,0.5665137401853049,-0.5525807572889935,1.3104768036948915,-1.8828306256925122,-0.8362640558018446,-0.5595970964887725,-0.3998324961933428,-0.6142380979083261,-0.8007873825130343,1.9733954084852163,1.0364140346150437,0.13213649210638845,-0.01423195589678736,0.5842190480013084,0.12278167782486692,-1.200529113186209,-0.13175879088622186,1.4372931007481322,0.2257009474021022,1.337386233423359,0.6006074628779547,0.9891772961908288,0.13317423646542,0.8986478034859262,0.08941464980372138,2.4244115834996767,1.0218770718854813,0.6768153244804949,1.0694514867938612,0.503422430544077,1.3299462122469172,-0.3594346156386551,-0.4721893077856887,-0.6496107970413483,-1.2993633069929031,-0.7987376655935227,-0.22754546642279377,0.7346723894861198,0.6331842698895578,1.6512749565801177,-2.5217550078065774,-0.46781068079524335,-0.5846915964576467,0.22097626127602454,0.40137320372633667,-0.3431824822129666,-0.047058267846972666,0.17771646109365138,0.020043129520984172,-0.40956047600920714,0.35599002346642145,0.3291507962004621,0.0034023834017010424,-0.49883978281748553,0.5498278522245964,-0.061901860838766636,0.49577060894858016,-2.3870738105156377,1.1713369245506204,0.17831323863196524,1.1265217001338732,-0.9553469246782299,-0.3656557411854336,-1.795475769535985,-1.344528041107368,0.3109383455009791,2.5955888609734576,3.2833917749353962,-1.4012320103543077,0.6815154034050677,-0.4317480304655011,-0.015139106078453996,-1.0658716428051835,-1.1306453919701205,-0.22831238325601902,0.9056379429866058,1.373612077397017,-0.44555499901627665,-2.030820577048174,0.3372049542565059,0.4769472285607027,0.6720013580903592,-1.5313681145868105,0.6176581051647503,0.3731212168402421,0.3352507244883188,0.2700342371974885,0.7751188040264068,-1.4028890985071554
35,-0.625506543821929,0.6888837114209827,2.0749211884721053,0.6603226478346317,0.643526945757394,1.511013536716913,-0.05038279993588353,-0.3296882062317497,0.6734667922803352,-0.36920583874677027,1.6709725641171702,-0.2255917124377889,-0.256717921150702,-0.014407177923758303,-0.5514668398135806,-0.25047915296335477,-1.1881515167403125,1.94134108713067,1.1904279906302297,-0.9248017002013079,0.04304718523991218,-0.3767850391136013,0.01301972504575663,-0.24799086908289425,0.9835107374002835,-0.13603550282957352,-0.5951030295611793,0.9091901201737311,-0.19117508423902357,0.02411747600737606,-0.3804306578063488,-0.6069783021267443,1.5061657926848975,0.8545274686429756,0.890343258415779,0.836737890149537,0.6381176950840075,0.84179730951279,0.4965048022876572,-0.23000736284017523,-1.1266329763290481,0.8065732218852806,1.1364683903028734,-1.2713149717586552,2.1846004972716133,-1.4207192632014518,0.5780073894932094,0.5665137401853049,-0.5525807572889935,1.3104768036948915,-1.8828306256925122,-0.8362640558018446,-0.5296311098156429,-0.3998324961933428,-0.6142380979083261,-0.7315956543554242,1.9892073885016708,1.0832476488890073,0.13213649210638845,-0.01423195589678736,0.5842190480013084,0.12278167782486692,-1.200529113186209,-0.13175879088622186,1.4372931007481322,0.23486065107592105,1.378097185692881,0.6006074628779547,0.9891772961908288,0.13317423646542,0.8986478034859262,0.08941464980372138,2.4244115834996767,1.0218770718854813,0.6768153244804949,1.0694514867938612,0.503422430544077,1.3299462122469172,-0.3594346156386551,-0.4721893077856887,-0.6496107970413483,-1.2993633069929031,-0.7987376655935227,-0.22754546642279377,0.7346723894861198,0.6331842698895578,1.6512749565801177,-2.5217550078065774,-0.46781068079524335,-0.5846915964576467,0.28307303135613576,0.40137320372633667,-0.3431824822129666,-0.047058267846972666,0.17771646109365138,0.020043129520984172,-0.40956047600920714,0.35599002346642145,0.3291507962004621,0.0034023834017010424,-0.49883978281748553,0.5498278522245964,-0.061901860838766636,0.49577060894858016,-2.3870738105156377,1.1713369245506204,0.17831323863196524,1.1265217001338732,-0.9553469246782299,-0.3656557411854336,-1.795475769535985,-1.344528041107368,0.3109383455009791,2.5955888609734576,3.2833917749353962,-1.4012320103543077,0.6815154034050677,-0.4317480304655011,-0.015139106078453996,-1.0658716428051835,-1.1306453919701205,-0.22831238325601902,0.9056379429866058,1.373612077397017,-0.44555499901627665,-2.030820577048174,0.3372049542565059,0.4769472285607027,0.6720013580903592,-1.5313681145868105,0.6176581051647503,0.3731212168402421,0.3352507244883188,0.2700342371974885,0.7751188040264068,-1.4028890985071554
