step,w_0,w_1,w_2,w_3,w_4,w_5,w_6,w_7,w_8,w_9,w_10,w_11,w_12,w_13,w_14,w_15,w_16,w_17,w_18,w_19,w_20,w_21,w_22,w_23,w_24,w_25,w_26,w_27,w_28,w_29,w_30,w_31,w_32,w_33
-1,0.33727903012758836,1.5817164723007864,-0.25324336561669825,0.3234783795889726,-1.7214408845482596,-0.7059468432513097,1.639706097053757,0.37540988591462254,-1.2799624775142153,-0.7067820925991801,-0.9289713352720299,-0.12553630570767865,-0.7447518512562257,-0.21468502463115344,-0.4900494869094422,0.024797059795425413,-1.6247309935064047,2.3816848742687498,-1.0676099477688,-0.7842543385428975,-0.4476257781394962,0.16250277779129263,-1.2241217091976782,0.6845788476082773,-0.31816137053680593,0.7172274220629749,1.3866416858653656,0.10187196633510487,-0.9988776983032255,0.7728876182148199,0.004068813952752013,-0.4913533162364381,0.8531919228929289,-0.28031272607760294
0,0.33727903012758836,1.5817164723007864,-0.25324336561669825,0.3234783795889726,-1.7214408845482596,-0.7059468432513097,1.639706097053757,0.37540988591462254,-1.2799624775142153,-0.7067820925991801,-0.9289713352720299,-0.12553630570767865,-0.7447518512562257,-0.21468502463115344,-0.4900494869094422,0.024797059795425413,-1.6247309935064047,2.3816848742687498,-1.0676099477688,-0.7842543385428975,-0.4476257781394962,0.16250277779129263,-1.2241217091976782,0.6845788476082773,-0.31816137053680593,0.7172274220629749,1.3866416858653656,0.10187196633510487,-0.9988776983032255,0.7728876182148199,0.004068813952752013,-0.4913533162364381,0.8531919228929289,-0.28031272607760294
1,0.33727903012758836,1.5817164723007864,-0.25324336561669825,0.3234783795889726,-1.7214408845482596,-0.7059468432513097,1.639706097053757,0.37540988591462254,-1.2367484177723769,-0.7067820925991801,-0.9289713352720299,-0.12553630570767865,-0.7447518512562257,-0.21468502463115344,-0.4900494869094422,0.024797059795425413,-1.6247309935064047,2.3816848742687498,-1.0676099477688,-0.7842543385428975,-0.4476257781394962,0.16250277779129263,-1.2241217091976782,0.6845788476082773,-0.31816137053680593,0.7172274220629749,1.3866416858653656,0.10187196633510487,-0.9988776983032255,0.7728876182148199,0.004068813952752013,-0.4913533162364381,0.8531919228929289,-0.2678098670557278
2,0.33727903012758836,1.5817164723007864,-0.25324336561669825,0.3234783795889726,-1.7214408845482596,-0.7059468432513097,1.639706097053757,0.37540988591462254,-1.2367484177723769,-0.7067820925991801,-0.9289713352720299,-0.10541076940197097,-0.7447518512562257,-0.21468502463115344,-0.4900494869094422,0.024797059795425413,-1.6247309935064047,2.3816848742687498,-1.0676099477688,-0.7842543385428975,-0.4476257781394962,0.16250277779129263,-1.2241217091976782,0.6845788476082773,-0.31380094774470724,0.7172274220629749,1.3866416858653656,0.10187196633510487,-0.9988776983032255,0.7728876182148199,0.004068813952752013,-0.4913533162364381,0.8531919228929289,-0.2678098670557278
3,0.33727903012758836,1.5817164723007864,-0.25324336561669825,0.3234783795889726,-1.7214408845482596,-0.7059468432513097,1.639706097053757,0.37540988591462254,-1.193630631628122,-0.7067820925991801,-0.9289713352720299,-0.08511485322066249,-0.7447518512562257,-0.21468502463115344,-0.4900494869094422,0.024797059795425413,-1.6247309935064047,2.3816848742687498,-1.0676099477688,-0.7842543385428975,-0.4476257781394962,0.16250277779129263,-1.2241217091976782,0.6845788476082773,-0.3091437298020179,0.7172274220629749,1.3866416858653656,0.10187196633510487,-0.9988776983032255,0.7728876182148199,0.004068813952752013,-0.4913533162364381,0.8531919228929289,-0.25440577953533133
4,0.33727903012758836,1.5817164723007864,-0.25324336561669825,0.3234783795889726,-1.7214408845482596,-0.7059468432513097,1.639706097053757,0.37540988591462254,-1.193630631628122,-0.7067820925991801,-0.9289713352720299,-0.08511485322066249,-0.7447518512562257,-0.21468502463115344,-0.4900494869094422,0.024797059795425413,-1.6247309935064047,2.3816848742687498,-1.0676099477688,-0.7842543385428975,-0.4476257781394962,0.16250277779129263,-1.2241217091976782,0.6845788476082773,-0.2845780374171701,0.7172274220629749,1.3866416858653656,0.10187196633510487,-0.9988776983032255,0.7728876182148199,0.004068813952752013,-0.4913533162364381,0.8531919228929289,-0.24419984702620826
5,0.33727903012758836,1.5817164723007864,-0.25324336561669825,0.3234783795889726,-1.7214408845482596,-0.7059468432513097,1.639706097053757,0.37540988591462254,-1.1513752012067522,-0.7067820925991801,-0.9289713352720299,-0.06496470862907439,-0.7447518512562257,-0.21468502463115344,-0.4900494869094422,0.024797059795425413,-1.6247309935064047,2.3816848742687498,-1.0676099477688,-0.7842543385428975,-0.4476257781394962,0.16250277779129263,-1.2241217091976782,0.6845788476082773,-0.23691076791361146,0.7172274220629749,1.3866416858653656,0.10187196633510487,-0.9988776983032255,0.7728876182148199,0.004068813952752013,-0.4913533162364381,0.8531919228929289,-0.23773155386213174
6,0.33727903012758836,1.5817164723007864,-0.25324336561669825,0.3234783795889726,-1.6682463963212468,-0.7059468432513097,1.639706097053757,0.37540988591462254,-1.1513752012067522,-0.7067820925991801,-0.9289713352720299,-0.06496470862907439,-0.7447518512562257,-0.21468502463115344,-0.4900494869094422,0.024797059795425413,-1.6247309935064047,2.3816848742687498,-1.0676099477688,-0.7842543385428975,-0.4476257781394962,0.16250277779129263,-1.2241217091976782,0.6845788476082773,-0.23691076791361146,0.7172274220629749,1.3866416858653656,0.10187196633510487,-0.9988776983032255,0.7728876182148199,0.004068813952752013,-0.4913533162364381,0.8531919228929289,-0.2273804589984132
7,0.33727903012758836,1.5817164723007864,-0.25324336561669825,0.3234783795889726,-1.6161157978587744,-0.7059468432513097,1.639706097053757,0.37540988591462254,-1.1095820266465695,-0.7067820925991801,-0.9289713352720299,-0.06496470862907439,-0.7110911436950536,-0.21468502463115344,-0.4900494869094422,0.024797059795425413,-1.6247309935064047,2.3816848742687498,-1.0676099477688,-0.7842543385428975,-0.4476257781394962,0.16250277779129263,-1.2241217091976782,0.6845788476082773,-0.21340688201929164,0.7172274220629749,1.3866416858653656,0.10187196633510487,-0.9988776983032255,0.7728876182148199,0.004068813952752013,-0.4913533162364381,0.8531919228929289,-0.22406717928239733
8,0.33727903012758836,1.5817164723007864,-0.25324336561669825,0.3234783795889726,-1.6161157978587744,-0.7059468432513097,1.639706097053757,0.37540988591462254,-1.1095820266465695,-0.7067820925991801,-0.9289713352720299,-0.024809989332348337,-0.7110911436950536,-0.21468502463115344,-0.4900494869094422,0.024797059795425413,-1.6247309935064047,2.3816848742687498,-1.0676099477688,-0.7842543385428975,-0.4476257781394962,0.16250277779129263,-1.2241217091976782,0.6845788476082773,-0.1424521924997745,0.7172274220629749,1.3866416858653656,0.10187196633510487,-0.9988776983032255,0.7728876182148199,0.004068813952752013,-0.4913533162364381,0.8531919228929289,-0.20117578123871
9,0.33727903012758836,1.5817164723007864,-0.25324336561669825,0.3234783795889726,-1.6161157978587744,-0.7059468432513097,1.639706097053757,0.37540988591462254,-1.1095820266465695,-0.7067820925991801,-0.9289713352720299,-0.024809989332348337,-0.7110911436950536,-0.21468502463115344,-0.4900494869094422,0.024797059795425413,-1.6247309935064047,2.3816848742687498,-1.0676099477688,-0.7842543385428975,-0.4476257781394962,0.16250277779129263,-1.2241217091976782,0.6845788476082773,-0.12007453844709363,0.7172274220629749,1.3866416858653656,0.10187196633510487,-0.9988776983032255,0.7728876182148199,0.004068813952752013,-0.4913533162364381,0.8531919228929289,-0.20117578123871
10,0.33727903012758836,1.5817164723007864,-0.25324336561669825,0.3234783795889726,-1.6161157978587744,-0.7059468432513097,1.639706097053757,0.37540988591462254,-1.0665759301900484,-0.7067820925991801,-0.9289713352720299,0.015204386230490695,-0.7110911436950536,-0.21468502463115344,-0.4900494869094422,0.024797059795425413,-1.6247309935064047,2.3816848742687498,-1.0676099477688,-0.7842543385428975,-0.4476257781394962,0.16250277779129263,-1.2241217091976782,0.6845788476082773,-0.12007453844709363,0.7172274220629749,1.3866416858653656,0.10187196633510487,-0.9988776983032255,0.7728876182148199,0.004068813952752013,-0.4913533162364381,0.8531919228929289,-0.1968630931030456
11,0.33727903012758836,1.5817164723007864,-0.25324336561669825,0.3234783795889726,-1.6161157978587744,-0.7059468432513097,1.639706097053757,0.37540988591462254,-1.0665759301900484,-0.7067820925991801,-0.9289713352720299,0.015204386230490695,-0.7110911436950536,-0.21468502463115344,-0.4900494869094422,0.024797059795425413,-1.6247309935064047,2.3816848742687498,-1.0676099477688,-0.7842543385428975,-0.4476257781394962,0.16250277779129263,-1.2241217091976782,0.6845788476082773,-0.12007453844709363,0.7172274220629749,1.3866416858653656,0.10187196633510487,-0.9988776983032255,0.7728876182148199,0.004068813952752013,-0.4913533162364381,0.8531919228929289,-0.1968630931030456
12,0.33727903012758836,1.5817164723007864,-0.25324336561669825,0.3234783795889726,-1.6161157978587744,-0.7059468432513097,1.639706097053757,0.37540988591462254,-1.0665759301900484,-0.7067820925991801,-0.9289713352720299,0.035153992662415944,-0.6762013949605665,-0.21468502463115344,-0.4900494869094422,0.024797059795425413,-1.6247309935064047,2.3816848742687498,-1.0676099477688,-0.7842543385428975,-0.4476257781394962,0.16250277779129263,-1.2241217091976782,0.6845788476082773,-0.12007453844709363,0.7172274220629749,1.3866416858653656,0.10187196633510487,-0.9988776983032255,0.7728876182148199,0.004068813952752013,-0.4913533162364381,0.8531919228929289,-0.1968630931030456
13,0.33727903012758836,1.5817164723007864,-0.25324336561669825,0.3234783795889726,-1.6161157978587744,-0.7059468432513097,1.639706097053757,0.37540988591462254,-0.9826846896613968,-0.7067820925991801,-0.9289713352720299,0.03508371983108378,-0.6762013949605665,-0.21468502463115344,-0.4900494869094422,0.024797059795425413,-1.6247309935064047,2.3816848742687498,-1.0676099477688,-0.7842543385428975,-0.4476257781394962,0.16250277779129263,-1.2241217091976782,0.6845788476082773,-0.07013365805199007,0.7172274220629749,1.3866416858653656,0.10187196633510487,-0.9988776983032255,0.7728876182148199,0.004068813952752013,-0.4913533162364381,0.8531919228929289,-0.18332592509780662
14,0.33727903012758836,1.5817164723007864,-0.25324336561669825,0.3234783795889726,-1.6161157978587744,-0.7059468432513097,1.639706097053757,0.37540988591462254,-0.9826846896613968,-0.7067820925991801,-0.9289713352720299,0.03508371983108378,-0.6762013949605665,-0.21468502463115344,-0.4900494869094422,0.024797059795425413,-1.6247309935064047,2.3816848742687498,-1.0676099477688,-0.7842543385428975,-0.4476257781394962,0.16250277779129263,-1.2241217091976782,0.6845788476082773,-0.04806439421415967,0.7172274220629749,1.3866416858653656,0.10187196633510487,-0.9988776983032255,0.7728876182148199,0.004068813952752013,-0.4913533162364381,0.8531919228929289,-0.1789928159190599
15,0.33727903012758836,1.5817164723007864,-0.25324336561669825,0.3234783795889726,-1.6161157978587744,-0.7059468432513097,1.639706097053757,0.37540988591462254,-0.9826846896613968,-0.7067820925991801,-0.9289713352720299,0.05494359531377864,-0.6416334387503934,-0.21468502463115344,-0.4900494869094422,0.024797059795425413,-1.6247309935064047,2.3816848742687498,-1.0676099477688,-0.7842543385428975,-0.4476257781394962,0.16250277779129263,-1.2241217091976782,0.6845788476082773,-0.03089245979491083,0.7172274220629749,1.3866416858653656,0.10187196633510487,-0.9988776983032255,0.7728876182148199,0.004068813952752013,-0.4913533162364381,0.872338730970036,-0.17474636892388812
16,0.33727903012758836,1.5817164723007864,-0.25324336561669825,0.3234783795889726,-1.6161157978587744,-0.7059468432513097,1.639706097053757,0.37540988591462254,-0.9419870675572071,-0.7067820925991801,-0.9289713352720299,0.10996531457252624,-0.6416334387503934,-0.21468502463115344,-0.4900494869094422,0.024797059795425413,-1.6247309935064047,2.3816848742687498,-1.0676099477688,-0.7842543385428975,-0.4476257781394962,0.16250277779129263,-1.2241217091976782,0.6845788476082773,0.011997859668671989,0.7172274220629749,1.3866416858653656,0.10187196633510487,-0.9988776983032255,0.7728876182148199,0.004068813952752013,-0.4913533162364381,0.872338730970036,-0.16471402199288157
17,0.33727903012758836,1.5817164723007864,-0.25324336561669825,0.3234783795889726,-1.6161157978587744,-0.7059468432513097,1.639706097053757,0.37540988591462254,-0.9419870675572071,-0.7067820925991801,-0.9289713352720299,0.14419954586388437,-0.6060609786039717,-0.21468502463115344,-0.4900494869094422,0.024797059795425413,-1.6247309935064047,2.3816848742687498,-1.0676099477688,-0.7842543385428975,-0.4476257781394962,0.16250277779129263,-1.2241217091976782,0.6845788476082773,0.03198586180900332,0.7172274220629749,1.3866416858653656,0.10187196633510487,-0.9988776983032255,0.7728876182148199,0.004068813952752013,-0.4913533162364381,0.871466392239066,-0.16471402199288157
18,0.33727903012758836,1.5817164723007864,-0.25324336561669825,0.3234783795889726,-1.6161157978587744,-0.7059468432513097,1.639706097053757,0.37540988591462254,-0.9021217476610556,-0.7067820925991801,-0.9289713352720299,0.1640553463180205,-0.6060609786039717,-0.21468502463115344,-0.4900494869094422,0.024797059795425413,-1.6247309935064047,2.3816848742687498,-1.0676099477688,-0.7842543385428975,-0.4476257781394962,0.16250277779129263,-1.2241217091976782,0.6845788476082773,0.05397781815828452,0.7172274220629749,1.3866416858653656,0.10187196633510487,-0.9988776983032255,0.7728876182148199,0.004068813952752013,-0.4913533162364381,0.871466392239066,-0.15448077263297053
19,0.33727903012758836,1.5817164723007864,-0.25324336561669825,0.3234783795889726,-1.6161157978587744,-0.7059468432513097,1.639706097053757,0.37540988591462254,-0.8809622611277921,-0.7067820925991801,-0.9289713352720299,0.1640553463180205,-0.6060609786039717,-0.21468502463115344,-0.4900494869094422,0.024797059795425413,-1.6247309935064047,2.3816848742687498,-1.0676099477688,-0.7842543385428975,-0.4476257781394962,0.16250277779129263,-1.2241217091976782,0.6845788476082773,0.12181322720635074,0.7172274220629749,1.3866416858653656,0.10187196633510487,-0.9988776983032255,0.7728876182148199,0.004068813952752013,-0.4913533162364381,0.871466392239066,-0.1303890235321715
20,0.33727903012758836,1.5817164723007864,-0.25324336561669825,0.3234783795889726,-1.6161157978587744,-0.7059468432513097,1.639706097053757,0.37540988591462254,-0.8809622611277921,-0.7067820925991801,-0.9289713352720299,0.1640553463180205,-0.6060609786039717,-0.21468502463115344,-0.4900494869094422,0.024797059795425413,-1.6247309935064047,2.3816848742687498,-1.0676099477688,-0.7842543385428975,-0.4476257781394962,0.16250277779129263,-1.2241217091976782,0.6845788476082773,0.16276118553746316,0.7172274220629749,1.3866416858653656,0.10187196633510487,-0.9988776983032255,0.7728876182148199,0.004068813952752013,-0.4913533162364381,0.871466392239066,-0.11905385607181357
21,0.33727903012758836,1.5817164723007864,-0.25324336561669825,0.3234783795889726,-1.6161157978587744,-0.7059468432513097,1.639706097053757,0.37540988591462254,-0.8809622611277921,-0.7067820925991801,-0.9289713352720299,0.19733210084420233,-0.5700972379818361,-0.21468502463115344,-0.4900494869094422,0.024797059795425413,-1.6247309935064047,2.3816848742687498,-1.0676099477688,-0.7842543385428975,-0.4476257781394962,0.16250277779129263,-1.2241217091976782,0.6845788476082773,0.2022379500029562,0.7172274220629749,1.3866416858653656,0.10187196633510487,-0.9988776983032255,0.7728876182148199,0.004068813952752013,-0.4913533162364381,0.871466392239066,-0.09191559536534377
22,0.33727903012758836,1.5817164723007864,-0.25324336561669825,0.3234783795889726,-1.6161157978587744,-0.7059468432513097,1.639706097053757,0.37540988591462254,-0.8809622611277921,-0.7067820925991801,-0.9289713352720299,0.24980991606174016,-0.5700972379818361,-0.21468502463115344,-0.4900494869094422,0.024797059795425413,-1.6247309935064047,2.3816848742687498,-1.0676099477688,-0.7842543385428975,-0.4476257781394962,0.16250277779129263,-1.2241217091976782,0.6845788476082773,0.26204605444298484,0.7172274220629749,1.3866416858653656,0.10187196633510487,-0.9988776983032255,0.7728876182148199,0.004068813952752013,-0.4913533162364381,0.871466392239066,-0.04203530418803782
23,0.33727903012758836,1.5817164723007864,-0.25324336561669825,0.3234783795889726,-1.6161157978587744,-0.7059468432513097,1.639706097053757,0.37540988591462254,-0.8385966275000631,-0.7067820925991801,-0.9289713352720299,0.2820855652129796,-0.5700972379818361,-0.21468502463115344,-0.4900494869094422,0.024797059795425413,-1.6247309935064047,2.3816848742687498,-1.0676099477688,-0.7842543385428975,-0.4476257781394962,0.16250277779129263,-1.2241217091976782,0.6845788476082773,0.31270618967331326,0.7172274220629749,1.3866416858653656,0.10187196633510487,-0.9988776983032255,0.7728876182148199,0.004068813952752013,-0.4913533162364381,0.871466392239066,-0.04203530418803782
24,0.33727903012758836,1.5817164723007864,-0.25324336561669825,0.3234783795889726,-1.6161157978587744,-0.7059468432513097,1.639706097053757,0.37540988591462254,-0.8385966275000631,-0.7067820925991801,-0.9289713352720299,0.2820855652129796,-0.5700972379818361,-0.21468502463115344,-0.4900494869094422,0.024797059795425413,-1.6247309935064047,2.3816848742687498,-1.0676099477688,-0.7842543385428975,-0.4476257781394962,0.16250277779129263,-1.2241217091976782,0.6845788476082773,0.3520610900001563,0.7172274220629749,1.3866416858653656,0.10187196633510487,-0.9988776983032255,0.7728876182148199,0.004068813952752013,-0.4913533162364381,0.871466392239066,-0.028232640704285265
25,0.33727903012758836,1.5817164723007864,-0.25324336561669825,0.3234783795889726,-1.6161157978587744,-0.7059468432513097,1.639706097053757,0.37540988591462254,-0.7951422234007689,-0.7067820925991801,-0.9289713352720299,0.2820855652129796,-0.5700972379818361,-0.21468502463115344,-0.4900494869094422,0.024797059795425413,-1.6247309935064047,2.3816848742687498,-1.0676099477688,-0.7842543385428975,-0.4476257781394962,0.16250277779129263,-1.2241217091976782,0.6845788476082773,0.371357319881246,0.7172274220629749,1.3866416858653656,0.10187196633510487,-0.9988776983032255,0.7728876182148199,0.004068813952752013,-0.4913533162364381,0.8347696234723117,-0.028232640704285265
26,0.33727903012758836,1.5817164723007864,-0.25324336561669825,0.3234783795889726,-1.6161157978587744,-0.7059468432513097,1.639706097053757,0.37540988591462254,-0.7951422234007689,-0.7067820925991801,-0.9289713352720299,0.3034996429864637,-0.5700972379818361,-0.21468502463115344,-0.4900494869094422,0.024797059795425413,-1.6247309935064047,2.3816848742687498,-1.0676099477688,-0.7842543385428975,-0.4476257781394962,0.16250277779129263,-1.2241217091976782,0.6845788476082773,0.371357319881246,0.7172274220629749,1.3866416858653656,0.10187196633510487,-0.9988776983032255,0.7728876182148199,0.004068813952752013,-0.4913533162364381,0.8052379104940064,-0.012337822590379098
27,0.33727903012758836,1.5817164723007864,-0.25324336561669825,0.3234783795889726,-1.6161157978587744,-0.7059468432513097,1.639706097053757,0.37540988591462254,-0.733361541161314,-0.7067820925991801,-0.9289713352720299,0.34542446370905444,-0.5387909634863551,-0.21468502463115344,-0.4900494869094422,0.024797059795425413,-1.6247309935064047,2.3816848742687498,-1.0676099477688,-0.7842543385428975,-0.4476257781394962,0.16250277779129263,-1.2241217091976782,0.6845788476082773,0.4105949765988034,0.7172274220629749,1.3866416858653656,0.10187196633510487,-0.9988776983032255,0.7728876182148199,0.004068813952752013,-0.4913533162364381,0.8052379104940064,0.010364948779774836
28,0.33727903012758836,1.5817164723007864,-0.25324336561669825,0.3234783795889726,-1.6161157978587744,-0.7059468432513097,1.639706097053757,0.37540988591462254,-0.733361541161314,-0.7067820925991801,-0.9289713352720299,0.34542446370905444,-0.5002138396612508,-0.21468502463115344,-0.4900494869094422,0.024797059795425413,-1.6247309935064047,2.3816848742687498,-1.0676099477688,-0.7842543385428975,-0.4476257781394962,0.16250277779129263,-1.2241217091976782,0.6845788476082773,0.44975419724058235,0.7172274220629749,1.3866416858653656,0.10187196633510487,-0.9988776983032255,0.7728876182148199,0.004068813952752013,-0.4913533162364381,0.8052379104940064,0.03306656148200977
29,0.33727903012758836,1.5817164723007864,-0.25324336561669825,0.3234783795889726,-1.6161157978587744,-0.7059468432513097,1.639706097053757,0.37540988591462254,-0.7101575259202643,-0.7067820925991801,-0.9289713352720299,0.34542446370905444,-0.42389416404022207,-0.21468502463115344,-0.4900494869094422,0.024797059795425413,-1.6247309935064047,2.3816848742687498,-1.0676099477688,-0.7842543385428975,-0.4476257781394962,0.16250277779129263,-1.2241217091976782,0.6845788476082773,0.4883862834616981,0.7172274220629749,1.3866416858653656,0.10187196633510487,-0.9988776983032255,0.7728876182148199,0.004068813952752013,-0.4913533162364381,0.8052379104940064,0.08310030153569432
30,0.33727903012758836,1.5817164723007864,-0.25324336561669825,0.3234783795889726,-1.6161157978587744,-0.7059468432513097,1.639706097053757,0.37540988591462254,-0.7101575259202643,-0.7067820925991801,-0.9289713352720299,0.34778603448125983,-0.42389416404022207,-0.21468502463115344,-0.4900494869094422,0.024797059795425413,-1.6247309935064047,2.3816848742687498,-1.0676099477688,-0.7842543385428975,-0.4476257781394962,0.16250277779129263,-1.2241217091976782,0.6845788476082773,0.5069225892817771,0.7172274220629749,1.3866416858653656,0.10187196633510487,-0.9988776983032255,0.7728876182148199,0.004068813952752013,-0.4913533162364381,0.8052379104940064,0.13366107443014652
31,0.33727903012758836,1.5817164723007864,-0.25324336561669825,0.3234783795889726,-1.6161157978587744,-0.7059468432513097,1.639706097053757,0.37540988591462254,-0.7101575259202643,-0.7067820925991801,-0.9289713352720299,0.34778603448125983,-0.38578475156306385,-0.21468502463115344,-0.4900494869094422,0.024797059795425413,-1.6247309935064047,2.3816848742687498,-1.0676099477688,-0.7842543385428975,-0.4476257781394962,0.16250277779129263,-1.2241217091976782,0.6845788476082773,0.5069225892817771,0.7172274220629749,1.3866416858653656,0.10187196633510487,-0.9988776983032255,0.7728876182148199,0.004068813952752013,-0.4913533162364381,0.79007530871354,0.15412128241401707
32,0.33727903012758836,1.5817164723007864,-0.25324336561669825,0.3234783795889726,-1.6161157978587744,-0.7059468432513097,1.639706097053757,0.37540988591462254,-0.7101575259202643,-0.7067820925991801,-0.9289713352720299,0.3712022095611249,-0.38578475156306385,-0.21468502463115344,-0.4900494869094422,0.024797059795425413,-1.6247309935064047,2.3816848742687498,-1.0676099477688,-0.7842543385428975,-0.4476257781394962,0.16250277779129263,-1.2241217091976782,0.6845788476082773,0.5458892510258029,0.7172274220629749,1.3866416858653656,0.10187196633510487,-0.9988776983032255,0.7728876182148199,0.004068813952752013,-0.4913533162364381,0.79007530871354,0.1606703859620905
33,0.33727903012758836,1.5817164723007864,-0.25324336561669825,0.3234783795889726,-1.6161157978587744,-0.7059468432513097,1.639706097053757,0.37540988591462254,-0.6655824796323687,-0.7067820925991801,-0.9289713352720299,0.3712022095611249,-0.38578475156306385,-0.21468502463115344,-0.4900494869094422,0.024797059795425413,-1.6247309935064047,2.3816848742687498,-1.0676099477688,-0.7842543385428975,-0.4476257781394962,0.16250277779129263,-1.2241217091976782,0.6845788476082773,0.5458892510258029,0.7172274220629749,1.3866416858653656,0.10187196633510487,-0.9988776983032255,0.7728876182148199,0.004068813952752013,-0.4913533162364381,0.79007530871354,0.16782887401233892
34,0.33727903012758836,1.5817164723007864,-0.25324336561669825,0.3234783795889726,-1.6161157978587744,-0.7059468432513097,1.639706097053757,0.37540988591462254,-0.6655824796323687,-0.7067820925991801,-0.9289713352720299,0.39451968924362313,-0.38578475156306385,-0.21468502463115344,-0.4900494869094422,0.024797059795425413,-1.6247309935064047,2.3816848742687498,-1.0676099477688,-0.7842543385428975,-0.4476257781394962,0.16250277779129263,-1.2241217091976782,0.6845788476082773,0.5653433617747771,0.7172274220629749,1.3866416858653656,0.10187196633510487,-0.9988776983032255,0.7728876182148199,0.004068813952752013,-0.4913533162364381,0.79007530871354,0.18882634401426096
35,0.33727903012758836,1.5817164723007864,-0.25324336561669825,0.3234783795889726,-1.5223949791497635,-0.7059468432513097,1.639706097053757,0.37540988591462254,-0.6655824796323687,-0.7067820925991801,-0.9289713352720299,0.4141251695543795,-0.38578475156306385,-0.21468502463115344,-0.4900494869094422,0.024797059795425413,-1.6247309935064047,2.3816848742687498,-1.0676099477688,-0.7842543385428975,-0.4476257781394962,0.16250277779129263,-1.2241217091976782,0.6845788476082773,0.5847780184130023,0.7172274220629749,1.3866416858653656,0.10187196633510487,-0.9988776983032255,0.7728876182148199,0.004068813952752013,-0.46651481904615205,0.79007530871354,0.20261703806126335
36,0.33727903012758836,1.5817164723007864,-0.25324336561669825,0.3234783795889726,-1.5223949791497635,-0.7059468432513097,1.639706097053757,0.37540988591462254,-0.6655824796323687,-0.7067820925991801,-0.9289713352720299,0.4141251695543795,-0.3469582741819555,-0.21468502463115344,-0.4900494869094422,0.024797059795425413,-1.6247309935064047,2.3816848742687498,-1.0676099477688,-0.7842543385428975,-0.4476257781394962,0.16250277779129263,-1.2241217091976782,0.6845788476082773,0.6041932403945892,0.7172274220629749,1.3866416858653656,0.10187196633510487,-0.9988776983032255,0.7728876182148199,0.004068813952752013,-0.46651481904615205,0.79007530871354,0.20967547964988514
37,0.33727903012758836,1.5817164723007864,-0.25324336561669825,0.3234783795889726,-1.5223949791497635,-0.7059468432513097,1.639706097053757,0.37540988591462254,-0.6655824796323687,-0.7067820925991801,-0.9289713352720299,0.4141251695543795,-0.3469582741819555,-0.21468502463115344,-0.4900494869094422,0.024797059795425413,-1.6247309935064047,2.3816848742687498,-1.0676099477688,-0.7842543385428975,-0.4476257781394962,0.16250277779129263,-1.2241217091976782,0.6845788476082773,0.6041932403945892,0.7172274220629749,1.3866416858653656,0.10187196633510487,-0.9988776983032255,0.7728876182148199,0.004068813952752013,-0.46651481904615205,0.79007530871354,0.22410208035939413
38,0.33727903012758836,1.5817164723007864,-0.25324336561669825,0.3234783795889726,-1.5223949791497635,-0.7059468432513097,1.639706097053757,0.37540988591462254,-0.6408026381437917,-0.7067820925991801,-0.9289713352720299,0.4141251695543795,-0.30781422171798667,-0.21468502463115344,-0.4900494869094422,0.024797059795425413,-1.6247309935064047,2.3816848742687498,-1.0676099477688,-0.7842543385428975,-0.4476257781394962,0.16250277779129263,-1.2241217091976782,0.6845788476082773,0.6423624726489334,0.7172274220629749,1.3866416858653656,0.10187196633510487,-0.9988776983032255,0.7728876182148199,0.004068813952752013,-0.46651481904615205,0.7892852334048265,0.27428054526897855
39,0.33727903012758836,1.5817164723007864,-0.25324336561669825,0.3234783795889726,-1.5223949791497635,-0.7059468432513097,1.639706097053757,0.37540988591462254,-0.6408026381437917,-0.7067820925991801,-0.9289713352720299,0.46569979803489914,-0.30781422171798667,-0.21468502463115344,-0.4900494869094422,0.024797059795425413,-1.6247309935064047,2.3816848742687498,-1.0676099477688,-0.7842543385428975,-0.4476257781394962,0.16250277779129263,-1.2241217091976782,0.6845788476082773,0.6645116426306464,0.7172274220629749,1.3866416858653656,0.10187196633510487,-0.9988776983032255,0.7728876182148199,0.004068813952752013,-0.46651481904615205,0.7892852334048265,0.3069805140667329
40,0.33727903012758836,1.5817164723007864,-0.25324336561669825,0.3234783795889726,-1.5223949791497635,-0.7059468432513097,1.639706097053757,0.37540988591462254,-0.5987671375144155,-0.7067820925991801,-0.9289713352720299,0.48523409823686425,-0.30781422171798667,-0.21468502463115344,-0.4900494869094422,0.024797059795425413,-1.6247309935064047,2.3816848742687498,-1.0676099477688,-0.7842543385428975,-0.4476257781394962,0.16250277779129263,-1.2241217091976782,0.6845788476082773,0.6831832838570279,0.7172274220629749,1.3866416858653656,0.10187196633510487,-0.9988776983032255,0.7728876182148199,0.004068813952752013,-0.46651481904615205,0.7892852334048265,0.3380905246628538
41,0.33727903012758836,1.5817164723007864,-0.25324336561669825,0.3234783795889726,-1.5223949791497635,-0.7059468432513097,1.639706097053757,0.37540988591462254,-0.5987671375144155,-0.7067820925991801,-0.9289713352720299,0.4885098986654105,-0.30781422171798667,-0.21468502463115344,-0.4900494869094422,0.024797059795425413,-1.6247309935064047,2.3816848742687498,-1.0676099477688,-0.7842543385428975,-0.4476257781394962,0.16250277779129263,-1.2241217091976782,0.6845788476082773,0.7017976004725976,0.7172274220629749,1.3866416858653656,0.10187196633510487,-0.9988776983032255,0.7728876182148199,0.004068813952752013,-0.46651481904615205,0.7892852334048265,0.3380905246628538
42,0.33727903012758836,1.5817164723007864,-0.25324336561669825,0.3234783795889726,-1.5223949791497635,-0.7059468432513097,1.639706097053757,0.37540988591462254,-0.5987671375144155,-0.7067820925991801,-0.9289713352720299,0.5128380869318339,-0.30781422171798667,-0.21468502463115344,-0.4900494869094422,0.024797059795425413,-1.6247309935064047,2.3816848742687498,-1.0676099477688,-0.7842543385428975,-0.4476257781394962,0.16250277779129263,-1.2241217091976782,0.6845788476082773,0.7420203284069242,0.7172274220629749,1.3866416858653656,0.10187196633510487,-0.9988776983032255,0.7728876182148199,0.004068813952752013,-0.46651481904615205,0.7884959481714217,0.37750006494256017
43,0.33727903012758836,1.5817164723007864,-0.25324336561669825,0.3234783795889726,-1.5223949791497635,-0.7059468432513097,1.639706097053757,0.37540988591462254,-0.5987671375144155,-0.7067820925991801,-0.9289713352720299,0.5404104050577619,-0.30781422171798667,-0.21468502463115344,-0.4900494869094422,0.024797059795425413,-1.6247309935064047,2.3816848742687498,-1.0676099477688,-0.7842543385428975,-0.4476257781394962,0.16250277779129263,-1.2241217091976782,0.6845788476082773,0.7582377594716998,0.7172274220629749,1.3866416858653656,0.10187196633510487,-0.9988776983032255,0.7728876182148199,0.004068813952752013,-0.46651481904615205,0.7884959481714217,0.39081730445141005
44,0.33727903012758836,1.5817164723007864,-0.25324336561669825,0.3234783795889726,-1.5223949791497635,-0.7059468432513097,1.639706097053757,0.37540988591462254,-0.48156681413310276,-0.7067820925991801,-0.9289713352720299,0.5404104050577619,-0.30781422171798667,-0.21468502463115344,-0.4900494869094422,0.024797059795425413,-1.6247309935064047,2.3816848742687498,-1.0676099477688,-0.7842543385428975,-0.4476257781394962,0.16250277779129263,-1.2241217091976782,0.6845788476082773,0.758722865459853,0.7172274220629749,1.3866416858653656,0.10187196633510487,-0.9988776983032255,0.7728876182148199,0.004068813952752013,-0.46651481904615205,0.8236769040835394,0.4249284236305146
45,0.33727903012758836,1.5817164723007864,-0.25324336561669825,0.3234783795889726,-1.5223949791497635,-0.7059468432513097,1.639706097053757,0.37540988591462254,-0.48156681413310276,-0.7067820925991801,-0.9289713352720299,0.5443835156659002,-0.30781422171798667,-0.21468502463115344,-0.4900494869094422,0.024797059795425413,-1.6247309935064047,2.3816848742687498,-1.0676099477688,-0.7842543385428975,-0.4476257781394962,0.16250277779129263,-1.2241217091976782,0.6845788476082773,0.8161150237442898,0.7172274220629749,1.3866416858653656,0.10187196633510487,-0.9988776983032255,0.7728876182148199,0.004068813952752013,-0.44155031134881934,0.8228532271794559,0.43786288912601834
46,0.33727903012758836,1.5817164723007864,-0.25324336561669825,0.3234783795889726,-1.4564718909803436,-0.7059468432513097,1.639706097053757,0.37540988591462254,-0.48156681413310276,-0.7067820925991801,-0.9289713352720299,0.5730819827123317,-0.30781422171798667,-0.21468502463115344,-0.4900494869094422,0.024797059795425413,-1.6247309935064047,2.3816848742687498,-1.0676099477688,-0.7842543385428975,-0.4476257781394962,0.16250277779129263,-1.2241217091976782,0.6845788476082773,0.8336691262020132,0.7172274220629749,1.3866416858653656,0.10187196633510487,-0.9988776983032255,0.7728876182148199,0.004068813952752013,-0.44155031134881934,0.8228532271794559,0.470284468768796
47,0.33727903012758836,1.5817164723007864,-0.25324336561669825,0.3234783795889726,-1.4564718909803436,-0.7059468432513097,1.639706097053757,0.37540988591462254,-0.48156681413310276,-0.7067820925991801,-0.9289713352720299,0.621350568724643,-0.30781422171798667,-0.21468502463115344,-0.4900494869094422,0.024797059795425413,-1.6247309935064047,2.3816848742687498,-1.0676099477688,-0.7842543385428975,-0.4476257781394962,0.16250277779129263,-1.2241217091976782,0.6845788476082773,0.8336691262020132,0.7172274220629749,1.3866416858653656,0.10187196633510487,-0.9988776983032255,0.7728876182148199,0.004068813952752013,-0.44155031134881934,0.8228532271794559,0.4830238363332714
48,0.33727903012758836,1.5817164723007864,-0.25324336561669825,0.3234783795889726,-1.3911385794762963,-0.7059468432513097,1.639706097053757,0.37540988591462254,-0.4357316041660003,-0.7067820925991801,-0.9289713352720299,0.621350568724643,-0.30781422171798667,-0.21468502463115344,-0.4900494869094422,0.024797059795425413,-1.6247309935064047,2.3816848742687498,-1.0676099477688,-0.7842543385428975,-0.4476257781394962,0.16250277779129263,-1.2241217091976782,0.6845788476082773,0.8911106389971166,0.7172274220629749,1.3866416858653656,0.10187196633510487,-0.9988776983032255,0.7728876182148199,0.004068813952752013,-0.44155031134881934,0.8228532271794559,0.501193263841188
49,0.33727903012758836,1.5817164723007864,-0.25324336561669825,0.3234783795889726,-1.3911385794762963,-0.7059468432513097,1.639706097053757,0.37540988591462254,-0.3901534928313935,-0.7067820925991801,-0.9289713352720299,0.6302013334320731,-0.30781422171798667,-0.21468502463115344,-0.4900494869094422,0.024797059795425413,-1.6247309935064047,2.3816848742687498,-1.0676099477688,-0.7842543385428975,-0.4476257781394962,0.16250277779129263,-1.2241217091976782,0.6845788476082773,0.9257573240138673,0.7172274220629749,1.3866416858653656,0.10187196633510487,-0.9988776983032255,0.7728876182148199,0.004068813952752013,-0.44155031134881934,0.8232596418871535,0.5349604715416696
50,0.33727903012758836,1.5817164723007864,-0.25324336561669825,0.3234783795889726,-1.3911385794762963,-0.7059468432513097,1.639706097053757,0.37540988591462254,-0.3901534928313935,-0.7067820925991801,-0.9289713352720299,0.67977432700664,-0.22119778800855272,-0.21468502463115344,-0.4900494869094422,0.024797059795425413,-1.6247309935064047,2.3816848742687498,-1.0676099477688,-0.7842543385428975,-0.4476257781394962,0.16250277779129263,-1.2241217091976782,0.6845788476082773,0.9638867351231636,0.7172274220629749,1.3866416858653656,0.10187196633510487,-0.9988776983032255,0.7728876182148199,0.004068813952752013,-0.44155031134881934,0.7909633396262097,0.5531792827631353
51,0.33727903012758836,1.5817164723007864,-0.25324336561669825,0.3234783795889726,-1.3911385794762963,-0.7059468432513097,1.639706097053757,0.37540988591462254,-0.3901534928313935,-0.7067820925991801,-0.9289713352720299,0.7044926884338473,-0.17845998428104157,-0.21468502463115344,-0.4900494869094422,0.024797059795425413,-1.6247309935064047,2.3816848742687498,-1.0676099477688,-0.7842543385428975,-0.4476257781394962,0.16250277779129263,-1.2241217091976782,0.6845788476082773,0.9638867351231636,0.7172274220629749,1.3866416858653656,0.10187196633510487,-0.9988776983032255,0.7728876182148199,0.004068813952752013,-0.44155031134881934,0.7934579208010256,0.5813218429515965
52,0.33727903012758836,1.5817164723007864,-0.25324336561669825,0.3234783795889726,-1.3250019599194303,-0.7059468432513097,1.639706097053757,0.37540988591462254,-0.3901534928313935,-0.7067820925991801,-0.9289713352720299,0.7287166826325104,-0.17845998428104157,-0.21468502463115344,-0.4900494869094422,0.024797059795425413,-1.6247309935064047,2.3816848742687498,-1.0676099477688,-0.7842543385428975,-0.4476257781394962,0.16250277779129263,-1.2241217091976782,0.6845788476082773,0.9829228483880404,0.7172274220629749,1.3866416858653656,0.10187196633510487,-0.9988776983032255,0.7728876182148199,0.004068813952752013,-0.44155031134881934,0.7959026103523452,0.6198544756190341
53,0.33727903012758836,1.5817164723007864,-0.25324336561669825,0.3234783795889726,-1.3250019599194303,-0.7059468432513097,1.639706097053757,0.37540988591462254,-0.3901534928313935,-0.7067820925991801,-0.9289713352720299,0.7764370595566211,-0.17845998428104157,-0.21468502463115344,-0.4900494869094422,0.024797059795425413,-1.6247309935064047,2.3816848742687498,-1.0676099477688,-0.7842543385428975,-0.4476257781394962,0.16250277779129263,-1.2241217091976782,0.6845788476082773,0.9829228483880404,0.7172274220629749,1.3866416858653656,0.10187196633510487,-0.9988776983032255,0.7728876182148199,0.004068813952752013,-0.44155031134881934,0.7959026103523452,0.6058593757102368
54,0.33727903012758836,1.5817164723007864,-0.25324336561669825,0.3234783795889726,-1.3250019599194303,-0.7059468432513097,1.639706097053757,0.37540988591462254,-0.3901534928313935,-0.7067820925991801,-0.9289713352720299,0.7764370595566211,-0.17845998428104157,-0.21468502463115344,-0.4900494869094422,0.024797059795425413,-1.6247309935064047,2.3816848742687498,-1.0676099477688,-0.7842543385428975,-0.4476257781394962,0.16250277779129263,-1.2241217091976782,0.6845788476082773,1.0189770506008702,0.7172274220629749,1.3866416858653656,0.10187196633510487,-0.9988776983032255,0.7728876182148199,0.004068813952752013,-0.3940437710024702,0.7978614321724063,0.6432197192684143
55,0.33727903012758836,1.5817164723007864,-0.25324336561669825,0.3234783795889726,-1.3250019599194303,-0.7059468432513097,1.639706097053757,0.37540988591462254,-0.3901534928313935,-0.7067820925991801,-0.9289713352720299,0.8236240686417837,-0.17845998428104157,-0.21468502463115344,-0.4900494869094422,0.024797059795425413,-1.6247309935064047,2.3816848742687498,-1.0676099477688,-0.7842543385428975,-0.4476257781394962,0.16250277779129263,-1.2241217091976782,0.6845788476082773,1.0569201154767192,0.7172274220629749,1.3866416858653656,0.10187196633510487,-0.9988776983032255,0.7728876182148199,0.004068813952752013,-0.3940437710024702,0.7978614321724063,0.6626816957258651
56,0.33727903012758836,1.5817164723007864,-0.25324336561669825,0.3234783795889726,-1.3250019599194303,-0.7059468432513097,1.639706097053757,0.37540988591462254,-0.3901534928313935,-0.7067820925991801,-0.9289713352720299,0.8472330694630057,-0.13444938388355712,-0.21468502463115344,-0.4900494869094422,0.024797059795425413,-1.6247309935064047,2.3816848742687498,-1.0676099477688,-0.7842543385428975,-0.4476257781394962,0.16250277779129263,-1.2241217091976782,0.6845788476082773,1.0758631953612425,0.7172274220629749,1.3866416858653656,0.10187196633510487,-0.9988776983032255,0.7728876182148199,0.004068813952752013,-0.3940437710024702,0.7978614321724063,0.6958423253571074
57,0.33727903012758836,1.5817164723007864,-0.25324336561669825,0.3234783795889726,-1.3250019599194303,-0.7059468432513097,1.639706097053757,0.37540988591462254,-0.34190902226290204,-0.7067820925991801,-0.9289713352720299,0.8472330694630057,-0.13444938388355712,-0.21468502463115344,-0.4900494869094422,0.024797059795425413,-1.6247309935064047,2.3816848742687498,-1.0676099477688,-0.7842543385428975,-0.4476257781394962,0.16250277779129263,-1.2241217091976782,0.6845788476082773,1.1136925448337154,0.7172274220629749,1.3866416858653656,0.10187196633510487,-0.9988776983032255,0.7728876182148199,0.004068813952752013,-0.3940437710024702,0.7978614321724063,0.7271860238183497
58,0.33727903012758836,1.5817164723007864,-0.25324336561669825,0.3234783795889726,-1.2569829225275528,-0.7059468432513097,1.639706097053757,0.37540988591462254,-0.34190902226290204,-0.7067820925991801,-0.9289713352720299,0.8472330694630057,-0.13444938388355712,-0.21468502463115344,-0.4900494869094422,0.024797059795425413,-1.6247309935064047,2.3816848742687498,-1.0676099477688,-0.7842543385428975,-0.4476257781394962,0.16250277779129263,-1.2241217091976782,0.6845788476082773,1.1325788522888818,0.7172274220629749,1.3866416858653656,0.10187196633510487,-0.9988776983032255,0.7728876182148199,0.004068813952752013,-0.3940437710024702,0.7978614321724063,0.7338024616938233
59,0.33727903012758836,1.5817164723007864,-0.25324336561669825,0.3234783795889726,-1.2569829225275528,-0.7059468432513097,1.639706097053757,0.37540988591462254,-0.2661618085581834,-0.7067820925991801,-0.9289713352720299,0.9464418454307482,-0.13444938388355712,-0.21468502463115344,-0.4900494869094422,0.024797059795425413,-1.6247309935064047,2.3816848742687498,-1.0676099477688,-0.7842543385428975,-0.4476257781394962,0.16250277779129263,-1.2241217091976782,0.6845788476082773,1.1314462734365929,0.7172274220629749,1.3866416858653656,0.10187196633510487,-0.9988776983032255,0.7728876182148199,0.004068813952752013,-0.3940437710024702,0.803423201722447,0.8102852406020584
60,0.33727903012758836,1.5817164723007864,-0.25324336561669825,0.3234783795889726,-1.2569829225275528,-0.7059468432513097,1.639706097053757,0.37540988591462254,-0.23898259067091976,-0.7067820925991801,-0.9289713352720299,0.9464418454307482,-0.13444938388355712,-0.21468502463115344,-0.4900494869094422,0.024797059795425413,-1.6247309935064047,2.3816848742687498,-1.0676099477688,-0.7842543385428975,-0.4476257781394962,0.16250277779129263,-1.2241217091976782,0.6845788476082773,1.1503148271631563,0.7172274220629749,1.3866416858653656,0.10187196633510487,-0.9988776983032255,0.7728876182148199,0.004068813952752013,-0.3940437710024702,0.803423201722447,0.8321649993737796
61,0.33727903012758836,1.5817164723007864,-0.25324336561669825,0.3234783795889726,-1.1896291383426179,-0.7059468432513097,1.639706097053757,0.37540988591462254,-0.23898259067091976,-0.7067820925991801,-0.9289713352720299,0.9464418454307482,-0.13444938388355712,-0.21468502463115344,-0.4900494869094422,0.024797059795425413,-1.6247309935064047,2.3816848742687498,-1.0676099477688,-0.72599734016339,-0.4476257781394962,0.16250277779129263,-1.2241217091976782,0.6845788476082773,1.1879953478236571,0.7172274220629749,1.3866416858653656,0.10187196633510487,-0.9988776983032255,0.7728876182148199,0.004068813952752013,-0.3940437710024702,0.8099266492966475,0.8495974889846793
62,0.33727903012758836,1.5817164723007864,-0.25324336561669825,0.3234783795889726,-1.1896291383426179,-0.7059468432513097,1.639706097053757,0.37540988591462254,-0.23898259067091976,-0.7067820925991801,-0.9289713352720299,0.9704423482191741,-0.13444938388355712,-0.21468502463115344,-0.4900494869094422,0.024797059795425413,-1.6247309935064047,2.3816848742687498,-1.0676099477688,-0.72599734016339,-0.4476257781394962,0.16250277779129263,-1.2241217091976782,0.6845788476082773,1.2419673590840223,0.7172274220629749,1.3866416858653656,0.1427638667054436,-0.9988776983032255,0.7728876182148199,0.004068813952752013,-0.3940437710024702,0.8099266492966475,0.8673670710436459
63,0.33727903012758836,1.5817164723007864,-0.25324336561669825,0.3234783795889726,-1.1896291383426179,-0.7059468432513097,1.639706097053757,0.37540988591462254,-0.23898259067091976,-0.7067820925991801,-0.9289713352720299,0.9986684721161704,-0.13444938388355712,-0.21468502463115344,-0.4900494869094422,0.024797059795425413,-1.6247309935064047,2.3816848742687498,-1.0676099477688,-0.72599734016339,-0.4476257781394962,0.16250277779129263,-1.2241217091976782,0.6845788476082773,1.2594846663332133,0.7172274220629749,1.3866416858653656,0.1427638667054436,-0.9988776983032255,0.7728876182148199,0.004068813952752013,-0.3940437710024702,0.8099266492966475,0.8980283446991286
64,0.33727903012758836,1.5817164723007864,-0.25324336561669825,0.3234783795889726,-1.1896291383426179,-0.7059468432513097,1.639706097053757,0.37540988591462254,-0.18991666040583063,-0.7067820925991801,-0.9289713352720299,0.9986684721161704,-0.13444938388355712,-0.21468502463115344,-0.4900494869094422,0.024797059795425413,-1.6247309935064047,2.3816848742687498,-1.0676099477688,-0.72599734016339,-0.4476257781394962,0.16250277779129263,-1.2241217091976782,0.6845788476082773,1.2782251816668802,0.7172274220629749,1.3866416858653656,0.1427638667054436,-0.9988776983032255,0.7728876182148199,0.004068813952752013,-0.3940437710024702,0.8099266492966475,0.9098482353964986
65,0.33727903012758836,1.5817164723007864,-0.25324336561669825,0.3234783795889726,-1.1201295550977315,-0.7059468432513097,1.639706097053757,0.37540988591462254,-0.11364305494025764,-0.7067820925991801,-0.9289713352720299,1.0086159539788406,-0.13444938388355712,-0.21468502463115344,-0.4900494869094422,0.024797059795425413,-1.6247309935064047,2.3816848742687498,-1.0676099477688,-0.6857703928820883,-0.4476257781394962,0.16250277779129263,-1.2241217091976782,0.6845788476082773,1.35300002515968,0.7172274220629749,1.3866416858653656,0.1427638667054436,-0.9988776983032255,0.7728876182148199,0.004068813952752013,-0.3940437710024702,0.835128578090466,0.9463682380283587
66,0.33727903012758836,1.5817164723007864,-0.25324336561669825,0.3234783795889726,-1.1201295550977315,-0.7059468432513097,1.639706097053757,0.37540988591462254,-0.11364305494025764,-0.7067820925991801,-0.9289713352720299,1.0141506353772978,-0.13444938388355712,-0.21468502463115344,-0.4900494869094422,0.024797059795425413,-1.6247309935064047,2.3816848742687498,-1.0676099477688,-0.6857703928820883,-0.4476257781394962,0.16250277779129263,-1.2241217091976782,0.6845788476082773,1.390275378109386,0.7172274220629749,1.3866416858653656,0.1427638667054436,-0.9988776983032255,0.7728876182148199,0.004068813952752013,-0.3940437710024702,0.835128578090466,0.9531478737458254
67,0.33727903012758836,1.5817164723007864,-0.25324336561669825,0.3234783795889726,-1.1201295550977315,-0.7059468432513097,1.639706097053757,0.37540988591462254,-0.11364305494025764,-0.7067820925991801,-0.9289713352720299,1.040636439621646,-0.13444938388355712,-0.21468502463115344,-0.4900494869094422,0.024797059795425413,-1.6247309935064047,2.3816848742687498,-1.0676099477688,-0.6857703928820883,-0.4476257781394962,0.16250277779129263,-1.2241217091976782,0.6845788476082773,1.4088851027312765,0.7172274220629749,1.3866416858653656,0.1427638667054436,-0.9988776983032255,0.7728876182148199,0.004068813952752013,-0.3940437710024702,0.8550597439628342,0.9820399892065261
68,0.33727903012758836,1.5817164723007864,-0.25324336561669825,0.3234783795889726,-1.1201295550977315,-0.7059468432513097,1.639706097053757,0.37540988591462254,-0.06460137688955822,-0.7067820925991801,-0.9289713352720299,1.0465925277811075,-0.13444938388355712,-0.21468502463115344,-0.4900494869094422,0.024797059795425413,-1.6247309935064047,2.3816848742687498,-1.0676099477688,-0.6857703928820883,-0.4476257781394962,0.16250277779129263,-1.2241217091976782,0.6845788476082773,1.4088851027312765,0.7172274220629749,1.3866416858653656,0.1427638667054436,-0.9988776983032255,0.7728876182148199,0.004068813952752013,-0.3593940786305265,0.8647273660354718,1.0227258626581481
69,0.33727903012758836,1.5817164723007864,-0.25324336561669825,0.3234783795889726,-1.1201295550977315,-0.7059468432513097,1.639706097053757,0.37540988591462254,-0.06460137688955822,-0.7067820925991801,-0.9289713352720299,1.0587954173328542,-0.08466547011907856,-0.21468502463115344,-0.4900494869094422,0.024797059795425413,-1.6247309935064047,2.3816848742687498,-1.0676099477688,-0.6857703928820883,-0.4476257781394962,0.16250277779129263,-1.2241217091976782,0.6845788476082773,1.4260487414109169,0.7172274220629749,1.3866416858653656,0.1427638667054436,-0.9988776983032255,0.7728876182148199,0.004068813952752013,-0.3593940786305265,0.8647273660354718,1.0543253294583592
70,0.33727903012758836,1.5817164723007864,-0.25324336561669825,0.3234783795889726,-1.1201295550977315,-0.7059468432513097,1.639706097053757,0.37540988591462254,-0.01586151819104644,-0.7067820925991801,-0.9289713352720299,1.0765526021699054,-0.035524329555976376,-0.21468502463115344,-0.4900494869094422,0.024797059795425413,-1.6247309935064047,2.3816848742687498,-1.0676099477688,-0.6857703928820883,-0.4476257781394962,0.16250277779129263,-1.2241217091976782,0.6845788476082773,1.444622692669506,0.7172274220629749,1.3866416858653656,0.1427638667054436,-0.9988776983032255,0.7728876182148199,0.004068813952752013,-0.3593940786305265,0.8647273660354718,1.0719924861492205
71,0.33727903012758836,1.5817164723007864,-0.25324336561669825,0.3234783795889726,-1.1201295550977315,-0.7059468432513097,1.639706097053757,0.37540988591462254,0.03225609550233439,-0.7067820925991801,-0.9289713352720299,1.102469381287228,0.012986540364703043,-0.21468502463115344,-0.4900494869094422,0.024797059795425413,-1.6247309935064047,2.3816848742687498,-1.0676099477688,-0.6857703928820883,-0.4476257781394962,0.16250277779129263,-1.2241217091976782,0.6845788476082773,1.4631780699768366,0.7172274220629749,1.3866416858653656,0.1427638667054436,-0.9988776983032255,0.7728876182148199,0.004068813952752013,-0.3593940786305265,0.8647273660354718,1.095313018834086
72,0.33727903012758836,1.5817164723007864,-0.25324336561669825,0.3234783795889726,-1.1201295550977315,-0.7059468432513097,1.639706097053757,0.37540988591462254,0.07941135692184759,-0.7067820925991801,-0.9289713352720299,1.1404152168075843,0.012986540364703043,-0.21468502463115344,-0.4900494869094422,0.024797059795425413,-1.6247309935064047,2.3816848742687498,-1.0676099477688,-0.6857703928820883,-0.4476257781394962,0.16250277779129263,-1.2241217091976782,0.6845788476082773,1.48171489190686,0.7172274220629749,1.3866416858653656,0.1427638667054436,-0.9988776983032255,0.7728876182148199,0.004068813952752013,-0.3593940786305265,0.8647273660354718,1.1249952458923254
73,0.33727903012758836,1.5817164723007864,-0.25324336561669825,0.3234783795889726,-1.1201295550977315,-0.7059468432513097,1.639706097053757,0.37540988591462254,0.07941135692184759,-0.7067820925991801,-0.9289713352720299,1.1713487358725938,0.06123123992069309,-0.21468502463115344,-0.4900494869094422,0.024797059795425413,-1.6247309935064047,2.3816848742687498,-1.0676099477688,-0.6857703928820883,-0.4476257781394962,0.16250277779129263,-1.2241217091976782,0.6845788476082773,1.500233177014953,0.7172274220629749,1.3866416858653656,0.1427638667054436,-0.9988776983032255,0.7728876182148199,0.004068813952752013,-0.3593940786305265,0.8647273660354718,1.146936635705876
74,0.33727903012758836,1.5817164723007864,-0.25324336561669825,0.3234783795889726,-1.1201295550977315,-0.7059468432513097,1.639706097053757,0.37540988591462254,0.07941135692184759,-0.7067820925991801,-0.9289713352720299,1.1978300662291859,0.06123123992069309,-0.21468502463115344,-0.4900494869094422,0.024797059795425413,-1.6247309935064047,2.3816848742687498,-1.0676099477688,-0.6857703928820883,-0.4476257781394962,0.16250277779129263,-1.2241217091976782,0.6845788476082773,1.5741213196865231,0.7172274220629749,1.3866416858653656,0.16876451530425557,-0.9988776983032255,0.7728876182148199,0.004068813952752013,-0.3593940786305265,0.8762887446476832,1.1590101496249225
75,0.33727903012758836,1.5817164723007864,-0.25324336561669825,0.3234783795889726,-1.047468567226807,-0.7059468432513097,1.639706097053757,0.37540988591462254,0.12808152655238053,-0.7067820925991801,-0.9289713352720299,1.1978300662291859,0.06123123992069309,-0.21468502463115344,-0.4900494869094422,0.024797059795425413,-1.6247309935064047,2.3816848742687498,-1.0676099477688,-0.6857703928820883,-0.4476257781394962,0.16250277779129263,-1.2241217091976782,0.6845788476082773,1.5925471983668367,0.7172274220629749,1.3866416858653656,0.16876451530425557,-0.9988776983032255,0.7728876182148199,0.004068813952752013,-0.3593940786305265,0.8762887446476832,1.1923610935968407
76,0.33727903012758836,1.5817164723007864,-0.25324336561669825,0.3234783795889726,-1.047468567226807,-0.7059468432513097,1.639706097053757,0.37540988591462254,0.12808152655238053,-0.7067820925991801,-0.9289713352720299,1.1968865026376196,0.06123123992069309,-0.21468502463115344,-0.4900494869094422,0.024797059795425413,-1.6247309935064047,2.3816848742687498,-1.0676099477688,-0.6857703928820883,-0.4476257781394962,0.16250277779129263,-1.2241217091976782,0.6845788476082773,1.6093636965173013,0.7172274220629749,1.3866416858653656,0.16876451530425557,-0.9988776983032255,0.7728876182148199,0.004068813952752013,-0.3593940786305265,0.8762887446476832,1.211212512264077
77,0.33727903012758836,1.5817164723007864,-0.25324336561669825,0.3234783795889726,-1.047468567226807,-0.7059468432513097,1.639706097053757,0.37540988591462254,0.12808152655238053,-0.7067820925991801,-0.9289713352720299,1.1968865026376196,0.06123123992069309,-0.21468502463115344,-0.4900494869094422,0.024797059795425413,-1.6247309935064047,2.3816848742687498,-1.0676099477688,-0.6857703928820883,-0.4476257781394962,0.16250277779129263,-1.2241217091976782,0.6845788476082773,1.646126578487963,0.7172274220629749,1.3866416858653656,0.16876451530425557,-0.9988776983032255,0.7728876182148199,0.004068813952752013,-0.3009297920666447,0.8900393747460009,1.217566172252624
78,0.33727903012758836,1.5817164723007864,-0.25324336561669825,0.3234783795889726,-1.047468567226807,-0.7059468432513097,1.639706097053757,0.37540988591462254,0.12808152655238053,-0.7067820925991801,-0.9289713352720299,1.2310170790158872,0.11128302011355054,-0.21468502463115344,-0.4900494869094422,0.024797059795425413,-1.6247309935064047,2.3816848742687498,-1.0676099477688,-0.6857703928820883,-0.4476257781394962,0.16250277779129263,-1.2241217091976782,0.6845788476082773,1.646126578487963,0.7172274220629749,1.3866416858653656,0.16876451530425557,-0.9988776983032255,0.7728876182148199,0.004068813952752013,-0.26363479123404054,0.9035149922423522,1.2508339881054105
79,0.33727903012758836,1.5817164723007864,-0.25324336561669825,0.3234783795889726,-0.9044615300819082,-0.7059468432513097,1.639706097053757,0.37540988591462254,0.12808152655238053,-0.7067820925991801,-0.9289713352720299,1.2837960845695753,0.11128302011355054,-0.21468502463115344,-0.4900494869094422,0.024797059795425413,-1.6247309935064047,2.3816848742687498,-1.0676099477688,-0.6857703928820883,-0.4476257781394962,0.16250277779129263,-1.2241217091976782,0.6845788476082773,1.646126578487963,0.7172274220629749,1.3866416858653656,0.2097813506049924,-0.9988776983032255,0.7728876182148199,0.004068813952752013,-0.26363479123404054,0.9098368180043271,1.2751316874771281
80,0.33727903012758836,1.5817164723007864,-0.25324336561669825,0.3234783795889726,-0.9044615300819082,-0.7059468432513097,1.639706097053757,0.37540988591462254,0.12808152655238053,-0.7067820925991801,-0.9289713352720299,1.3081907573325982,0.16033376470255084,-0.21468502463115344,-0.4900494869094422,0.024797059795425413,-1.6247309935064047,2.3816848742687498,-1.0676099477688,-0.6857703928820883,-0.4476257781394962,0.16250277779129263,-1.2241217091976782,0.6845788476082773,1.6644804519094751,0.7172274220629749,1.3866416858653656,0.2097813506049924,-0.9988776983032255,0.7728876182148199,0.004068813952752013,-0.26363479123404054,0.9606067551257849,1.3132023376600481
81,0.33727903012758836,1.5817164723007864,-0.25324336561669825,0.3234783795889726,-0.85474717089399,-0.7059468432513097,1.639706097053757,0.37540988591462254,0.17749339947902665,-0.7067820925991801,-0.9289713352720299,1.3081907573325982,0.16033376470255084,-0.21468502463115344,-0.4900494869094422,0.024797059795425413,-1.6247309935064047,2.3816848742687498,-1.0676099477688,-0.6857703928820883,-0.4476257781394962,0.16250277779129263,-1.2241217091976782,0.6845788476082773,1.6828159714575657,0.7172274220629749,1.3866416858653656,0.2097813506049924,-0.9988776983032255,0.7728876182148199,0.004068813952752013,-0.26363479123404054,0.9606067551257849,1.3238172796895447
82,0.33727903012758836,1.5817164723007864,-0.25324336561669825,0.3234783795889726,-0.85474717089399,-0.7059468432513097,1.639706097053757,0.37540988591462254,0.21928953995667527,-0.7067820925991801,-0.9289713352720299,1.4133556317208602,0.16033376470255084,-0.21468502463115344,-0.4900494869094422,0.024797059795425413,-1.6247309935064047,2.3816848742687498,-1.0676099477688,-0.6857703928820883,-0.4476257781394962,0.16250277779129263,-1.2241217091976782,0.6845788476082773,1.6828159714575657,0.7172274220629749,1.3866416858653656,0.2097813506049924,-0.9988776983032255,0.7728876182148199,0.004068813952752013,-0.26363479123404054,0.9606067551257849,1.3399811226725646
83,0.33727903012758836,1.5817164723007864,-0.25324336561669825,0.3234783795889726,-0.85474717089399,-0.7059468432513097,1.639706097053757,0.37540988591462254,0.21928953995667527,-0.7067820925991801,-0.9289713352720299,1.4370620225441368,0.20910059286619356,-0.21468502463115344,-0.4900494869094422,0.024797059795425413,-1.6247309935064047,2.3816848742687498,-1.0676099477688,-0.6857703928820883,-0.4476257781394962,0.16250277779129263,-1.2241217091976782,0.6845788476082773,1.7194320223306219,0.7172274220629749,1.3866416858653656,0.2097813506049924,-0.9988776983032255,0.7728876182148199,0.004068813952752013,-0.26363479123404054,0.9606067551257849,1.3502254070609647
84,0.33727903012758836,1.5817164723007864,-0.25324336561669825,0.3234783795889726,-0.85474717089399,-0.7059468432513097,1.639706097053757,0.37540988591462254,0.21928953995667527,-0.7067820925991801,-0.9289713352720299,1.4370620225441368,0.20910059286619356,-0.21468502463115344,-0.4900494869094422,0.024797059795425413,-1.6247309935064047,2.3816848742687498,-1.0676099477688,-0.6857703928820883,-0.4476257781394962,0.16250277779129263,-1.2241217091976782,0.6845788476082773,1.7194320223306219,0.7172274220629749,1.3866416858653656,0.2097813506049924,-0.9988776983032255,0.7728876182148199,0.004068813952752013,-0.26363479123404054,0.974063828447551,1.386481891773282
85,0.33727903012758836,1.5817164723007864,-0.25324336561669825,0.3234783795889726,-0.85474717089399,-0.7059468432513097,1.639706097053757,0.37540988591462254,0.2675729575818236,-0.7067820925991801,-0.9289713352720299,1.4613373213091116,0.20910059286619356,-0.21468502463115344,-0.4900494869094422,0.024797059795425413,-1.6247309935064047,2.3816848742687498,-1.0676099477688,-0.6186914623478048,-0.4476257781394962,0.16250277779129263,-1.2241217091976782,0.6845788476082773,1.7559748777179829,0.7172274220629749,1.3866416858653656,0.2097813506049924,-0.9988776983032255,0.7728876182148199,0.004068813952752013,-0.26363479123404054,0.974063828447551,1.4013535359242129
86,0.33727903012758836,1.5817164723007864,-0.25324336561669825,0.3234783795889726,-0.85474717089399,-0.7059468432513097,1.639706097053757,0.37540988591462254,0.2675729575818236,-0.7067820925991801,-0.9289713352720299,1.4829579449977035,0.20910059286619356,-0.21468502463115344,-0.4900494869094422,0.024797059795425413,-1.6247309935064047,2.3816848742687498,-1.0676099477688,-0.6186914623478048,-0.4476257781394962,0.16250277779129263,-1.2241217091976782,0.6845788476082773,1.7924446839374246,0.7172274220629749,1.3866416858653656,0.2392958827468576,-0.9988776983032255,0.7728876182148199,0.004068813952752013,-0.26363479123404054,1.0015506757407784,1.4280088884248765
87,0.33727903012758836,1.5817164723007864,-0.25324336561669825,0.3234783795889726,-0.7835957784812991,-0.7059468432513097,1.639706097053757,0.37540988591462254,0.2675729575818236,-0.7067820925991801,-0.9289713352720299,1.5293873712551296,0.20910059286619356,-0.21468502463115344,-0.4900494869094422,0.024797059795425413,-1.6247309935064047,2.3816848742687498,-1.0676099477688,-0.6186914623478048,-0.4476257781394962,0.16250277779129263,-1.2241217091976782,0.6845788476082773,1.8288415870142336,0.7172274220629749,1.3866416858653656,0.2392958827468576,-0.9988776983032255,0.7728876182148199,0.004068813952752013,-0.18507811626045634,1.0015506757407784,1.4280884601231376
88,0.33727903012758836,1.5817164723007864,-0.25324336561669825,0.3234783795889726,-0.7835957784812991,-0.7059468432513097,1.639706097053757,0.37540988591462254,0.2675729575818236,-0.7067820925991801,-0.9289713352720299,1.5535476139832973,0.20910059286619356,-0.21468502463115344,-0.4900494869094422,0.024797059795425413,-1.6247309935064047,2.3816848742687498,-1.0676099477688,-0.6186914623478048,-0.4476257781394962,0.16250277779129263,-1.2241217091976782,0.6845788476082773,1.8288415870142336,0.7172274220629749,1.3866416858653656,0.2392958827468576,-0.9988776983032255,0.7728876182148199,0.004068813952752013,-0.18507811626045634,1.0015506757407784,1.4578068191117748
89,0.33727903012758836,1.5817164723007864,-0.25324336561669825,0.3234783795889726,-0.7835957784812991,-0.7059468432513097,1.639706097053757,0.37540988591462254,0.2675729575818236,-0.7067820925991801,-0.9289713352720299,1.5535476139832973,0.26001182317198684,-0.21468502463115344,-0.4900494869094422,0.024797059795425413,-1.6247309935064047,2.3816848742687498,-1.0676099477688,-0.6186914623478048,-0.4476257781394962,0.16250277779129263,-1.2241217091976782,0.6845788476082773,1.859635769135779,0.7172274220629749,1.3866416858653656,0.2392958827468576,-0.9988776983032255,0.7728876182148199,0.004068813952752013,-0.18507811626045634,1.0015506757407784,1.4637439248926565
90,0.33727903012758836,1.5817164723007864,-0.25324336561669825,0.3234783795889726,-0.7835957784812991,-0.7059468432513097,1.639706097053757,0.37540988591462254,0.2675729575818236,-0.7067820925991801,-0.9289713352720299,1.5535476139832973,0.26001182317198684,-0.21468502463115344,-0.4900494869094422,0.024797059795425413,-1.6247309935064047,2.3816848742687498,-1.0676099477688,-0.6186914623478048,-0.4476257781394962,0.16250277779129263,-1.2241217091976782,0.6845788476082773,1.8759183572332765,0.7172274220629749,1.3866416858653656,0.2392958827468576,-0.9988776983032255,0.7728876182148199,0.004068813952752013,-0.18507811626045634,1.0300877987641042,1.5035861335863896
91,0.33727903012758836,1.5817164723007864,-0.25324336561669825,0.3234783795889726,-0.7835957784812991,-0.7059468432513097,1.639706097053757,0.37540988591462254,0.2675729575818236,-0.7067820925991801,-0.9289713352720299,1.5535476139832973,0.26001182317198684,-0.21468502463115344,-0.4900494869094422,0.024797059795425413,-1.6247309935064047,2.3816848742687498,-1.0676099477688,-0.6186914623478048,-0.4476257781394962,0.16250277779129263,-1.2241217091976782,0.6845788476082773,1.8940424388760433,0.7172274220629749,1.3866416858653656,0.2392958827468576,-0.9988776983032255,0.7728876182148199,0.004068813952752013,-0.18507811626045634,1.0300877987641042,1.5258912474627
92,0.33727903012758836,1.5817164723007864,-0.25324336561669825,0.3234783795889726,-0.7835957784812991,-0.7059468432513097,1.639706097053757,0.37540988591462254,0.2675729575818236,-0.7067820925991801,-0.9289713352720299,1.5794944759276925,0.26001182317198684,-0.21468502463115344,-0.4900494869094422,0.024797059795425413,-1.6247309935064047,2.3816848742687498,-1.0676099477688,-0.6186914623478048,-0.4476257781394962,0.16250277779129263,-1.2241217091976782,0.6845788476082773,1.9663577057808967,0.7172274220629749,1.3866416858653656,0.27152777931598154,-0.9988776983032255,0.7728876182148199,0.004068813952752013,-0.14435873971118612,1.0300877987641042,1.5542054117862394
93,0.33727903012758836,1.5817164723007864,-0.25324336561669825,0.3234783795889726,-0.7105630665018361,-0.7059468432513097,1.639706097053757,0.37540988591462254,0.2675729575818236,-0.7067820925991801,-0.9289713352720299,1.6052653828189758,0.26001182317198684,-0.21468502463115344,-0.4900494869094422,0.024797059795425413,-1.6247309935064047,2.3816848742687498,-1.0676099477688,-0.6186914623478048,-0.4476257781394962,0.16250277779129263,-1.2241217091976782,0.6845788476082773,2.000424549770314,0.7172274220629749,1.3866416858653656,0.27152777931598154,-0.9988776983032255,0.7728876182148199,0.004068813952752013,-0.14435873971118612,1.0300877987641042,1.5846633074793945
94,0.33727903012758836,1.5817164723007864,-0.25324336561669825,0.3234783795889726,-0.7105630665018361,-0.7059468432513097,1.639706097053757,0.37540988591462254,0.2675729575818236,-0.7067820925991801,-0.9289713352720299,1.6052653828189758,0.26001182317198684,-0.21468502463115344,-0.4900494869094422,0.024797059795425413,-1.6247309935064047,2.3816848742687498,-1.0676099477688,-0.6186914623478048,-0.4476257781394962,0.16250277779129263,-1.2241217091976782,0.6845788476082773,2.0523349260988337,0.7172274220629749,1.3866416858653656,0.27152777931598154,-0.9988776983032255,0.7728876182148199,0.004068813952752013,-0.14435873971118612,1.0300877987641042,1.6108568457559649
95,0.33727903012758836,1.5817164723007864,-0.25324336561669825,0.3234783795889726,-0.6370164359395174,-0.7059468432513097,1.639706097053757,0.37540988591462254,0.2675729575818236,-0.7067820925991801,-0.9289713352720299,1.6131764329917828,0.26001182317198684,-0.21468502463115344,-0.4900494869094422,0.024797059795425413,-1.6247309935064047,2.3816848742687498,-1.0676099477688,-0.6186914623478048,-0.4476257781394962,0.16250277779129263,-1.2241217091976782,0.6845788476082773,2.1061240962729806,0.7172274220629749,1.3866416858653656,0.27152777931598154,-0.9988776983032255,0.7728876182148199,0.004068813952752013,-0.14435873971118612,1.0300877987641042,1.6318065973213762
96,0.33727903012758836,1.5817164723007864,-0.25324336561669825,0.3234783795889726,-0.6370164359395174,-0.7059468432513097,1.639706097053757,0.37540988591462254,0.2675729575818236,-0.7067820925991801,-0.9289713352720299,1.6416088894618333,0.26001182317198684,-0.21468502463115344,-0.4900494869094422,0.024797059795425413,-1.6247309935064047,2.3816848742687498,-1.0676099477688,-0.6186914623478048,-0.4476257781394962,0.16250277779129263,-1.2241217091976782,0.6845788476082773,2.1418939542045305,0.7172274220629749,1.3866416858653656,0.27152777931598154,-0.9988776983032255,0.7728876182148199,0.004068813952752013,-0.14435873971118612,1.0300877987641042,1.6611332503667864
97,0.33727903012758836,1.5817164723007864,-0.25324336561669825,0.3234783795889726,-0.5632408180759708,-0.7059468432513097,1.639706097053757,0.37540988591462254,0.2675729575818236,-0.7067820925991801,-0.9289713352720299,1.6774510499457618,0.26001182317198684,-0.21468502463115344,-0.4900494869094422,0.024797059795425413,-1.6247309935064047,2.3816848742687498,-1.0676099477688,-0.6186914623478048,-0.4476257781394962,0.16250277779129263,-1.2241217091976782,0.6845788476082773,2.159752060250326,0.7172274220629749,1.3866416858653656,0.27152777931598154,-0.9988776983032255,0.7728876182148199,0.004068813952752013,-0.10043627577220621,1.0300877987641042,1.6762697282243062
98,0.33727903012758836,1.5817164723007864,-0.25324336561669825,0.3234783795889726,-0.5632408180759708,-0.7059468432513097,1.639706097053757,0.37540988591462254,0.3232567875749433,-0.7067820925991801,-0.9289713352720299,1.7056149085486023,0.26001182317198684,-0.21468502463115344,-0.4900494869094422,0.024797059795425413,-1.6247309935064047,2.3816848742687498,-1.0676099477688,-0.6186914623478048,-0.4476257781394962,0.16250277779129263,-1.2241217091976782,0.6845788476082773,2.1954147158818857,0.7172274220629749,1.3866416858653656,0.27152777931598154,-0.9988776983032255,0.7728876182148199,0.004068813952752013,-0.10043627577220621,1.0300877987641042,1.6762697282243062
99,0.33727903012758836,1.5817164723007864,-0.25324336561669825,0.3234783795889726,-0.48992483499229733,-0.7059468432513097,1.639706097053757,0.37540988591462254,0.4130473203984521,-0.7067820925991801,-0.9289713352720299,1.7056149085486023,0.28721826997097055,-0.21468502463115344,-0.4900494869094422,0.024797059795425413,-1.6247309935064047,2.3816848742687498,-1.0676099477688,-0.6186914623478048,-0.4476257781394962,0.16250277779129263,-1.2241217091976782,0.6845788476082773,2.2132193011660037,0.7172274220629749,1.3866416858653656,0.27152777931598154,-0.9988776983032255,0.7728876182148199,0.004068813952752013,-0.06602086699433865,1.0300877987641042,1.6924809485981
100,0.33727903012758836,1.5817164723007864,-0.25324336561669825,0.3234783795889726,-0.41773722273701946,-0.7059468432513097,1.639706097053757,0.37540988591462254,0.4130473203984521,-0.7067820925991801,-0.9289713352720299,1.7616030069698327,0.28721826997097055,-0.21468502463115344,-0.4900494869094422,0.024797059795425413,-1.6247309935064047,2.3816848742687498,-1.0676099477688,-0.6186914623478048,-0.4476257781394962,0.16250277779129263,-1.2241217091976782,0.6845788476082773,2.231006081864838,0.7172274220629749,1.3866416858653656,0.27152777931598154,-0.9988776983032255,0.7728876182148199,0.004068813952752013,-0.06602086699433865,1.0300877987641042,1.7246539595661414
101,0.33727903012758836,1.5817164723007864,-0.25324336561669825,0.3234783795889726,-0.3466557518424026,-0.7059468432513097,1.639706097053757,0.37540988591462254,0.4130473203984521,-0.7067820925991801,-0.9289713352720299,1.788760062385868,0.3442006310114276,-0.21468502463115344,-0.4900494869094422,0.024797059795425413,-1.6247309935064047,2.3816848742687498,-1.0676099477688,-0.6186914623478048,-0.4476257781394962,0.16250277779129263,-1.2241217091976782,0.6845788476082773,2.248775075782973,0.7172274220629749,1.3866416858653656,0.27152777931598154,-0.9988776983032255,0.7728876182148199,0.004068813952752013,-0.06602086699433865,1.0300877987641042,1.7246539595661414
102,0.33727903012758836,1.5817164723007864,-0.25324336561669825,0.3234783795889726,-0.27632170109183135,-0.7059468432513097,1.639706097053757,0.37540988591462254,0.4130473203984521,-0.7067820925991801,-0.9289713352720299,1.8160488608515872,0.3442006310114276,-0.21468502463115344,-0.4900494869094422,0.024797059795425413,-1.6247309935064047,2.3816848742687498,-1.0676099477688,-0.6186914623478048,-0.4476257781394962,0.16250277779129263,-1.1362383393000015,0.6845788476082773,2.284259774406483,0.7172274220629749,1.3866416858653656,0.27152777931598154,-0.9988776983032255,0.7728876182148199,0.004068813952752013,-0.06602086699433865,1.0300877987641042,1.7332248800882553
103,0.33727903012758836,1.5817164723007864,-0.25324336561669825,0.3234783795889726,-0.27632170109183135,-0.7059468432513097,1.639706097053757,0.37540988591462254,0.4688601712337145,-0.7067820925991801,-0.9289713352720299,1.8238016808777868,0.3442006310114276,-0.21468502463115344,-0.4900494869094422,0.024797059795425413,-1.6247309935064047,2.3816848742687498,-1.0676099477688,-0.6186914623478048,-0.4476257781394962,0.16250277779129263,-1.1362383393000015,0.6845788476082773,2.3196735391174443,0.7172274220629749,1.3866416858653656,0.27152777931598154,-0.9988776983032255,0.7728876182148199,0.004068813952752013,-0.06602086699433865,1.0532235775668315,1.7840941574302716
104,0.33727903012758836,1.5817164723007864,-0.25324336561669825,0.3234783795889726,-0.27632170109183135,-0.7059468432513097,1.639706097053757,0.37540988591462254,0.4688601712337145,-0.7067820925991801,-0.9289713352720299,1.86897359545257,0.3442006310114276,-0.21468502463115344,-0.4900494869094422,0.024797059795425413,-1.6247309935064047,2.3816848742687498,-1.0676099477688,-0.6186914623478048,-0.4476257781394962,0.16250277779129263,-1.1362383393000015,0.6845788476082773,2.3902888337058346,0.7172274220629749,1.3866416858653656,0.27152777931598154,-0.9988776983032255,0.7728876182148199,0.004068813952752013,-0.06602086699433865,1.0775745938559058,1.7924860715248976
105,0.33727903012758836,1.5817164723007864,-0.25324336561669825,0.3234783795889726,-0.27632170109183135,-0.7059468432513097,1.639706097053757,0.37540988591462254,0.4688601712337145,-0.7067820925991801,-0.9289713352720299,1.877344195896089,0.3442006310114276,-0.21468502463115344,-0.4900494869094422,0.024797059795425413,-1.6247309935064047,2.3816848742687498,-1.0676099477688,-0.6186914623478048,-0.4476257781394962,0.16250277779129263,-1.1362383393000015,0.6845788476082773,2.4254906463272565,0.7172274220629749,1.3866416858653656,0.27152777931598154,-0.9988776983032255,0.7728876182148199,0.004068813952752013,-0.06602086699433865,1.0775745938559058,1.8209478355887652
106,0.33727903012758836,1.5817164723007864,-0.25324336561669825,0.3234783795889726,-0.20471094478977686,-0.7059468432513097,1.639706097053757,0.37540988591462254,0.4688601712337145,-0.7067820925991801,-0.9289713352720299,1.877344195896089,0.3442006310114276,-0.21468502463115344,-0.4900494869094422,0.024797059795425413,-1.6247309935064047,2.3816848742687498,-1.0676099477688,-0.5598993951429111,-0.4476257781394962,0.16250277779129263,-1.1362383393000015,0.6845788476082773,2.4606220905252485,0.7172274220629749,1.3866416858653656,0.27152777931598154,-0.9988776983032255,0.7728876182148199,0.004068813952752013,-0.06602086699433865,1.0775745938559058,1.8400852594142816
107,0.33727903012758836,1.5817164723007864,-0.25324336561669825,0.3234783795889726,-0.1328661610444542,-0.7059468432513097,1.639706097053757,0.37540988591462254,0.4688601712337145,-0.7067820925991801,-0.9289713352720299,1.9075478768276943,0.3442006310114276,-0.21468502463115344,-0.4900494869094422,0.024797059795425413,-1.6247309935064047,2.3816848742687498,-1.0676099477688,-0.5009508423905258,-0.4476257781394962,0.16250277779129263,-1.1362383393000015,0.6845788476082773,2.5131876236593222,0.7172274220629749,1.3866416858653656,0.27152777931598154,-0.9988776983032255,0.7728876182148199,0.004068813952752013,-0.06602086699433865,1.103773666828315,1.8706615791457868
108,0.33727903012758836,1.5817164723007864,-0.25324336561669825,0.3234783795889726,-0.1328661610444542,-0.7059468432513097,1.639706097053757,0.37540988591462254,0.4688601712337145,-0.7067820925991801,-0.9289713352720299,1.9075478768276943,0.3442006310114276,-0.21468502463115344,-0.4900494869094422,0.024797059795425413,-1.6247309935064047,2.3816848742687498,-1.0676099477688,-0.42185425512053165,-0.4476257781394962,0.16250277779129263,-1.1362383393000015,0.6845788476082773,2.58303002222019,0.7172274220629749,1.3866416858653656,0.27152777931598154,-0.9988776983032255,0.7728876182148199,0.004068813952752013,-0.06602086699433865,1.103773666828315,1.903684944916791
109,0.33727903012758836,1.5817164723007864,-0.25324336561669825,0.3234783795889726,-0.1328661610444542,-0.7059468432513097,1.639706097053757,0.37540988591462254,0.5292220521679498,-0.7067820925991801,-0.9289713352720299,1.9494377967518053,0.4063941888133827,-0.21468502463115344,-0.4900494869094422,0.024797059795425413,-1.6247309935064047,2.3816848742687498,-1.0676099477688,-0.42185425512053165,-0.4476257781394962,0.16250277779129263,-1.1362383393000015,0.6845788476082773,2.6178465452057718,0.7172274220629749,1.3866416858653656,0.27152777931598154,-0.9988776983032255,0.7728876182148199,0.004068813952752013,-0.06602086699433865,1.1585476166525548,1.9264584284517219
110,0.33727903012758836,1.5817164723007864,-0.25324336561669825,0.3234783795889726,-0.060139492549014364,-0.7059468432513097,1.639706097053757,0.37540988591462254,0.6476554252420659,-0.7067820925991801,-0.9289713352720299,1.9808483167460453,0.4063941888133827,-0.21468502463115344,-0.4900494869094422,0.024797059795425413,-1.6247309935064047,2.3816848742687498,-1.0676099477688,-0.42185425512053165,-0.4476257781394962,0.16250277779129263,-1.1362383393000015,0.6845788476082773,2.6525934699619054,0.7172274220629749,1.3866416858653656,0.27152777931598154,-0.9988776983032255,0.7728876182148199,0.004068813952752013,-0.06602086699433865,1.1585476166525548,1.9264584284517219
111,0.33727903012758836,1.5817164723007864,-0.25324336561669825,0.3234783795889726,0.011462573231242126,-0.7059468432513097,1.639706097053757,0.37540988591462254,0.7054311933905715,-0.7067820925991801,-0.9289713352720299,2.0524822206013584,0.4063941888133827,-0.21468502463115344,-0.4900494869094422,0.024797059795425413,-1.6247309935064047,2.3816848742687498,-1.0676099477688,-0.42185425512053165,-0.4476257781394962,0.16250277779129263,-1.1362383393000015,0.6845788476082773,2.6699408764919434,0.7172274220629749,1.3866416858653656,0.27152777931598154,-0.9988776983032255,0.7728876182148199,0.004068813952752013,0.00569882627482432,1.1585476166525548,1.9613612921337769
112,0.33727903012758836,1.5817164723007864,-0.25324336561669825,0.3234783795889726,0.08262041139553417,-0.7059468432513097,1.639706097053757,0.37540988591462254,0.7054311933905715,-0.7067820925991801,-0.9289713352720299,2.0524822206013584,0.4063941888133827,-0.21468502463115344,-0.4900494869094422,0.024797059795425413,-1.6247309935064047,2.3816848742687498,-1.0676099477688,-0.42185425512053165,-0.4476257781394962,0.16250277779129263,-1.0421264828850847,0.6845788476082773,2.704583664679836,0.7172274220629749,1.3866416858653656,0.27152777931598154,-0.9988776983032255,0.7728876182148199,0.004068813952752013,0.00569882627482432,1.1867637539484206,1.9728629429444482
113,0.33727903012758836,1.5817164723007864,-0.25324336561669825,0.3234783795889726,0.08262041139553417,-0.7059468432513097,1.639706097053757,0.37540988591462254,0.7636945123726719,-0.7067820925991801,-0.9289713352720299,2.1158071251084816,0.47063824788702696,-0.21468502463115344,-0.4900494869094422,0.024797059795425413,-1.6247309935064047,2.3816848742687498,-1.0676099477688,-0.42185425512053165,-0.4476257781394962,0.16250277779129263,-1.0421264828850847,0.6845788476082773,2.756418044732207,0.7172274220629749,1.3866416858653656,0.31846916657957386,-0.9988776983032255,0.7728876182148199,0.004068813952752013,0.00569882627482432,1.270652042907061,2.0318019871638744
114,0.33727903012758836,1.5817164723007864,-0.25324336561669825,0.3234783795889726,0.08262041139553417,-0.7059468432513097,1.639706097053757,0.37540988591462254,0.8211201930322806,-0.7067820925991801,-0.9289713352720299,2.1756452378541615,0.47063824788702696,-0.21468502463115344,-0.4900494869094422,0.024797059795425413,-1.6247309935064047,2.3816848742687498,-1.0676099477688,-0.42185425512053165,-0.4476257781394962,0.16250277779129263,-1.0421264828850847,0.6845788476082773,2.7736616266874745,0.7172274220629749,1.3866416858653656,0.31846916657957386,-0.9988776983032255,0.7728876182148199,0.004068813952752013,0.00569882627482432,1.2976109448988316,2.0318019871638744
115,0.33727903012758836,1.5817164723007864,-0.25324336561669825,0.3234783795889726,0.08262041139553417,-0.7059468432513097,1.639706097053757,0.37540988591462254,0.8211201930322806,-0.7067820925991801,-0.9289713352720299,2.234730298475478,0.5345793273941052,-0.21468502463115344,-0.4900494869094422,0.024797059795425413,-1.6247309935064047,2.3816848742687498,-1.0676099477688,-0.27950821457741737,-0.4476257781394962,0.16250277779129263,-1.0421264828850847,0.6845788476082773,2.8080970770957263,0.7172274220629749,1.3866416858653656,0.31846916657957386,-0.9988776983032255,0.7728876182148199,0.004068813952752013,0.00569882627482432,1.2976109448988316,2.1019546486097616
116,0.33727903012758836,1.5817164723007864,-0.25324336561669825,0.3234783795889726,0.15497481329735713,-0.7059468432513097,1.639706097053757,0.37540988591462254,0.8211201930322806,-0.7067820925991801,-0.9289713352720299,2.253168462712722,0.5982205441658269,-0.21468502463115344,-0.4900494869094422,0.024797059795425413,-1.6247309935064047,2.3816848742687498,-1.0676099477688,-0.27950821457741737,-0.4476257781394962,0.16250277779129263,-1.0421264828850847,0.6845788476082773,2.8596212273475734,0.7172274220629749,1.3866416858653656,0.31846916657957386,-0.9988776983032255,0.7728876182148199,0.004068813952752013,0.00569882627482432,1.3538045020536533,2.1471667695020487
117,0.33727903012758836,1.5817164723007864,-0.25324336561669825,0.3234783795889726,0.22653378754769427,-0.7059468432513097,1.639706097053757,0.37540988591462254,0.8211201930322806,-0.7067820925991801,-0.9289713352720299,2.262763563974752,0.6618896526879989,-0.21468502463115344,-0.4900494869094422,0.024797059795425413,-1.6247309935064047,2.3816848742687498,-1.0676099477688,-0.27950821457741737,-0.4476257781394962,0.16250277779129263,-1.0421264828850847,0.6845788476082773,2.9280799687099224,0.7172274220629749,1.3866416858653656,0.31846916657957386,-0.9988776983032255,0.7728876182148199,0.004068813952752013,0.00569882627482432,1.3538045020536533,2.2031820357651513
118,0.33727903012758836,1.5817164723007864,-0.25324336561669825,0.3234783795889726,0.22653378754769427,-0.7059468432513097,1.639706097053757,0.37540988591462254,0.880655675057718,-0.7067820925991801,-0.9289713352720299,2.293141812100745,0.724609745520322,-0.21468502463115344,-0.4900494869094422,0.024797059795425413,-1.6247309935064047,2.3816848742687498,-1.0676099477688,-0.19796016439978598,-0.4476257781394962,0.16250277779129263,-1.0421264828850847,0.6845788476082773,2.9451518887412123,0.7172274220629749,1.3866416858653656,0.31846916657957386,-0.9988776983032255,0.7728876182148199,0.004068813952752013,0.00569882627482432,1.3538045020536533,2.2031820357651513
119,0.33727903012758836,1.5817164723007864,-0.25324336561669825,0.3234783795889726,0.22653378754769427,-0.7059468432513097,1.639706097053757,0.37540988591462254,0.880655675057718,-0.7067820925991801,-0.9289713352720299,2.402655688300787,0.724609745520322,-0.21468502463115344,-0.4900494869094422,0.024797059795425413,-1.6247309935064047,2.3816848742687498,-1.0676099477688,-0.19796016439978598,-0.4476257781394962,0.16250277779129263,-1.0421264828850847,0.6845788476082773,2.9792445301156185,0.7172274220629749,1.3866416858653656,0.31846916657957386,-0.9988776983032255,0.7728876182148199,0.004068813952752013,0.00569882627482432,1.4119557792847184,2.249998402852203
120,0.33727903012758836,1.5817164723007864,-0.25324336561669825,0.3234783795889726,0.2992552231824388,-0.7059468432513097,1.639706097053757,0.37540988591462254,0.880655675057718,-0.7067820925991801,-0.9289713352720299,2.4321774338090836,0.724609745520322,-0.21468502463115344,-0.4900494869094422,0.024797059795425413,-1.6247309935064047,2.3816848742687498,-1.0676099477688,-0.13642610183747753,-0.4476257781394962,0.16250277779129263,-1.0421264828850847,0.6845788476082773,3.0302557512796175,0.7172274220629749,1.3866416858653656,0.31846916657957386,-0.9988776983032255,0.7728876182148199,0.004068813952752013,0.00569882627482432,1.4700405517881827,2.308291525094061
121,0.33727903012758836,1.5817164723007864,-0.25324336561669825,0.3234783795889726,0.2992552231824388,-0.7059468432513097,1.639706097053757,0.37540988591462254,0.880655675057718,-0.7067820925991801,-0.9289713352720299,2.441108744407215,0.724609745520322,-0.21468502463115344,-0.4900494869094422,0.024797059795425413,-1.6247309935064047,2.3816848742687498,-1.0676099477688,-0.13642610183747753,-0.4476257781394962,0.16250277779129263,-1.0421264828850847,0.6845788476082773,3.047225495528338,0.7172274220629749,1.3866416858653656,0.31846916657957386,-0.9988776983032255,0.7728876182148199,0.004068813952752013,0.00569882627482432,1.5528835232288125,2.363738446559753
122,0.33727903012758836,1.5817164723007864,-0.25324336561669825,0.3234783795889726,0.2992552231824388,-0.7059468432513097,1.639706097053757,0.37540988591462254,0.880655675057718,-0.7067820925991801,-0.9289713352720299,2.478677461270465,0.7886587183534083,-0.21468502463115344,-0.4900494869094422,0.024797059795425413,-1.6247309935064047,2.3816848742687498,-1.0676099477688,-0.05515641205723522,-0.4476257781394962,0.16250277779129263,-0.9427427854838902,0.6845788476082773,3.081114091762777,0.7172274220629749,1.3866416858653656,0.31846916657957386,-0.9988776983032255,0.7728876182148199,0.004068813952752013,0.00569882627482432,1.5528835232288125,2.385414910546217
123,0.33727903012758836,1.5817164723007864,-0.25324336561669825,0.3234783795889726,0.2992552231824388,-0.7059468432513097,1.639706097053757,0.37540988591462254,0.9215837293000564,-0.7067820925991801,-0.9289713352720299,2.4876450797885488,0.7886587183534083,-0.21468502463115344,-0.4900494869094422,0.024797059795425413,-1.6247309935064047,2.3816848742687498,-1.0676099477688,-0.05515641205723522,-0.4476257781394962,0.16250277779129263,-0.9427427854838902,0.6845788476082773,3.1149349446933434,0.7172274220629749,1.3866416858653656,0.3712835471971559,-0.9988776983032255,0.7728876182148199,0.004068813952752013,0.00569882627482432,1.5810096167134098,2.4472476402586634
124,0.33727903012758836,1.5817164723007864,-0.25324336561669825,0.3234783795889726,0.2992552231824388,-0.7059468432513097,1.639706097053757,0.37540988591462254,0.9215837293000564,-0.7067820925991801,-0.9289713352720299,2.517396758378002,0.7886587183534083,-0.21468502463115344,-0.4900494869094422,0.024797059795425413,-1.6247309935064047,2.3816848742687498,-1.0676099477688,-0.05515641205723522,-0.4476257781394962,0.16250277779129263,-0.9427427854838902,0.6845788476082773,3.1655395015491625,0.7172274220629749,1.3866416858653656,0.3712835471971559,-0.9988776983032255,0.7728876182148199,0.004068813952752013,0.00569882627482432,1.5810096167134098,2.4873113439207764
125,0.33727903012758836,1.5817164723007864,-0.25324336561669825,0.3234783795889726,0.2992552231824388,-0.7059468432513097,1.639706097053757,0.37540988591462254,0.9215837293000564,-0.7067820925991801,-0.9289713352720299,2.5271339284893464,0.7886587183534083,-0.21468502463115344,-0.4900494869094422,0.024797059795425413,-1.6247309935064047,2.3816848742687498,-1.0676099477688,-0.05515641205723522,-0.4476257781394962,0.16250277779129263,-0.9427427854838902,0.6845788476082773,3.19603237649748,0.7172274220629749,1.3866416858653656,0.3712835471971559,-0.9988776983032255,0.7728876182148199,0.004068813952752013,0.00569882627482432,1.5810096167134098,2.518148402708423
126,0.33727903012758836,1.5817164723007864,-0.25324336561669825,0.3234783795889726,0.44787768584255766,-0.7059468432513097,1.639706097053757,0.37540988591462254,0.9215837293000564,-0.7067820925991801,-0.9289713352720299,2.53795409656732,0.8542483906341005,-0.21468502463115344,-0.4900494869094422,0.024797059795425413,-1.6247309935064047,2.3816848742687498,-1.0676099477688,-0.05515641205723522,-0.4476257781394962,0.16250277779129263,-0.9427427854838902,0.6845788476082773,3.2296235077768616,0.7172274220629749,1.3866416858653656,0.3712835471971559,-0.9988776983032255,0.7728876182148199,0.004068813952752013,0.00569882627482432,1.5810096167134098,2.5386644639650044
127,0.33727903012758836,1.5817164723007864,-0.25324336561669825,0.3234783795889726,0.5206016159268191,-0.7059468432513097,1.639706097053757,0.37540988591462254,0.9215837293000564,-0.7067820925991801,-0.9289713352720299,2.53795409656732,0.8542483906341005,-0.21468502463115344,-0.4900494869094422,0.024797059795425413,-1.6247309935064047,2.3816848742687498,-1.0676099477688,-0.05515641205723522,-0.4476257781394962,0.16250277779129263,-0.9427427854838902,0.6845788476082773,3.246393884269085,0.7172274220629749,1.3866416858653656,0.3712835471971559,-0.9988776983032255,0.7728876182148199,0.004068813952752013,0.08726633355044046,1.5810096167134098,2.5492540213334647
128,0.33727903012758836,1.5817164723007864,-0.25324336561669825,0.3234783795889726,0.5206016159268191,-0.7059468432513097,1.639706097053757,0.37540988591462254,0.9215837293000564,-0.7067820925991801,-0.9289713352720299,2.568876498437086,0.9191632251387301,-0.21468502463115344,-0.4900494869094422,0.024797059795425413,-1.6247309935064047,2.3816848742687498,-1.0676099477688,-0.05515641205723522,-0.4476257781394962,0.16250277779129263,-0.9427427854838902,0.6845788476082773,3.263147490384816,0.7172274220629749,1.3866416858653656,0.4458576785705243,-0.9988776983032255,0.7728876182148199,0.004068813952752013,0.08726633355044046,1.5810096167134098,2.5704329000148625
129,0.33727903012758836,1.5817164723007864,-0.25324336561669825,0.3234783795889726,0.5206016159268191,-0.7059468432513097,1.639706097053757,0.37540988591462254,0.9215837293000564,-0.7067820925991801,-0.9289713352720299,2.568876498437086,0.9840498570144944,-0.21468502463115344,-0.4900494869094422,0.024797059795425413,-1.6247309935064047,2.3816848742687498,-1.0676099477688,-0.05515641205723522,-0.4476257781394962,0.16250277779129263,-0.9427427854838902,0.6845788476082773,3.3299945462388925,0.7172274220629749,1.3866416858653656,0.4458576785705243,-0.9988776983032255,0.7728876182148199,0.004068813952752013,0.08726633355044046,1.6123422736069084,2.602522423353508
130,0.33727903012758836,1.5817164723007864,-0.25324336561669825,0.3234783795889726,0.5206016159268191,-0.7059468432513097,1.639706097053757,0.37540988591462254,0.9215837293000564,-0.7067820925991801,-0.9289713352720299,2.568876498437086,0.9840498570144944,-0.21468502463115344,-0.4900494869094422,0.024797059795425413,-1.6247309935064047,2.3816848742687498,-1.0676099477688,-0.05515641205723522,-0.4476257781394962,0.16250277779129263,-0.9427427854838902,0.6845788476082773,3.3633178871409606,0.7172274220629749,1.3866416858653656,0.4458576785705243,-0.9988776983032255,0.7728876182148199,0.004068813952752013,0.08726633355044046,1.6123422736069084,2.6137418712649767
131,0.33727903012758836,1.5817164723007864,-0.25324336561669825,0.3234783795889726,0.5206016159268191,-0.7059468432513097,1.639706097053757,0.37540988591462254,0.987622817475383,-0.7067820925991801,-0.9289713352720299,2.6019697312296723,0.9840498570144944,-0.21468502463115344,-0.4900494869094422,0.024797059795425413,-1.6247309935064047,2.3816848742687498,-1.0676099477688,-0.05515641205723522,-0.4476257781394962,0.16250277779129263,-0.9427427854838902,0.6845788476082773,3.3931980400698816,0.7172274220629749,1.3866416858653656,0.5214112877604415,-0.9988776983032255,0.7728876182148199,0.004068813952752013,0.08726633355044046,1.6443145649505928,2.659915938274943
132,0.33727903012758836,1.5817164723007864,-0.25324336561669825,0.3234783795889726,0.595605987809144,-0.7059468432513097,1.639706097053757,0.37540988591462254,0.987622817475383,-0.7067820925991801,-0.9289713352720299,2.6144010993664066,0.9840498570144944,-0.21468502463115344,-0.4900494869094422,0.024797059795425413,-1.6247309935064047,2.3816848742687498,-1.0676099477688,-0.05515641205723522,-0.4476257781394962,0.16250277779129263,-0.9427427854838902,0.6845788476082773,3.459525673508443,0.7172274220629749,1.3866416858653656,0.5214112877604415,-0.9988776983032255,0.7728876182148199,0.004068813952752013,0.08726633355044046,1.6443145649505928,2.6831810188262177
133,0.33727903012758836,1.5817164723007864,-0.25324336561669825,0.3234783795889726,0.595605987809144,-0.7059468432513097,1.639706097053757,0.37540988591462254,0.987622817475383,-0.7067820925991801,-0.9289713352720299,2.6812463954242793,0.9840498570144944,-0.21468502463115344,-0.4900494869094422,0.024797059795425413,-1.6247309935064047,2.3816848742687498,-1.0676099477688,-0.05515641205723522,-0.4476257781394962,0.16250277779129263,-0.9427427854838902,0.6845788476082773,3.4925900816870996,0.7172274220629749,1.3866416858653656,0.5214112877604415,-0.9988776983032255,0.7728876182148199,0.004068813952752013,0.08726633355044046,1.6443145649505928,2.707074406318087
134,0.33727903012758836,1.5817164723007864,-0.25324336561669825,0.3234783795889726,0.595605987809144,-0.7059468432513097,1.639706097053757,0.37540988591462254,0.987622817475383,-0.7067820925991801,-0.9289713352720299,2.6812463954242793,0.9840498570144944,-0.21468502463115344,-0.4900494869094422,0.024797059795425413,-1.6247309935064047,2.3816848742687498,-1.0676099477688,-0.05515641205723522,-0.4476257781394962,0.16250277779129263,-0.9427427854838902,0.6845788476082773,3.5420628057196937,0.7172274220629749,1.3866416858653656,0.5982822553139069,-0.9988776983032255,0.7728876182148199,0.004068813952752013,0.08726633355044046,1.6443145649505928,2.707074406318087
135,0.33727903012758836,1.5817164723007864,-0.25324336561669825,0.3234783795889726,0.6713057621683266,-0.7059468432513097,1.639706097053757,0.37540988591462254,0.987622817475383,-0.7067820925991801,-0.9289713352720299,2.708634141723344,1.05198075398957,-0.21468502463115344,-0.4900494869094422,0.024797059795425413,-1.6247309935064047,2.3816848742687498,-1.0676099477688,-0.05515641205723522,-0.4476257781394962,0.16250277779129263,-0.9427427854838902,0.6845788476082773,3.57496222217106,0.7172274220629749,1.3866416858653656,0.5982822553139069,-0.9988776983032255,0.7728876182148199,0.004068813952752013,0.08726633355044046,1.6443145649505928,2.707074406318087
136,0.33727903012758836,1.5817164723007864,-0.25324336561669825,0.3234783795889726,0.6713057621683266,-0.7059468432513097,1.639706097053757,0.37540988591462254,0.987622817475383,-0.7067820925991801,-0.9289713352720299,2.7509036818139143,1.05198075398957,-0.21468502463115344,-0.4900494869094422,0.024797059795425413,-1.6247309935064047,2.3816848742687498,-1.0676099477688,-0.05515641205723522,-0.4476257781394962,0.16250277779129263,-0.9427427854838902,0.6845788476082773,3.6077958726889396,0.7172274220629749,1.3866416858653656,0.5982822553139069,-0.9988776983032255,0.7728876182148199,0.004068813952752013,0.08726633355044046,1.6443145649505928,2.812916432303935
137,0.33727903012758836,1.5817164723007864,-0.25324336561669825,0.3234783795889726,0.6713057621683266,-0.7059468432513097,1.639706097053757,0.37540988591462254,1.0364184827069653,-0.7067820925991801,-0.9289713352720299,2.7509036818139143,1.1198007123692875,-0.21468502463115344,-0.4900494869094422,0.024797059795425413,-1.6247309935064047,2.3816848742687498,-1.0676099477688,-0.05515641205723522,-0.4476257781394962,0.16250277779129263,-0.9427427854838902,0.6845788476082773,3.6205638887394347,0.7172274220629749,1.3866416858653656,0.5982822553139069,-0.9988776983032255,0.7728876182148199,0.004068813952752013,0.08726633355044046,1.6443145649505928,2.872198700243337
138,0.33727903012758836,1.5817164723007864,-0.25324336561669825,0.3234783795889726,0.6713057621683266,-0.7059468432513097,1.639706097053757,0.37540988591462254,1.0364184827069653,-0.7067820925991801,-0.9289713352720299,2.7509036818139143,1.1198007123692875,-0.21468502463115344,-0.4900494869094422,0.024797059795425413,-1.6247309935064047,2.3816848742687498,-1.0676099477688,0.0356011608232238,-0.4476257781394962,0.16250277779129263,-0.9427427854838902,0.6845788476082773,3.6660234020691744,0.7172274220629749,1.3866416858653656,0.5982822553139069,-0.9988776983032255,0.7728876182148199,0.004068813952752013,0.08726633355044046,1.6443145649505928,2.906420713832051
139,0.33727903012758836,1.5817164723007864,-0.25324336561669825,0.3234783795889726,0.6713057621683266,-0.7059468432513097,1.639706097053757,0.37540988591462254,1.0364184827069653,-0.7067820925991801,-0.9289713352720299,2.786470158756712,1.1873694883165766,-0.21468502463115344,-0.4900494869094422,0.024797059795425413,-1.6247309935064047,2.3816848742687498,-1.0676099477688,0.0356011608232238,-0.4476257781394962,0.16250277779129263,-0.9427427854838902,0.6845788476082773,3.7149763462671497,0.7172274220629749,1.3866416858653656,0.6569011607867046,-0.9988776983032255,0.7728876182148199,0.004068813952752013,0.08726633355044046,1.6443145649505928,2.929856738149758
140,0.33727903012758836,1.5817164723007864,-0.25324336561669825,0.3234783795889726,0.6713057621683266,-0.7059468432513097,1.639706097053757,0.37540988591462254,1.0364184827069653,-0.7067820925991801,-0.9289713352720299,2.8213253061606536,1.1873694883165766,-0.21468502463115344,-0.4900494869094422,0.024797059795425413,-1.6247309935064047,2.3816848742687498,-1.0676099477688,0.0356011608232238,-0.4476257781394962,0.16250277779129263,-0.9427427854838902,0.6845788476082773,3.7475301085509614,0.7172274220629749,1.3866416858653656,0.6569011607867046,-0.9988776983032255,0.7728876182148199,0.004068813952752013,0.08726633355044046,1.6443145649505928,2.9763869954821307
141,0.33727903012758836,1.5817164723007864,-0.25324336561669825,0.3234783795889726,0.7490827189874283,-0.7059468432513097,1.639706097053757,0.37540988591462254,1.0868931851152943,-0.7067820925991801,-0.9289713352720299,2.856101872099909,1.2548251706127134,-0.21468502463115344,-0.4900494869094422,0.024797059795425413,-1.6247309935064047,2.3816848742687498,-1.0676099477688,0.0356011608232238,-0.4476257781394962,0.16250277779129263,-0.9427427854838902,0.6845788476082773,3.7475301085509614,0.7172274220629749,1.3866416858653656,0.6569011607867046,-0.9988776983032255,0.7728876182148199,0.004068813952752013,0.1767240789418999,1.6443145649505928,3.010717142144299
142,0.33727903012758836,1.5817164723007864,-0.25324336561669825,0.3234783795889726,0.7490827189874283,-0.7059468432513097,1.639706097053757,0.37540988591462254,1.0868931851152943,-0.7067820925991801,-0.8388800395761835,2.856101872099909,1.2548251706127134,-0.21468502463115344,-0.4900494869094422,0.024797059795425413,-1.6247309935064047,2.3816848742687498,-1.0676099477688,0.12640100659716513,-0.4476257781394962,0.16250277779129263,-0.9427427854838902,0.6845788476082773,3.7637825784424104,0.7172274220629749,1.3866416858653656,0.6569011607867046,-0.9988776983032255,0.7728876182148199,0.004068813952752013,0.1767240789418999,1.6829401426419868,3.0217058713638814
143,0.33727903012758836,1.5817164723007864,-0.25324336561669825,0.3234783795889726,0.7490827189874283,-0.7059468432513097,1.639706097053757,0.37540988591462254,1.1569756785344039,-0.7067820925991801,-0.8388800395761835,2.970689655250565,1.2548251706127134,-0.21468502463115344,-0.4900494869094422,0.024797059795425413,-1.6247309935064047,2.3816848742687498,-1.0676099477688,0.12640100659716513,-0.4476257781394962,0.16250277779129263,-0.9427427854838902,0.6845788476082773,3.780018795863968,0.7172274220629749,1.3866416858653656,0.6569011607867046,-0.9988776983032255,0.7728876182148199,0.004068813952752013,0.1767240789418999,1.6829401426419868,3.054278892060103
144,0.33727903012758836,1.5817164723007864,-0.25324336561669825,0.3234783795889726,0.7490827189874283,-0.7059468432513097,1.639706097053757,0.37540988591462254,1.1569756785344039,-0.7067820925991801,-0.7493584669653577,3.004019833964856,1.2548251706127134,-0.21468502463115344,-0.4900494869094422,0.024797059795425413,-1.6247309935064047,2.3816848742687498,-1.0676099477688,0.12640100659716513,-0.4476257781394962,0.16250277779129263,-0.9427427854838902,0.6845788476082773,3.828630095752745,0.7172274220629749,1.3866416858653656,0.6569011607867046,-0.9988776983032255,0.7728876182148199,0.004068813952752013,0.1767240789418999,1.6829401426419868,3.0755337550349258
145,0.33727903012758836,1.5817164723007864,-0.25324336561669825,0.3234783795889726,0.8274592412273151,-0.7059468432513097,1.639706097053757,0.37540988591462254,1.1569756785344039,-0.7067820925991801,-0.7493584669653577,3.0166834091048607,1.2548251706127134,-0.21468502463115344,-0.4900494869094422,0.024797059795425413,-1.6247309935064047,2.3816848742687498,-1.0676099477688,0.19746414008979454,-0.4476257781394962,0.16250277779129263,-0.8302967761496397,0.6845788476082773,3.873218611819617,0.7172274220629749,1.3866416858653656,0.6569011607867046,-0.9988776983032255,0.7728876182148199,0.004068813952752013,0.26624082521054476,1.7228724934137198,3.131304072731456
146,0.33727903012758836,1.5817164723007864,-0.25324336561669825,0.3234783795889726,0.8274592412273151,-0.7059468432513097,1.639706097053757,0.37540988591462254,1.228039829872193,-0.7067820925991801,-0.7493584669653577,3.029940894547336,1.2548251706127134,-0.21468502463115344,-0.4900494869094422,0.024797059795425413,-1.6247309935064047,2.3816848742687498,-1.0676099477688,0.19746414008979454,-0.4476257781394962,0.16250277779129263,-0.8302967761496397,0.6845788476082773,3.905456047814589,0.7172274220629749,1.3866416858653656,0.6569011607867046,-0.9988776983032255,0.7728876182148199,0.004068813952752013,0.26624082521054476,1.7228724934137198,3.1536274269118487
